<?xml version="1.0"?>
<opencv_storage>
<opencv_ml_svm>
  <format>3</format>
  <svmType>C_SVC</svmType>
  <kernel>
    <type>INTER</type>
    <gamma>1.</gamma></kernel>
  <C>1.</C>
  <term_criteria><iterations>100</iterations></term_criteria>
  <var_count>256</var_count>
  <class_count>2</class_count>
  <class_labels type_id="opencv-matrix">
    <rows>2</rows>
    <cols>1</cols>
    <dt>i</dt>
    <data>
      -1082130432 1065353216</data></class_labels>
  <sv_total>184</sv_total>
  <support_vectors>
    <_>
      1142. 164. 173. 70. 164. 63. 75. 81. 152. 40. 41. 26. 78. 29. 61.
      70. 166. 39. 45. 16. 50. 12. 33. 21. 73. 17. 21. 16. 68. 23. 73.
      53. 176. 36. 48. 16. 44. 22. 21. 27. 47. 15. 22. 10. 29. 15. 17.
      27. 71. 20. 25. 19. 24. 19. 19. 26. 65. 10. 16. 13. 70. 34. 93.
      81. 158. 64. 40. 35. 26. 17. 23. 23. 36. 27. 17. 18. 16. 19. 13.
      29. 55. 16. 12. 13. 23. 15. 10. 18. 37. 12. 9. 26. 22. 26. 22. 43.
      79. 35. 23. 26. 20. 8. 15. 19. 33. 20. 16. 22. 10. 14. 22. 52.
      106. 27. 22. 36. 31. 23. 23. 55. 93. 34. 28. 45. 55. 48. 71. 218.
      194. 79. 54. 67. 36. 30. 24. 101. 45. 25. 17. 27. 26. 24. 25. 101.
      42. 22. 14. 14. 19. 20. 21. 33. 29. 15. 14. 21. 22. 25. 44. 66.
      56. 23. 16. 20. 15. 17. 20. 32. 20. 7. 15. 21. 11. 20. 14. 58. 33.
      14. 17. 19. 15. 16. 20. 43. 38. 26. 20. 40. 30. 56. 65. 187. 90.
      103. 29. 82. 20. 27. 21. 71. 29. 38. 16. 33. 13. 27. 24. 78. 42.
      21. 14. 33. 21. 22. 16. 50. 33. 27. 20. 42. 22. 44. 47. 166. 70.
      81. 20. 112. 23. 31. 19. 94. 25. 23. 15. 64. 19. 35. 27. 200. 84.
      62. 34. 83. 37. 43. 43. 205. 113. 90. 76. 179. 73. 178. 182. 1382.</_>
    <_>
      125. 13. 39. 57. 14. 2. 65. 146. 82. 4. 6. 7. 63. 2. 196. 617. 10.
      1. 4. 5. 0. 0. 1. 5. 47. 0. 7. 2. 77. 1. 328. 196. 58. 8. 7. 6. 3.
      0. 3. 3. 8. 1. 0. 2. 11. 0. 7. 2. 44. 2. 2. 3. 2. 0. 0. 5. 202.
      14. 2. 5. 528. 17. 134. 90. 14. 2. 6. 2. 0. 1. 3. 4. 8. 0. 0. 0.
      3. 0. 10. 15. 0. 1. 0. 0. 0. 0. 1. 0. 2. 0. 0. 0. 2. 0. 2. 6. 64.
      1. 9. 3. 5. 0. 4. 10. 13. 1. 0. 0. 9. 1. 5. 7. 138. 1. 5. 8. 1. 1.
      1. 11. 862. 15. 5. 17. 234. 10. 82. 126. 109. 85. 10. 256. 6. 5.
      14. 886. 29. 9. 1. 16. 11. 2. 12. 320. 3. 3. 0. 13. 0. 0. 0. 17.
      10. 7. 0. 8. 5. 2. 7. 97. 4. 5. 1. 14. 1. 0. 0. 5. 0. 0. 0. 0. 0.
      0. 1. 4. 9. 4. 0. 7. 0. 0. 0. 14. 10. 6. 1. 12. 8. 6. 2. 70. 87.
      190. 11. 1154. 1. 2. 10. 413. 10. 12. 1. 4. 6. 3. 11. 106. 4. 2.
      0. 13. 1. 0. 0. 12. 4. 4. 2. 12. 6. 4. 6. 83. 327. 619. 10. 464.
      13. 7. 14. 161. 19. 6. 0. 3. 7. 9. 3. 65. 674. 380. 9. 191. 9. 6.
      6. 149. 388. 125. 4. 76. 99. 76. 51. 631.</_>
    <_>
      748. 92. 115. 72. 120. 25. 76. 96. 155. 31. 30. 22. 92. 14. 102.
      144. 152. 20. 26. 10. 65. 5. 27. 14. 82. 13. 33. 15. 193. 20. 207.
      90. 142. 36. 29. 16. 36. 7. 16. 14. 44. 8. 12. 7. 36. 10. 24. 16.
      115. 19. 25. 13. 24. 6. 19. 18. 147. 25. 23. 14. 257. 33. 196. 89.
      149. 52. 24. 30. 18. 8. 13. 24. 36. 10. 8. 7. 14. 5. 12. 29. 48.
      11. 10. 5. 12. 6. 10. 11. 30. 4. 9. 8. 26. 19. 41. 29. 107. 30.
      20. 24. 18. 6. 12. 21. 36. 11. 10. 12. 17. 7. 16. 38. 140. 28. 17.
      16. 16. 1. 26. 48. 180. 29. 23. 47. 130. 31. 121. 207. 164. 111.
      20. 115. 23. 14. 17. 158. 46. 20. 11. 26. 12. 14. 29. 117. 30. 13.
      10. 18. 12. 4. 12. 25. 18. 12. 3. 19. 12. 15. 32. 76. 39. 31. 13.
      25. 5. 7. 3. 23. 9. 9. 4. 10. 5. 8. 9. 32. 28. 20. 7. 11. 11. 9.
      12. 34. 32. 23. 16. 18. 38. 41. 54. 126. 96. 164. 36. 162. 13. 23.
      13. 97. 19. 27. 9. 35. 12. 16. 6. 101. 24. 28. 17. 33. 7. 10. 9.
      35. 23. 22. 15. 41. 22. 36. 33. 147. 114. 180. 41. 196. 21. 43.
      17. 108. 22. 31. 13. 65. 21. 37. 26. 138. 192. 114. 30. 136. 35.
      53. 35. 236. 200. 115. 51. 205. 110. 206. 184. 1153.</_>
    <_>
      40. 2. 15. 28. 3. 0. 23. 84. 33. 0. 1. 6. 46. 1. 241. 907. 2. 0.
      3. 2. 0. 0. 0. 1. 50. 2. 2. 4. 175. 1. 754. 420. 15. 2. 5. 3. 1.
      0. 8. 3. 4. 0. 0. 0. 6. 0. 9. 3. 31. 2. 2. 1. 2. 0. 1. 1. 307. 5.
      8. 8. 1076. 2. 681. 180. 3. 0. 3. 2. 0. 0. 1. 1. 1. 0. 0. 0. 2. 0.
      2. 4. 1. 0. 0. 0. 0. 0. 0. 0. 1. 0. 0. 0. 0. 0. 2. 4. 23. 0. 4. 2.
      0. 0. 3. 1. 6. 0. 0. 0. 3. 0. 5. 5. 90. 2. 4. 0. 1. 0. 2. 3. 907.
      1. 1. 5. 547. 3. 211. 111. 19. 29. 3. 175. 0. 2. 0. 369. 7. 3. 0.
      5. 5. 0. 12. 447. 1. 2. 0. 2. 0. 0. 0. 1. 3. 1. 0. 8. 7. 3. 7.
      152. 4. 6. 0. 4. 0. 0. 1. 2. 0. 0. 0. 0. 0. 0. 1. 5. 5. 3. 0. 8.
      1. 0. 1. 4. 8. 6. 2. 7. 5. 5. 16. 114. 26. 85. 1. 373. 2. 0. 2.
      178. 3. 1. 0. 1. 0. 0. 5. 108. 0. 1. 0. 3. 0. 0. 0. 0. 2. 0. 0. 5.
      3. 4. 5. 54. 201. 571. 6. 289. 3. 7. 7. 116. 6. 1. 1. 4. 4. 2. 11.
      78. 629. 267. 5. 112. 6. 2. 5. 80. 420. 128. 4. 99. 180. 76. 124.
      968.</_>
    <_>
      997. 138. 108. 88. 180. 62. 75. 138. 201. 42. 32. 40. 85. 30. 68.
      251. 137. 28. 41. 16. 61. 23. 25. 30. 88. 14. 25. 13. 84. 30. 146.
      81. 111. 38. 29. 14. 51. 15. 11. 21. 41. 17. 18. 13. 24. 17. 24.
      32. 72. 17. 8. 14. 27. 12. 31. 26. 64. 17. 28. 21. 90. 33. 84. 77.
      148. 47. 24. 31. 19. 21. 22. 32. 58. 29. 12. 16. 25. 12. 19. 37.
      62. 10. 18. 8. 16. 18. 13. 18. 25. 13. 19. 16. 15. 16. 35. 50. 67.
      30. 17. 15. 13. 7. 18. 22. 30. 11. 14. 14. 11. 16. 16. 66. 134.
      28. 29. 25. 34. 25. 25. 59. 148. 31. 21. 42. 66. 58. 86. 208. 177.
      64. 38. 86. 44. 36. 42. 180. 65. 22. 28. 24. 17. 18. 30. 143. 43.
      13. 14. 11. 24. 23. 22. 36. 17. 15. 11. 22. 24. 23. 36. 86. 23.
      22. 22. 17. 18. 10. 13. 34. 16. 10. 10. 20. 19. 18. 23. 58. 37.
      16. 8. 14. 19. 12. 23. 45. 25. 17. 21. 35. 30. 49. 68. 225. 55.
      73. 23. 132. 15. 22. 19. 102. 16. 18. 11. 34. 13. 14. 11. 79. 36.
      26. 12. 28. 14. 11. 13. 50. 23. 9. 20. 38. 16. 30. 36. 138. 63.
      93. 20. 77. 16. 25. 22. 67. 20. 27. 18. 65. 15. 38. 44. 179. 149.
      64. 27. 62. 27. 40. 47. 167. 142. 80. 76. 181. 75. 147. 201. 1338.</_>
    <_>
      847. 141. 156. 104. 203. 58. 134. 225. 179. 52. 41. 44. 106. 48.
      124. 342. 134. 30. 27. 19. 59. 28. 42. 25. 78. 24. 33. 21. 111.
      29. 150. 142. 102. 26. 31. 20. 23. 10. 25. 24. 39. 14. 22. 7. 23.
      12. 34. 41. 87. 17. 16. 9. 23. 11. 13. 26. 86. 22. 17. 28. 102.
      26. 130. 118. 121. 49. 31. 29. 31. 21. 10. 29. 27. 16. 13. 6. 19.
      13. 32. 39. 35. 14. 8. 9. 12. 8. 14. 21. 25. 11. 8. 8. 22. 23. 32.
      52. 54. 19. 13. 9. 10. 4. 18. 26. 31. 11. 10. 12. 13. 14. 24. 50.
      145. 18. 15. 18. 14. 18. 23. 47. 208. 27. 21. 32. 69. 53. 102.
      210. 134. 79. 40. 78. 51. 33. 39. 200. 38. 14. 15. 38. 30. 33. 31.
      224. 30. 12. 9. 16. 19. 8. 8. 31. 17. 11. 14. 27. 17. 22. 35. 150.
      34. 17. 13. 28. 5. 15. 12. 27. 12. 6. 14. 12. 10. 13. 21. 77. 34.
      7. 8. 20. 13. 14. 19. 51. 25. 17. 14. 35. 31. 32. 67. 236. 79. 77.
      13. 129. 17. 15. 21. 76. 15. 15. 8. 38. 11. 25. 21. 97. 16. 17. 8.
      20. 14. 8. 10. 55. 12. 9. 6. 23. 18. 34. 40. 189. 60. 118. 21. 90.
      16. 25. 21. 72. 24. 26. 12. 47. 14. 33. 21. 191. 188. 65. 21. 58.
      20. 41. 33. 175. 148. 60. 38. 119. 84. 110. 168. 1161.</_>
    <_>
      128. 7. 88. 48. 14. 0. 57. 107. 62. 5. 4. 7. 49. 2. 226. 368. 18.
      4. 8. 6. 3. 0. 2. 2. 71. 2. 9. 8. 179. 6. 728. 234. 102. 7. 13. 4.
      8. 0. 5. 2. 8. 0. 0. 0. 15. 1. 4. 1. 74. 3. 10. 3. 2. 0. 2. 4.
      327. 6. 11. 14. 947. 13. 462. 104. 9. 2. 5. 0. 6. 0. 7. 2. 3. 0.
      0. 0. 3. 1. 9. 9. 2. 0. 0. 0. 0. 0. 0. 0. 4. 0. 0. 2. 4. 0. 15. 6.
      57. 1. 10. 2. 9. 0. 7. 4. 5. 0. 0. 1. 9. 0. 9. 9. 198. 7. 7. 5. 2.
      0. 3. 15. 777. 7. 3. 8. 445. 7. 146. 112. 37. 46. 10. 203. 2. 2.
      3. 399. 3. 3. 0. 5. 2. 2. 8. 179. 3. 10. 0. 3. 0. 0. 0. 8. 4. 6.
      0. 6. 4. 2. 6. 93. 4. 9. 1. 7. 0. 0. 0. 4. 1. 1. 0. 0. 0. 1. 0. 3.
      11. 9. 0. 7. 0. 0. 0. 7. 7. 9. 3. 10. 1. 10. 2. 57. 55. 144. 11.
      607. 1. 2. 6. 204. 1. 2. 0. 4. 5. 8. 11. 84. 6. 2. 0. 17. 0. 0. 0.
      5. 0. 1. 0. 8. 3. 9. 11. 122. 318. 1057. 11. 393. 15. 9. 15. 92.
      10. 3. 0. 7. 7. 7. 6. 41. 739. 374. 5. 121. 10. 3. 9. 87. 508.
      132. 2. 70. 135. 144. 71. 423.</_>
    <_>
      1009. 131. 135. 61. 144. 34. 68. 51. 158. 42. 44. 30. 90. 23. 62.
      81. 161. 29. 44. 23. 66. 19. 26. 18. 90. 18. 29. 24. 117. 27. 154.
      77. 175. 37. 51. 8. 47. 17. 26. 15. 38. 14. 18. 10. 28. 14. 23.
      28. 80. 23. 19. 22. 24. 19. 24. 25. 89. 21. 32. 32. 137. 32. 139.
      88. 141. 51. 40. 28. 33. 11. 9. 18. 42. 22. 16. 18. 23. 10. 25.
      32. 40. 14. 24. 16. 26. 8. 13. 20. 29. 7. 18. 21. 27. 25. 41. 37.
      85. 30. 21. 19. 23. 13. 9. 21. 27. 17. 11. 18. 21. 18. 26. 37. 86.
      33. 16. 23. 21. 14. 20. 56. 93. 25. 36. 45. 74. 60. 89. 209. 159.
      59. 31. 69. 40. 23. 23. 76. 35. 24. 13. 24. 17. 20. 17. 70. 22.
      18. 10. 26. 22. 12. 25. 28. 22. 21. 12. 20. 22. 21. 32. 68. 42.
      37. 19. 31. 16. 12. 10. 21. 14. 8. 16. 15. 17. 9. 14. 33. 22. 13.
      4. 22. 20. 14. 17. 39. 21. 22. 24. 33. 39. 61. 71. 187. 78. 134.
      29. 107. 14. 20. 12. 84. 26. 26. 13. 17. 13. 23. 21. 69. 24. 27.
      19. 31. 10. 17. 12. 47. 21. 29. 17. 37. 31. 58. 50. 152. 96. 177.
      26. 133. 26. 31. 25. 79. 31. 36. 24. 58. 14. 47. 29. 183. 87. 104.
      25. 90. 39. 34. 48. 167. 71. 89. 55. 193. 103. 218. 189. 1504.</_>
    <_>
      786. 135. 161. 83. 100. 32. 50. 86. 152. 25. 26. 19. 97. 17. 93.
      118. 128. 17. 22. 10. 45. 13. 25. 21. 78. 10. 28. 12. 143. 21.
      274. 107. 157. 29. 55. 23. 27. 7. 12. 11. 38. 7. 9. 8. 24. 10. 24.
      21. 85. 10. 21. 13. 27. 5. 9. 20. 130. 12. 19. 18. 181. 41. 250.
      95. 154. 57. 26. 38. 17. 13. 17. 27. 38. 11. 9. 17. 8. 7. 26. 21.
      27. 16. 9. 11. 12. 9. 5. 12. 21. 8. 7. 12. 22. 15. 26. 30. 84. 22.
      19. 23. 12. 15. 18. 17. 40. 10. 9. 16. 11. 9. 12. 33. 124. 29. 17.
      26. 21. 16. 12. 52. 164. 41. 35. 28. 126. 37. 125. 147. 174. 95.
      43. 112. 32. 28. 21. 175. 40. 30. 19. 21. 17. 12. 15. 103. 28. 22.
      8. 8. 7. 10. 7. 19. 7. 12. 10. 12. 20. 11. 18. 68. 41. 38. 6. 24.
      5. 9. 13. 22. 19. 6. 7. 7. 4. 8. 13. 31. 29. 15. 11. 17. 8. 9. 15.
      31. 17. 10. 5. 28. 27. 35. 53. 162. 106. 167. 27. 230. 18. 27. 9.
      111. 16. 23. 11. 27. 7. 15. 17. 76. 19. 21. 6. 30. 14. 18. 6. 41.
      21. 23. 15. 36. 25. 40. 41. 160. 88. 281. 33. 267. 18. 30. 23. 92.
      29. 34. 11. 58. 11. 38. 32. 170. 139. 83. 33. 107. 27. 49. 30.
      189. 182. 91. 43. 188. 99. 179. 172. 1356.</_>
    <_>
      1066. 133. 130. 61. 173. 43. 73. 63. 204. 40. 45. 28. 110. 24. 70.
      113. 222. 33. 39. 15. 78. 17. 42. 31. 106. 25. 31. 15. 108. 30.
      125. 67. 131. 44. 31. 14. 38. 7. 24. 15. 56. 12. 24. 17. 34. 10.
      32. 31. 91. 21. 19. 10. 27. 15. 28. 29. 85. 26. 39. 22. 128. 33.
      119. 101. 147. 41. 39. 25. 26. 15. 20. 20. 45. 24. 13. 13. 21. 15.
      20. 36. 55. 21. 16. 14. 21. 13. 14. 17. 29. 16. 16. 12. 26. 16.
      36. 62. 87. 33. 25. 23. 14. 9. 19. 26. 34. 15. 14. 20. 12. 21. 21.
      41. 93. 32. 20. 23. 32. 17. 28. 56. 127. 41. 51. 53. 80. 64. 110.
      220. 148. 61. 43. 40. 47. 21. 29. 89. 38. 19. 8. 21. 30. 18. 27.
      86. 48. 19. 16. 12. 19. 17. 9. 24. 35. 15. 17. 19. 26. 30. 30. 90.
      44. 23. 19. 20. 16. 9. 10. 18. 22. 16. 13. 15. 22. 12. 25. 49. 25.
      17. 9. 22. 16. 15. 28. 52. 30. 20. 18. 41. 45. 44. 88. 192. 75.
      82. 28. 69. 17. 23. 12. 47. 25. 20. 9. 32. 21. 23. 12. 69. 31. 16.
      3. 24. 18. 18. 23. 41. 23. 24. 25. 37. 16. 31. 46. 167. 83. 103.
      22. 82. 14. 24. 22. 67. 14. 26. 18. 52. 20. 26. 43. 163. 89. 67.
      31. 98. 34. 38. 38. 174. 108. 78. 76. 186. 100. 171. 209. 1357.</_>
    <_>
      1134. 204. 171. 85. 191. 62. 67. 94. 145. 54. 39. 31. 50. 33. 50.
      98. 183. 35. 42. 23. 46. 21. 28. 28. 60. 16. 29. 26. 62. 25. 59.
      56. 155. 39. 40. 17. 40. 26. 23. 28. 34. 14. 21. 17. 28. 15. 23.
      29. 67. 20. 18. 13. 20. 9. 18. 11. 51. 15. 29. 27. 54. 21. 65. 68.
      173. 70. 45. 34. 44. 36. 30. 26. 51. 22. 28. 16. 19. 26. 17. 29.
      53. 23. 17. 12. 22. 13. 15. 26. 32. 14. 18. 21. 22. 22. 31. 42.
      59. 40. 17. 17. 17. 15. 14. 17. 27. 19. 14. 27. 23. 28. 15. 57.
      76. 21. 25. 24. 21. 24. 21. 47. 91. 30. 34. 47. 53. 56. 59. 193.
      194. 84. 51. 77. 43. 34. 33. 125. 32. 30. 19. 30. 21. 21. 28. 112.
      49. 28. 24. 21. 21. 13. 16. 46. 18. 22. 19. 19. 19. 16. 27. 82.
      43. 45. 20. 28. 24. 23. 9. 39. 22. 20. 14. 18. 20. 20. 25. 77. 33.
      19. 11. 21. 14. 20. 21. 50. 26. 22. 21. 61. 31. 38. 43. 187. 58.
      67. 44. 74. 25. 27. 22. 78. 25. 13. 18. 36. 20. 16. 27. 106. 28.
      35. 15. 33. 17. 21. 19. 64. 15. 22. 10. 53. 20. 41. 48. 183. 57.
      54. 28. 73. 21. 36. 26. 108. 26. 31. 32. 73. 24. 52. 27. 204. 76.
      58. 31. 76. 34. 45. 39. 204. 95. 76. 53. 200. 72. 136. 180. 1379.</_>
    <_>
      1270. 167. 167. 62. 177. 58. 50. 50. 186. 40. 46. 27. 71. 25. 62.
      59. 198. 42. 64. 26. 50. 24. 28. 31. 81. 18. 38. 16. 67. 28. 63.
      59. 173. 57. 32. 22. 54. 11. 17. 17. 49. 19. 26. 18. 29. 15. 25.
      34. 72. 27. 26. 15. 28. 18. 21. 32. 47. 15. 31. 19. 52. 30. 57.
      72. 177. 55. 46. 33. 34. 22. 26. 28. 54. 23. 22. 17. 31. 19. 23.
      32. 69. 15. 22. 21. 20. 20. 21. 27. 40. 14. 20. 32. 18. 19. 36.
      59. 67. 37. 26. 14. 15. 20. 18. 27. 29. 17. 22. 24. 24. 17. 27.
      39. 40. 17. 21. 27. 27. 22. 13. 69. 60. 37. 31. 44. 53. 46. 74.
      175. 209. 58. 50. 46. 35. 18. 30. 70. 43. 25. 21. 24. 20. 26. 23.
      74. 42. 14. 25. 19. 23. 19. 28. 29. 28. 26. 23. 16. 17. 27. 29.
      74. 43. 38. 27. 24. 21. 20. 21. 22. 22. 21. 14. 30. 7. 19. 17. 60.
      34. 25. 10. 23. 20. 24. 19. 42. 24. 19. 27. 45. 35. 39. 68. 229.
      73. 55. 28. 42. 19. 21. 14. 56. 21. 26. 28. 27. 25. 26. 24. 89.
      29. 19. 16. 26. 16. 19. 22. 54. 18. 30. 23. 34. 36. 31. 59. 155.
      51. 70. 21. 42. 21. 36. 25. 75. 17. 35. 24. 55. 18. 48. 36. 192.
      62. 59. 26. 79. 34. 43. 64. 240. 61. 74. 67. 175. 76. 201. 225.
      1427.</_>
    <_>
      849. 137. 144. 103. 158. 55. 118. 155. 175. 23. 43. 23. 103. 36.
      99. 177. 164. 18. 38. 9. 60. 14. 25. 32. 79. 14. 21. 15. 127. 34.
      120. 106. 142. 25. 28. 25. 27. 13. 25. 25. 43. 11. 13. 8. 42. 11.
      27. 37. 94. 24. 15. 17. 31. 10. 36. 26. 107. 20. 31. 15. 153. 29.
      144. 108. 129. 33. 29. 23. 29. 14. 14. 35. 43. 8. 14. 11. 7. 10.
      18. 41. 52. 13. 12. 8. 19. 7. 6. 15. 32. 6. 11. 11. 29. 15. 19.
      36. 84. 27. 23. 21. 11. 10. 9. 16. 33. 5. 6. 7. 21. 14. 20. 44.
      131. 22. 20. 15. 33. 20. 21. 51. 198. 35. 34. 40. 113. 47. 93.
      201. 158. 85. 53. 95. 34. 35. 44. 197. 49. 25. 14. 35. 33. 29. 28.
      187. 35. 10. 13. 24. 11. 12. 13. 43. 16. 13. 11. 17. 22. 21. 43.
      106. 33. 28. 13. 16. 15. 11. 8. 36. 12. 6. 14. 16. 11. 15. 14. 69.
      39. 11. 13. 13. 16. 8. 14. 54. 29. 19. 18. 36. 30. 47. 43. 213.
      88. 79. 27. 111. 11. 22. 14. 91. 25. 9. 7. 27. 15. 10. 18. 106.
      22. 20. 12. 34. 5. 9. 13. 41. 25. 19. 8. 43. 22. 38. 30. 204. 71.
      100. 23. 74. 16. 24. 17. 67. 27. 30. 15. 37. 16. 28. 30. 194. 127.
      67. 21. 85. 31. 42. 38. 205. 166. 86. 57. 166. 102. 149. 191.
      1176.</_>
    <_>
      619. 101. 120. 38. 101. 26. 65. 90. 115. 14. 37. 13. 74. 23. 107.
      160. 110. 15. 24. 14. 45. 14. 27. 14. 103. 14. 30. 3. 203. 16.
      196. 125. 138. 27. 35. 18. 33. 9. 19. 14. 34. 6. 12. 4. 20. 6. 18.
      19. 88. 10. 17. 7. 33. 5. 12. 8. 168. 13. 31. 12. 286. 25. 294.
      128. 123. 51. 32. 28. 13. 11. 6. 18. 21. 8. 7. 9. 15. 6. 8. 17.
      43. 5. 13. 8. 8. 7. 3. 4. 32. 8. 12. 10. 20. 11. 42. 23. 85. 40.
      16. 19. 10. 6. 9. 15. 32. 8. 2. 4. 13. 14. 14. 28. 139. 27. 25.
      12. 18. 8. 12. 30. 293. 44. 30. 41. 198. 31. 182. 147. 88. 73. 25.
      86. 23. 9. 14. 152. 31. 9. 5. 16. 9. 15. 16. 131. 14. 14. 5. 15.
      5. 5. 3. 26. 7. 8. 4. 9. 16. 17. 27. 102. 20. 33. 9. 19. 6. 5. 1.
      21. 11. 11. 9. 9. 6. 6. 7. 35. 21. 10. 13. 13. 3. 4. 4. 31. 24.
      11. 11. 26. 34. 37. 51. 188. 96. 188. 32. 233. 10. 20. 18. 73. 7.
      12. 4. 28. 4. 14. 11. 65. 22. 30. 10. 32. 10. 5. 10. 26. 18. 19.
      9. 38. 13. 41. 31. 141. 148. 330. 41. 215. 15. 32. 14. 76. 23. 27.
      10. 77. 19. 43. 32. 146. 202. 112. 25. 110. 32. 35. 21. 150. 250.
      118. 56. 226. 181. 182. 270. 1389.</_>
    <_>
      845. 163. 113. 99. 116. 29. 63. 108. 162. 38. 30. 28. 85. 19. 85.
      166. 154. 33. 20. 10. 38. 8. 27. 16. 114. 16. 17. 10. 123. 21.
      141. 93. 115. 29. 27. 13. 28. 13. 11. 18. 44. 7. 6. 8. 29. 7. 22.
      21. 96. 12. 12. 9. 27. 8. 14. 18. 125. 26. 16. 20. 212. 22. 134.
      90. 140. 37. 39. 30. 21. 10. 10. 26. 34. 15. 11. 17. 9. 13. 22.
      44. 55. 11. 17. 11. 11. 6. 10. 11. 33. 13. 18. 16. 22. 10. 31. 34.
      108. 28. 11. 25. 25. 11. 6. 25. 34. 15. 9. 12. 14. 11. 13. 28.
      160. 31. 12. 29. 26. 13. 22. 60. 267. 34. 54. 42. 139. 37. 112.
      210. 160. 104. 49. 75. 35. 27. 20. 119. 43. 26. 12. 25. 24. 17.
      25. 122. 31. 13. 11. 12. 18. 7. 7. 29. 21. 9. 8. 17. 16. 9. 26.
      75. 45. 32. 10. 22. 6. 12. 10. 34. 17. 9. 9. 19. 10. 13. 7. 43.
      44. 14. 11. 18. 19. 13. 14. 37. 47. 15. 13. 24. 32. 27. 51. 139.
      104. 130. 37. 145. 12. 24. 12. 76. 21. 16. 2. 30. 10. 17. 19. 78.
      26. 21. 14. 46. 7. 19. 15. 34. 18. 23. 12. 38. 20. 32. 34. 126.
      93. 173. 24. 178. 17. 45. 19. 100. 37. 42. 11. 68. 19. 44. 30.
      181. 207. 101. 27. 104. 45. 51. 53. 195. 190. 101. 55. 190. 98.
      165. 198. 1198.</_>
    <_>
      906. 157. 134. 80. 129. 49. 103. 187. 179. 33. 33. 35. 86. 32.
      105. 273. 139. 26. 23. 20. 42. 13. 30. 25. 67. 15. 28. 16. 114.
      23. 165. 101. 119. 34. 39. 18. 25. 10. 21. 20. 53. 12. 11. 6. 44.
      12. 21. 40. 78. 13. 10. 12. 37. 8. 22. 15. 92. 18. 24. 12. 180.
      31. 148. 94. 146. 46. 32. 26. 31. 9. 18. 24. 28. 11. 13. 9. 9. 19.
      10. 30. 33. 14. 13. 6. 11. 8. 9. 16. 23. 11. 13. 10. 20. 6. 48.
      48. 78. 21. 21. 14. 21. 8. 11. 16. 33. 5. 8. 7. 11. 11. 13. 34.
      113. 27. 14. 23. 23. 13. 29. 45. 142. 28. 24. 44. 94. 48. 87. 206.
      174. 90. 41. 131. 29. 27. 31. 302. 44. 22. 15. 35. 17. 19. 27.
      223. 29. 18. 3. 20. 12. 12. 10. 44. 29. 8. 3. 23. 25. 19. 24. 110.
      35. 26. 9. 28. 11. 12. 7. 30. 9. 9. 7. 16. 8. 10. 11. 67. 27. 10.
      9. 27. 12. 6. 10. 30. 33. 12. 11. 27. 29. 36. 62. 174. 71. 129.
      22. 134. 11. 29. 14. 136. 17. 16. 7. 33. 10. 18. 16. 104. 21. 34.
      8. 27. 10. 12. 7. 50. 17. 18. 11. 27. 14. 42. 35. 163. 101. 209.
      24. 157. 24. 29. 15. 98. 19. 27. 24. 45. 18. 31. 26. 185. 160. 80.
      26. 85. 26. 37. 44. 186. 144. 86. 45. 152. 109. 144. 165. 1045.</_>
    <_>
      863. 145. 91. 77. 136. 41. 74. 167. 174. 63. 33. 39. 81. 25. 88.
      216. 136. 30. 22. 11. 40. 16. 23. 24. 75. 9. 25. 19. 100. 20. 139.
      94. 107. 29. 13. 8. 24. 9. 13. 17. 32. 13. 9. 12. 18. 7. 17. 20.
      76. 15. 8. 13. 26. 11. 25. 20. 112. 24. 24. 10. 262. 26. 123. 95.
      129. 59. 23. 22. 32. 19. 19. 32. 35. 15. 15. 23. 16. 11. 21. 36.
      44. 12. 10. 10. 8. 6. 11. 17. 27. 11. 13. 14. 19. 9. 31. 35. 69.
      20. 12. 18. 18. 5. 4. 31. 33. 16. 14. 17. 13. 13. 21. 47. 116. 22.
      11. 19. 22. 14. 7. 67. 229. 52. 37. 48. 117. 39. 90. 234. 197. 95.
      23. 80. 41. 23. 42. 235. 56. 21. 20. 23. 27. 18. 29. 231. 44. 17.
      13. 17. 17. 11. 17. 31. 24. 10. 8. 25. 15. 11. 34. 107. 44. 22.
      11. 14. 11. 20. 6. 19. 22. 10. 6. 13. 14. 13. 8. 63. 47. 17. 13.
      13. 15. 11. 14. 55. 23. 30. 17. 27. 18. 37. 59. 163. 67. 114. 19.
      121. 23. 20. 14. 104. 19. 14. 9. 30. 15. 8. 26. 88. 27. 17. 10.
      30. 8. 11. 11. 42. 9. 11. 5. 33. 13. 20. 31. 117. 110. 228. 16.
      122. 23. 30. 17. 97. 40. 25. 10. 63. 17. 24. 33. 185. 178. 122.
      28. 104. 37. 38. 53. 245. 159. 76. 48. 193. 93. 106. 174. 1154.</_>
    <_>
      597. 99. 138. 91. 109. 20. 82. 139. 97. 28. 29. 27. 80. 26. 139.
      295. 95. 19. 13. 9. 32. 5. 21. 26. 84. 6. 32. 19. 138. 25. 233.
      134. 145. 17. 51. 17. 32. 8. 15. 19. 29. 5. 8. 6. 25. 7. 20. 31.
      104. 4. 24. 6. 24. 3. 13. 15. 180. 16. 16. 24. 296. 39. 218. 116.
      87. 32. 21. 18. 16. 8. 11. 16. 22. 5. 6. 4. 4. 0. 18. 33. 18. 4.
      6. 3. 7. 1. 5. 6. 23. 7. 3. 3. 27. 11. 35. 16. 97. 18. 17. 20. 10.
      3. 15. 15. 33. 6. 5. 8. 13. 6. 14. 31. 165. 17. 12. 18. 24. 11.
      13. 45. 338. 35. 16. 27. 165. 42. 108. 183. 145. 72. 24. 163. 20.
      16. 22. 265. 21. 18. 8. 16. 16. 10. 17. 237. 22. 20. 5. 13. 3. 11.
      6. 32. 13. 9. 5. 14. 17. 16. 21. 105. 21. 19. 6. 35. 10. 5. 4. 24.
      3. 6. 2. 9. 8. 4. 6. 43. 17. 16. 2. 19. 0. 2. 7. 34. 20. 14. 7.
      28. 25. 26. 40. 158. 99. 165. 23. 254. 10. 15. 22. 170. 17. 14. 7.
      26. 18. 17. 15. 129. 27. 21. 7. 31. 3. 12. 2. 38. 11. 15. 7. 25.
      17. 32. 39. 160. 165. 312. 21. 213. 12. 36. 15. 112. 23. 26. 7.
      39. 13. 22. 23. 149. 238. 151. 23. 116. 33. 29. 25. 180. 243. 111.
      38. 156. 119. 186. 146. 1066.</_>
    <_>
      783. 122. 140. 91. 127. 29. 93. 104. 136. 24. 43. 24. 106. 24.
      117. 138. 133. 23. 28. 17. 45. 12. 33. 19. 83. 19. 38. 15. 137.
      32. 148. 110. 156. 35. 36. 18. 35. 16. 12. 19. 30. 13. 6. 7. 37.
      12. 33. 26. 62. 15. 16. 16. 29. 7. 33. 21. 122. 16. 25. 6. 165.
      31. 188. 114. 144. 35. 23. 20. 24. 5. 13. 18. 19. 8. 8. 10. 10. 8.
      21. 35. 52. 9. 11. 11. 11. 5. 7. 15. 22. 7. 15. 8. 20. 11. 33. 45.
      107. 30. 19. 22. 13. 8. 8. 18. 36. 7. 9. 6. 15. 9. 17. 38. 156.
      19. 14. 17. 31. 17. 15. 37. 182. 37. 33. 30. 140. 47. 111. 195.
      130. 78. 32. 100. 25. 15. 23. 113. 29. 10. 15. 20. 15. 20. 19.
      121. 26. 14. 14. 14. 10. 6. 11. 27. 19. 14. 11. 13. 21. 27. 34.
      91. 23. 33. 11. 24. 6. 13. 9. 30. 13. 8. 5. 15. 14. 9. 10. 45. 28.
      11. 12. 16. 16. 6. 13. 25. 26. 24. 12. 25. 38. 37. 50. 198. 115.
      198. 36. 293. 16. 24. 10. 79. 26. 20. 7. 35. 12. 22. 20. 90. 30.
      15. 16. 45. 6. 17. 5. 35. 18. 20. 14. 36. 22. 31. 37. 199. 115.
      212. 34. 204. 20. 34. 10. 94. 21. 34. 8. 56. 14. 30. 30. 153. 227.
      117. 43. 105. 37. 30. 40. 188. 199. 126. 59. 159. 99. 169. 162.
      1148.</_>
    <_>
      846. 132. 131. 69. 106. 34. 63. 97. 146. 23. 40. 24. 73. 28. 79.
      127. 136. 26. 33. 13. 52. 10. 29. 18. 94. 12. 29. 24. 142. 29.
      160. 83. 141. 24. 39. 16. 31. 9. 23. 16. 33. 7. 19. 14. 26. 5. 30.
      20. 89. 22. 30. 15. 39. 6. 22. 20. 113. 21. 33. 26. 146. 36. 140.
      103. 135. 40. 23. 25. 21. 10. 10. 20. 35. 8. 10. 14. 10. 12. 22.
      31. 48. 18. 9. 10. 10. 6. 14. 20. 31. 10. 10. 10. 32. 12. 41. 49.
      105. 31. 20. 34. 16. 9. 19. 19. 29. 13. 14. 13. 16. 5. 14. 39.
      162. 27. 22. 27. 23. 15. 23. 36. 151. 23. 30. 36. 105. 33. 115.
      193. 150. 95. 34. 98. 26. 19. 21. 96. 33. 24. 18. 20. 21. 24. 26.
      115. 40. 18. 8. 14. 12. 9. 5. 24. 21. 11. 13. 27. 19. 25. 42. 74.
      46. 32. 14. 26. 8. 12. 5. 20. 12. 6. 4. 6. 8. 13. 17. 45. 37. 19.
      8. 17. 7. 8. 13. 34. 26. 16. 19. 29. 33. 29. 63. 143. 118. 156.
      25. 138. 14. 23. 11. 75. 22. 13. 7. 34. 12. 14. 16. 75. 35. 20.
      13. 23. 12. 13. 15. 32. 22. 26. 15. 37. 22. 37. 55. 158. 134. 158.
      21. 155. 20. 38. 15. 101. 34. 38. 13. 52. 22. 48. 28. 176. 273.
      147. 45. 116. 46. 48. 40. 201. 190. 115. 64. 186. 117. 199. 187.
      1257.</_>
    <_>
      100. 10. 77. 58. 14. 1. 53. 127. 55. 4. 11. 4. 50. 4. 339. 1029.
      8. 1. 6. 2. 0. 0. 1. 0. 58. 1. 10. 4. 146. 3. 807. 531. 87. 1. 17.
      4. 0. 0. 7. 3. 4. 0. 0. 0. 11. 0. 12. 2. 67. 4. 6. 6. 2. 0. 5. 2.
      288. 7. 9. 6. 789. 9. 379. 139. 8. 1. 4. 2. 3. 0. 5. 0. 4. 0. 0.
      0. 1. 0. 12. 8. 2. 0. 0. 0. 0. 0. 0. 0. 4. 1. 1. 0. 1. 1. 7. 2.
      63. 1. 4. 2. 4. 0. 3. 2. 5. 1. 0. 0. 12. 0. 5. 6. 147. 2. 1. 6. 1.
      0. 3. 8. 720. 5. 2. 6. 406. 6. 104. 92. 52. 48. 6. 198. 1. 1. 5.
      487. 9. 3. 0. 6. 5. 0. 8. 346. 1. 8. 0. 10. 0. 0. 0. 9. 4. 5. 0.
      13. 3. 2. 4. 130. 5. 9. 0. 10. 0. 0. 0. 9. 0. 0. 0. 0. 0. 0. 0. 2.
      8. 7. 1. 4. 0. 0. 1. 6. 9. 11. 0. 1. 3. 2. 1. 45. 51. 182. 4. 581.
      2. 2. 14. 249. 2. 4. 0. 5. 1. 4. 2. 97. 3. 2. 0. 6. 0. 2. 0. 10.
      4. 5. 0. 9. 4. 10. 6. 84. 273. 1042. 6. 468. 8. 10. 14. 108. 4. 6.
      0. 5. 3. 8. 8. 54. 442. 272. 5. 117. 4. 6. 5. 69. 253. 116. 1. 58.
      100. 121. 45. 386.</_>
    <_>
      806. 126. 155. 84. 128. 25. 56. 70. 146. 21. 22. 16. 96. 13. 109.
      130. 137. 20. 31. 17. 38. 9. 12. 15. 88. 17. 26. 15. 170. 19. 252.
      120. 166. 46. 62. 28. 35. 14. 21. 13. 40. 7. 11. 9. 27. 11. 30.
      25. 100. 20. 20. 12. 27. 3. 18. 16. 163. 13. 37. 13. 266. 43. 207.
      108. 146. 52. 27. 22. 18. 13. 14. 19. 25. 8. 14. 8. 15. 8. 18. 23.
      39. 16. 11. 9. 12. 3. 12. 8. 21. 6. 12. 11. 24. 15. 37. 26. 88.
      32. 27. 26. 18. 8. 13. 15. 20. 9. 10. 16. 20. 14. 8. 34. 126. 15.
      23. 19. 23. 9. 18. 31. 223. 35. 25. 35. 117. 45. 125. 152. 136.
      95. 49. 95. 21. 24. 23. 116. 34. 18. 11. 17. 17. 11. 21. 88. 25.
      16. 6. 13. 7. 7. 6. 26. 16. 10. 8. 22. 14. 18. 21. 69. 40. 38. 7.
      23. 6. 12. 5. 23. 13. 6. 4. 5. 8. 14. 7. 35. 38. 20. 7. 21. 9. 10.
      4. 25. 21. 15. 10. 25. 28. 35. 41. 147. 95. 158. 38. 219. 13. 26.
      15. 111. 13. 29. 9. 28. 13. 17. 7. 86. 19. 29. 7. 55. 10. 11. 8.
      34. 21. 25. 15. 46. 15. 55. 35. 196. 110. 246. 42. 188. 21. 53.
      20. 111. 21. 34. 16. 67. 19. 49. 26. 176. 158. 109. 39. 106. 40.
      51. 38. 193. 133. 89. 54. 181. 128. 240. 168. 1107.</_>
    <_>
      958. 129. 169. 76. 143. 42. 68. 63. 102. 28. 26. 20. 83. 26. 100.
      119. 129. 22. 63. 18. 41. 9. 30. 15. 106. 14. 43. 16. 153. 33.
      312. 106. 222. 48. 75. 25. 49. 16. 21. 8. 36. 14. 9. 12. 48. 19.
      32. 18. 89. 13. 27. 18. 33. 8. 24. 15. 78. 18. 31. 21. 199. 51.
      174. 97. 166. 49. 38. 21. 31. 17. 15. 17. 30. 9. 4. 5. 16. 4. 17.
      22. 46. 15. 18. 10. 17. 11. 10. 10. 17. 9. 19. 10. 30. 18. 53. 41.
      90. 36. 31. 23. 10. 13. 8. 19. 31. 8. 9. 10. 16. 16. 14. 32. 93.
      15. 24. 13. 15. 15. 9. 24. 109. 23. 33. 29. 105. 42. 100. 136.
      121. 96. 43. 104. 23. 34. 19. 90. 15. 15. 8. 24. 10. 21. 25. 88.
      19. 10. 6. 18. 10. 6. 15. 32. 13. 6. 9. 18. 17. 24. 32. 82. 46.
      49. 10. 29. 13. 16. 14. 33. 8. 13. 12. 20. 7. 16. 8. 37. 31. 20.
      7. 13. 6. 6. 12. 23. 22. 20. 13. 28. 41. 51. 60. 152. 106. 163.
      43. 236. 20. 35. 15. 93. 25. 16. 12. 39. 11. 19. 12. 75. 26. 33.
      18. 56. 7. 11. 8. 47. 9. 20. 15. 60. 26. 59. 48. 212. 70. 201. 33.
      185. 26. 47. 17. 92. 31. 33. 13. 54. 15. 45. 29. 172. 92. 97. 27.
      106. 23. 49. 27. 162. 110. 100. 54. 182. 96. 229. 169. 1118.</_>
    <_>
      115. 23. 56. 74. 11. 2. 91. 152. 66. 2. 7. 7. 67. 3. 279. 959. 16.
      4. 8. 6. 1. 0. 3. 3. 82. 3. 11. 7. 118. 4. 656. 371. 39. 6. 10.
      10. 0. 0. 6. 5. 6. 0. 0. 0. 11. 0. 12. 9. 71. 3. 8. 8. 2. 0. 3. 8.
      261. 4. 10. 5. 713. 9. 280. 120. 9. 0. 2. 1. 0. 0. 3. 4. 6. 0. 0.
      0. 4. 1. 11. 13. 1. 1. 0. 0. 0. 0. 0. 0. 1. 0. 1. 0. 6. 0. 12. 8.
      64. 1. 3. 4. 3. 0. 7. 3. 6. 0. 0. 1. 4. 0. 5. 5. 165. 1. 5. 3. 3.
      0. 6. 14. 709. 11. 2. 2. 278. 5. 124. 103. 60. 48. 8. 190. 3. 3.
      5. 810. 19. 10. 1. 8. 7. 1. 15. 656. 5. 3. 0. 8. 0. 0. 0. 14. 6.
      2. 0. 5. 7. 2. 10. 206. 11. 13. 0. 8. 0. 1. 0. 6. 0. 0. 0. 0. 0.
      0. 0. 8. 6. 9. 1. 5. 0. 0. 0. 5. 11. 6. 0. 7. 5. 7. 10. 115. 55.
      96. 9. 401. 2. 3. 6. 237. 13. 2. 0. 2. 4. 8. 7. 128. 1. 3. 0. 10.
      0. 0. 0. 5. 5. 2. 0. 8. 2. 6. 7. 101. 251. 518. 4. 191. 6. 10. 7.
      89. 11. 10. 0. 1. 7. 8. 8. 88. 610. 282. 3. 85. 8. 11. 10. 102.
      413. 118. 4. 51. 137. 97. 71. 797.</_>
    <_>
      897. 167. 110. 89. 138. 69. 70. 156. 135. 28. 45. 29. 76. 42. 79.
      146. 189. 33. 27. 11. 60. 16. 26. 22. 80. 9. 27. 14. 119. 15. 121.
      81. 121. 35. 19. 16. 31. 18. 18. 22. 39. 16. 10. 20. 12. 13. 19.
      29. 100. 17. 20. 11. 36. 13. 16. 20. 98. 12. 23. 19. 118. 29. 131.
      80. 200. 74. 30. 31. 26. 26. 11. 32. 28. 23. 19. 12. 10. 16. 11.
      28. 72. 32. 14. 10. 15. 17. 10. 14. 39. 15. 17. 14. 37. 17. 32.
      53. 87. 31. 17. 18. 9. 12. 10. 20. 36. 13. 21. 24. 17. 12. 13. 39.
      134. 30. 27. 16. 37. 27. 19. 37. 157. 30. 34. 30. 99. 34. 95. 152.
      138. 100. 40. 98. 30. 40. 26. 112. 36. 27. 11. 27. 17. 20. 29.
      160. 36. 12. 13. 9. 19. 5. 11. 30. 29. 9. 8. 13. 12. 13. 26. 75.
      32. 36. 17. 33. 17. 11. 19. 39. 17. 10. 15. 20. 13. 17. 23. 74.
      37. 18. 19. 16. 19. 12. 20. 36. 35. 19. 23. 31. 34. 31. 63. 160.
      100. 153. 26. 167. 22. 29. 20. 85. 16. 20. 9. 34. 3. 21. 16. 100.
      42. 21. 15. 34. 15. 16. 8. 47. 27. 23. 21. 43. 17. 16. 31. 127.
      83. 151. 33. 159. 13. 28. 20. 97. 35. 36. 27. 76. 16. 31. 25. 190.
      110. 80. 48. 88. 37. 50. 41. 133. 134. 92. 65. 244. 117. 144. 226.
      1145.</_>
    <_>
      674. 100. 133. 65. 134. 39. 65. 69. 161. 34. 43. 20. 127. 33. 132.
      153. 184. 29. 38. 15. 64. 13. 34. 32. 122. 10. 43. 26. 179. 16.
      255. 158. 130. 23. 30. 17. 28. 8. 15. 21. 50. 14. 14. 3. 42. 11.
      19. 28. 93. 11. 20. 16. 34. 11. 25. 18. 152. 20. 36. 22. 258. 58.
      238. 170. 93. 28. 29. 15. 16. 12. 10. 13. 25. 10. 9. 9. 16. 8. 30.
      25. 43. 16. 11. 4. 16. 4. 5. 14. 38. 5. 8. 11. 32. 8. 52. 36. 60.
      19. 10. 12. 12. 9. 12. 14. 31. 5. 10. 9. 27. 9. 35. 30. 136. 11.
      20. 19. 22. 10. 24. 24. 217. 38. 35. 23. 155. 49. 192. 252. 117.
      56. 25. 83. 25. 20. 18. 127. 32. 15. 15. 18. 23. 18. 27. 128. 18.
      10. 11. 13. 11. 9. 14. 35. 17. 10. 10. 20. 28. 13. 39. 127. 27.
      17. 8. 12. 10. 13. 16. 28. 10. 10. 5. 11. 17. 14. 16. 39. 30. 12.
      7. 10. 11. 14. 11. 33. 23. 24. 11. 28. 54. 39. 74. 244. 46. 55.
      16. 84. 15. 12. 12. 91. 19. 12. 3. 12. 12. 12. 28. 99. 20. 9. 6.
      19. 10. 9. 11. 18. 33. 10. 12. 30. 18. 31. 54. 181. 104. 110. 15.
      73. 14. 18. 24. 99. 30. 21. 9. 31. 19. 29. 27. 139. 263. 126. 19.
      86. 43. 29. 25. 157. 185. 115. 56. 140. 112. 193. 212. 1375.</_>
    <_>
      841. 107. 179. 53. 139. 32. 100. 82. 139. 22. 44. 25. 97. 23. 126.
      129. 152. 23. 57. 20. 50. 16. 31. 16. 101. 17. 35. 27. 158. 21.
      205. 126. 163. 23. 36. 20. 42. 19. 22. 14. 49. 19. 14. 7. 47. 12.
      27. 31. 107. 21. 37. 16. 26. 10. 26. 21. 121. 18. 33. 27. 238. 47.
      201. 135. 132. 41. 33. 23. 33. 11. 17. 15. 28. 11. 14. 7. 19. 3.
      19. 24. 53. 16. 9. 8. 14. 12. 16. 17. 38. 9. 11. 13. 27. 7. 38.
      41. 64. 18. 22. 14. 11. 13. 19. 15. 23. 8. 15. 7. 24. 10. 24. 26.
      95. 14. 20. 20. 19. 13. 13. 34. 162. 29. 35. 38. 133. 43. 162.
      179. 110. 56. 30. 61. 23. 18. 21. 105. 27. 19. 13. 14. 15. 17. 18.
      105. 36. 11. 18. 17. 12. 12. 13. 17. 20. 16. 12. 17. 23. 37. 34.
      111. 34. 20. 12. 14. 13. 10. 6. 20. 11. 12. 11. 13. 13. 14. 4. 47.
      25. 18. 7. 18. 11. 12. 8. 29. 22. 25. 15. 32. 54. 42. 65. 168. 63.
      108. 24. 123. 10. 10. 19. 62. 9. 10. 5. 24. 21. 17. 21. 72. 24.
      20. 11. 29. 13. 14. 18. 31. 20. 15. 10. 43. 25. 36. 47. 206. 70.
      233. 28. 136. 11. 38. 21. 81. 16. 36. 12. 42. 27. 32. 33. 114.
      114. 92. 27. 102. 32. 52. 41. 128. 121. 92. 46. 164. 107. 212.
      202. 1536.</_>
    <_>
      56. 7. 64. 35. 4. 0. 40. 89. 29. 1. 3. 4. 36. 1. 261. 692. 8. 2.
      4. 3. 1. 0. 2. 4. 28. 6. 15. 15. 157. 4. 1134. 427. 53. 1. 10. 3.
      4. 0. 4. 2. 4. 0. 0. 0. 7. 0. 6. 9. 47. 2. 6. 0. 0. 0. 0. 1. 240.
      2. 7. 4. 927. 8. 696. 156. 0. 0. 2. 0. 2. 0. 2. 3. 0. 0. 0. 0. 4.
      0. 6. 8. 0. 0. 0. 0. 0. 0. 0. 0. 1. 0. 0. 0. 2. 0. 7. 2. 27. 1. 5.
      2. 3. 0. 1. 4. 3. 0. 0. 0. 4. 0. 7. 4. 90. 0. 3. 1. 4. 0. 6. 1.
      641. 4. 3. 1. 377. 4. 178. 90. 37. 36. 3. 178. 2. 1. 6. 568. 11.
      4. 1. 11. 3. 1. 9. 454. 0. 2. 0. 8. 0. 0. 0. 6. 2. 2. 0. 7. 5. 2.
      6. 152. 4. 8. 0. 6. 0. 0. 0. 5. 0. 1. 0. 0. 0. 0. 0. 8. 5. 13. 0.
      4. 0. 0. 1. 3. 9. 3. 0. 4. 4. 6. 5. 91. 28. 74. 7. 418. 1. 1. 3.
      375. 9. 2. 0. 5. 3. 2. 7. 139. 0. 2. 0. 5. 0. 0. 0. 1. 1. 0. 0. 2.
      3. 7. 3. 95. 184. 393. 7. 349. 3. 7. 5. 144. 10. 6. 0. 4. 6. 4.
      12. 97. 697. 322. 3. 139. 9. 2. 3. 79. 484. 124. 3. 78. 146. 81.
      99. 700.</_>
    <_>
      42. 2. 47. 29. 5. 0. 26. 99. 28. 1. 4. 4. 45. 3. 175. 621. 7. 0.
      2. 0. 0. 0. 0. 1. 19. 2. 6. 4. 59. 2. 512. 298. 40. 2. 22. 9. 2.
      0. 5. 4. 4. 0. 0. 0. 4. 0. 10. 2. 30. 1. 6. 2. 1. 0. 3. 1. 179. 7.
      6. 3. 640. 4. 305. 120. 5. 0. 1. 0. 0. 0. 2. 1. 2. 0. 0. 0. 0. 0.
      9. 3. 0. 0. 0. 0. 0. 0. 0. 0. 0. 0. 0. 0. 2. 0. 2. 3. 44. 0. 4. 1.
      3. 0. 3. 4. 4. 0. 0. 0. 2. 0. 6. 1. 87. 1. 5. 2. 1. 0. 0. 3. 733.
      4. 4. 3. 336. 5. 101. 81. 45. 37. 8. 241. 1. 1. 4. 765. 12. 2. 0.
      5. 2. 1. 6. 500. 1. 1. 0. 7. 0. 0. 0. 2. 1. 5. 0. 4. 0. 1. 3. 121.
      3. 4. 0. 12. 0. 0. 0. 3. 0. 0. 0. 0. 0. 0. 0. 5. 1. 6. 0. 4. 0. 0.
      0. 3. 8. 9. 0. 6. 1. 3. 1. 81. 35. 135. 4. 1122. 3. 2. 5. 434. 7.
      3. 0. 3. 4. 1. 4. 145. 1. 1. 0. 3. 0. 0. 0. 5. 1. 2. 0. 6. 0. 6.
      2. 78. 252. 676. 12. 823. 6. 3. 9. 184. 12. 2. 0. 9. 4. 3. 17. 91.
      673. 425. 4. 168. 3. 1. 3. 90. 454. 145. 3. 86. 112. 76. 68. 649.</_>
    <_>
      608. 124. 117. 122. 91. 43. 80. 159. 91. 19. 27. 24. 63. 16. 90.
      190. 86. 19. 18. 13. 22. 11. 16. 12. 46. 11. 12. 10. 84. 12. 101.
      76. 84. 19. 31. 17. 26. 12. 16. 19. 18. 9. 6. 7. 21. 11. 25. 17.
      61. 8. 17. 13. 17. 7. 11. 14. 109. 8. 22. 10. 192. 21. 114. 59.
      81. 36. 15. 24. 18. 14. 16. 30. 21. 11. 7. 12. 9. 11. 15. 31. 38.
      9. 10. 14. 13. 5. 10. 6. 12. 8. 9. 7. 12. 7. 14. 33. 70. 19. 10.
      11. 9. 9. 14. 11. 24. 10. 5. 12. 3. 6. 9. 27. 124. 15. 16. 14. 18.
      8. 12. 22. 179. 23. 19. 31. 70. 25. 68. 82. 139. 79. 33. 142. 23.
      25. 25. 275. 38. 16. 4. 37. 6. 15. 16. 211. 11. 13. 6. 13. 10. 8.
      7. 30. 16. 8. 7. 13. 12. 21. 14. 85. 29. 24. 13. 26. 9. 17. 6. 33.
      10. 8. 5. 13. 8. 8. 10. 54. 13. 13. 8. 11. 10. 10. 14. 25. 18. 16.
      12. 15. 19. 15. 36. 113. 72. 102. 23. 118. 12. 24. 14. 90. 11. 10.
      11. 29. 8. 8. 13. 121. 28. 14. 10. 22. 10. 15. 5. 34. 13. 13. 4.
      26. 9. 21. 22. 139. 91. 99. 27. 114. 14. 21. 12. 102. 18. 30. 13.
      55. 9. 34. 27. 169. 173. 76. 22. 72. 25. 20. 33. 124. 158. 66. 42.
      150. 69. 112. 118. 3832.</_>
    <_>
      726. 117. 137. 100. 121. 41. 99. 207. 179. 27. 39. 35. 109. 28.
      116. 213. 110. 14. 19. 11. 39. 6. 31. 33. 106. 18. 29. 14. 118.
      16. 136. 92. 94. 21. 23. 20. 18. 13. 13. 25. 24. 11. 7. 7. 24. 8.
      22. 31. 99. 13. 17. 14. 24. 10. 26. 18. 114. 19. 19. 23. 126. 26.
      157. 136. 93. 52. 18. 33. 14. 10. 18. 25. 30. 6. 5. 11. 12. 10.
      23. 30. 38. 8. 5. 13. 9. 4. 8. 16. 30. 7. 12. 9. 15. 10. 28. 40.
      90. 24. 14. 23. 12. 11. 18. 19. 22. 13. 7. 9. 15. 12. 12. 30. 139.
      14. 16. 16. 23. 12. 22. 44. 164. 23. 32. 43. 112. 34. 109. 236.
      165. 101. 29. 139. 25. 26. 32. 227. 44. 27. 12. 26. 31. 25. 31.
      255. 34. 15. 11. 17. 17. 3. 8. 33. 27. 12. 11. 18. 27. 15. 34.
      113. 32. 25. 7. 24. 8. 6. 6. 42. 12. 4. 6. 17. 9. 17. 14. 58. 24.
      13. 11. 15. 12. 15. 13. 29. 39. 19. 12. 19. 42. 42. 51. 156. 97.
      110. 21. 139. 19. 17. 15. 118. 21. 29. 9. 32. 13. 21. 24. 129. 26.
      21. 11. 27. 6. 6. 11. 41. 25. 25. 9. 22. 15. 31. 29. 205. 127.
      139. 31. 138. 15. 34. 12. 119. 26. 24. 13. 41. 22. 25. 20. 171.
      195. 132. 29. 120. 15. 34. 38. 243. 139. 94. 51. 154. 114. 132.
      176. 1288.</_>
    <_>
      1013. 151. 155. 62. 165. 47. 79. 90. 166. 48. 46. 20. 73. 32. 67.
      114. 181. 47. 37. 19. 58. 20. 32. 31. 107. 22. 20. 12. 104. 26.
      81. 59. 160. 32. 38. 19. 37. 16. 14. 19. 50. 13. 15. 14. 24. 11.
      31. 31. 62. 13. 17. 23. 28. 22. 20. 21. 58. 24. 28. 16. 106. 19.
      112. 77. 163. 70. 36. 21. 30. 23. 15. 16. 38. 16. 18. 22. 14. 15.
      22. 27. 77. 29. 24. 10. 17. 12. 14. 31. 32. 25. 15. 15. 28. 20.
      30. 56. 48. 36. 25. 25. 15. 16. 10. 28. 22. 17. 17. 23. 14. 21.
      31. 48. 99. 32. 16. 28. 21. 15. 31. 46. 103. 35. 31. 44. 70. 52.
      96. 206. 154. 75. 31. 47. 42. 24. 25. 75. 40. 18. 24. 17. 21. 24.
      27. 111. 44. 17. 18. 26. 29. 13. 15. 33. 30. 14. 16. 23. 31. 17.
      34. 84. 41. 28. 27. 26. 22. 14. 12. 15. 18. 16. 17. 25. 18. 14.
      23. 65. 24. 18. 14. 14. 18. 19. 26. 42. 22. 24. 24. 40. 40. 41.
      70. 215. 77. 95. 35. 87. 24. 23. 20. 60. 20. 17. 17. 32. 13. 22.
      24. 79. 31. 20. 13. 24. 16. 21. 14. 38. 21. 25. 19. 43. 18. 41.
      36. 127. 60. 94. 19. 84. 12. 30. 17. 91. 27. 40. 20. 78. 16. 41.
      44. 193. 91. 54. 24. 87. 30. 60. 55. 209. 114. 93. 67. 202. 88.
      184. 224. 1437.</_>
    <_>
      570. 80. 190. 99. 88. 28. 78. 149. 100. 19. 13. 18. 80. 19. 120.
      205. 75. 17. 28. 8. 18. 3. 15. 16. 72. 3. 29. 19. 97. 16. 156.
      106. 199. 35. 50. 31. 21. 14. 13. 18. 25. 3. 6. 6. 33. 6. 15. 22.
      86. 17. 22. 18. 20. 0. 21. 12. 145. 17. 24. 16. 199. 26. 169. 108.
      87. 14. 30. 24. 12. 6. 13. 8. 22. 8. 5. 6. 15. 0. 25. 18. 19. 7.
      16. 4. 4. 2. 4. 7. 15. 5. 5. 7. 20. 5. 25. 25. 114. 20. 44. 31.
      19. 4. 17. 18. 16. 9. 3. 4. 17. 9. 21. 29. 106. 18. 22. 20. 12. 7.
      20. 31. 200. 23. 30. 20. 132. 27. 109. 164. 157. 98. 34. 156. 14.
      17. 29. 204. 23. 17. 6. 28. 14. 17. 18. 199. 20. 8. 4. 12. 1. 4.
      7. 17. 8. 20. 8. 21. 16. 13. 22. 114. 32. 43. 7. 44. 1. 12. 2. 24.
      5. 6. 3. 6. 5. 11. 3. 43. 15. 20. 5. 20. 6. 6. 5. 25. 17. 20. 3.
      18. 24. 43. 33. 130. 96. 155. 41. 343. 9. 28. 26. 146. 21. 25. 7.
      24. 12. 23. 12. 164. 13. 20. 13. 45. 3. 4. 4. 32. 11. 22. 11. 55.
      13. 34. 45. 270. 138. 222. 42. 254. 21. 45. 21. 165. 21. 34. 4.
      30. 24. 51. 17. 178. 171. 140. 24. 149. 21. 29. 19. 230. 158. 147.
      42. 152. 135. 265. 123. 1452.</_>
    <_>
      114. 14. 80. 53. 15. 2. 77. 145. 41. 2. 4. 8. 39. 1. 225. 374. 9.
      2. 4. 6. 1. 0. 4. 0. 47. 4. 6. 8. 148. 1. 731. 308. 79. 6. 30. 9.
      5. 1. 8. 4. 5. 0. 1. 0. 15. 1. 16. 4. 38. 1. 8. 4. 2. 0. 1. 6.
      190. 9. 13. 11. 621. 12. 438. 150. 17. 1. 1. 3. 1. 0. 4. 7. 3. 0.
      0. 1. 3. 0. 10. 7. 0. 0. 1. 0. 0. 0. 0. 0. 3. 0. 0. 0. 3. 0. 10.
      5. 38. 3. 15. 5. 5. 0. 3. 4. 10. 0. 1. 1. 9. 1. 12. 5. 96. 2. 4.
      11. 2. 0. 2. 9. 389. 6. 6. 2. 230. 11. 131. 87. 53. 52. 10. 262.
      8. 2. 8. 651. 9. 6. 2. 11. 5. 3. 9. 346. 3. 4. 0. 8. 0. 0. 0. 8.
      2. 7. 3. 10. 4. 4. 13. 161. 5. 9. 1. 17. 1. 0. 0. 14. 1. 2. 0. 2.
      1. 1. 0. 7. 6. 10. 0. 9. 1. 1. 1. 3. 12. 10. 0. 12. 8. 8. 7. 91.
      60. 178. 12. 678. 3. 2. 12. 331. 5. 3. 1. 12. 10. 8. 10. 151. 2.
      5. 1. 11. 0. 0. 1. 6. 2. 5. 0. 8. 4. 8. 10. 139. 267. 878. 13.
      516. 7. 12. 6. 176. 13. 18. 1. 8. 15. 8. 7. 90. 699. 328. 8. 193.
      7. 5. 5. 124. 252. 161. 12. 102. 120. 124. 81. 745.</_>
    <_>
      786. 137. 128. 63. 138. 39. 75. 101. 155. 23. 33. 30. 81. 15. 81.
      120. 137. 24. 49. 16. 44. 14. 33. 19. 81. 11. 39. 19. 121. 31.
      143. 73. 165. 32. 47. 19. 30. 12. 18. 18. 47. 16. 16. 7. 36. 14.
      29. 15. 90. 14. 23. 11. 16. 10. 17. 16. 92. 16. 32. 19. 193. 41.
      175. 97. 159. 40. 38. 15. 25. 14. 17. 18. 34. 15. 8. 13. 27. 11.
      12. 31. 46. 19. 11. 11. 15. 9. 5. 10. 18. 14. 24. 11. 26. 9. 36.
      32. 83. 26. 22. 10. 18. 11. 11. 17. 29. 24. 8. 15. 11. 20. 17. 42.
      100. 15. 16. 20. 20. 7. 14. 34. 155. 34. 26. 38. 107. 43. 115.
      199. 148. 85. 37. 106. 15. 24. 23. 165. 27. 13. 10. 18. 15. 14.
      20. 112. 37. 18. 6. 28. 12. 6. 13. 24. 21. 11. 10. 18. 23. 13. 25.
      71. 36. 43. 13. 15. 11. 9. 8. 24. 9. 15. 9. 14. 10. 14. 14. 46.
      35. 19. 16. 18. 12. 9. 10. 39. 27. 23. 11. 41. 22. 46. 55. 183.
      84. 120. 33. 167. 19. 13. 22. 81. 17. 13. 6. 27. 10. 22. 20. 81.
      29. 22. 19. 33. 18. 11. 19. 43. 19. 16. 14. 43. 17. 43. 33. 189.
      131. 150. 24. 150. 29. 33. 18. 86. 21. 32. 9. 54. 18. 44. 25. 189.
      178. 102. 36. 95. 29. 44. 39. 174. 123. 107. 55. 195. 117. 201.
      185. 1582.</_>
    <_>
      814. 153. 147. 96. 132. 53. 63. 86. 136. 28. 44. 18. 76. 21. 79.
      110. 119. 25. 39. 17. 55. 14. 35. 13. 65. 11. 28. 14. 135. 28.
      147. 90. 145. 33. 52. 17. 22. 8. 24. 21. 32. 12. 12. 12. 32. 8.
      23. 29. 77. 23. 24. 11. 23. 7. 22. 21. 88. 23. 18. 13. 150. 37.
      136. 77. 173. 50. 30. 26. 25. 12. 11. 24. 40. 12. 11. 10. 11. 12.
      15. 20. 47. 13. 11. 11. 14. 5. 6. 12. 20. 10. 14. 12. 20. 10. 28.
      37. 90. 31. 21. 30. 19. 8. 8. 17. 21. 11. 11. 11. 9. 16. 19. 36.
      108. 25. 24. 28. 17. 17. 17. 38. 134. 32. 24. 38. 84. 35. 99. 154.
      172. 105. 34. 88. 25. 21. 19. 100. 40. 15. 13. 21. 22. 15. 31.
      102. 32. 13. 6. 16. 9. 5. 8. 33. 24. 9. 9. 21. 19. 16. 29. 79. 51.
      39. 13. 38. 6. 14. 5. 32. 8. 13. 9. 9. 6. 11. 8. 58. 27. 20. 6.
      24. 8. 12. 15. 46. 17. 21. 17. 34. 32. 24. 54. 166. 109. 163. 35.
      180. 11. 29. 15. 97. 30. 26. 8. 38. 14. 16. 22. 111. 29. 37. 10.
      37. 16. 23. 11. 58. 18. 18. 13. 39. 20. 54. 39. 179. 130. 235. 35.
      214. 25. 31. 17. 111. 31. 46. 11. 67. 26. 46. 37. 192. 166. 140.
      37. 112. 29. 52. 32. 194. 141. 118. 57. 222. 92. 175. 169. 1328.</_>
    <_>
      101. 7. 58. 72. 7. 1. 44. 167. 55. 1. 9. 12. 51. 2. 182. 587. 8.
      2. 4. 3. 0. 0. 1. 0. 47. 1. 11. 7. 105. 2. 311. 283. 55. 6. 22.
      12. 4. 0. 7. 8. 10. 0. 0. 1. 5. 0. 11. 9. 60. 2. 10. 12. 3. 0. 4.
      5. 228. 5. 13. 10. 459. 6. 236. 137. 15. 0. 3. 0. 0. 0. 1. 4. 2.
      1. 0. 0. 7. 1. 7. 3. 0. 0. 1. 0. 0. 0. 0. 0. 4. 0. 0. 1. 6. 0. 8.
      3. 53. 1. 3. 6. 4. 0. 6. 4. 10. 0. 2. 0. 7. 1. 12. 5. 145. 3. 9.
      4. 4. 0. 6. 7. 629. 9. 16. 9. 287. 3. 144. 94. 65. 62. 5. 336. 5.
      2. 10. 847. 19. 11. 1. 17. 13. 4. 16. 498. 1. 3. 0. 6. 0. 0. 0. 5.
      10. 8. 0. 9. 4. 2. 8. 127. 9. 10. 0. 22. 0. 0. 0. 13. 2. 0. 0. 1.
      0. 0. 1. 7. 9. 6. 2. 6. 0. 0. 3. 12. 12. 9. 0. 14. 10. 8. 4. 70.
      56. 119. 9. 615. 6. 5. 4. 430. 12. 9. 0. 9. 9. 3. 13. 182. 2. 2.
      2. 4. 1. 0. 0. 6. 7. 6. 0. 7. 1. 3. 5. 133. 289. 675. 14. 419. 11.
      6. 7. 205. 17. 14. 0. 8. 5. 10. 6. 107. 742. 395. 8. 154. 2. 5. 4.
      106. 440. 148. 6. 68. 142. 135. 73. 688.</_>
    <_>
      73. 6. 25. 41. 4. 0. 40. 135. 35. 2. 5. 4. 46. 0. 285. 1185. 6. 1.
      0. 2. 0. 0. 2. 3. 40. 3. 2. 6. 128. 3. 471. 415. 31. 2. 2. 5. 3.
      0. 4. 4. 6. 0. 1. 0. 7. 0. 13. 5. 44. 2. 3. 4. 2. 0. 4. 1. 279. 5.
      15. 5. 837. 7. 464. 170. 8. 0. 2. 1. 1. 0. 3. 2. 1. 0. 0. 0. 1. 1.
      7. 5. 2. 0. 0. 0. 0. 0. 0. 0. 0. 0. 0. 0. 1. 0. 4. 7. 37. 1. 6. 0.
      2. 0. 5. 3. 3. 0. 0. 0. 7. 0. 8. 5. 183. 1. 3. 2. 1. 1. 4. 3. 780.
      5. 7. 5. 388. 4. 154. 81. 26. 29. 11. 157. 0. 2. 4. 514. 1. 5. 1.
      11. 4. 4. 11. 586. 3. 6. 0. 4. 0. 0. 0. 7. 9. 3. 0. 10. 7. 3. 10.
      200. 7. 2. 0. 9. 2. 0. 0. 8. 0. 0. 0. 0. 0. 0. 0. 7. 5. 5. 1. 10.
      0. 0. 0. 4. 14. 6. 0. 9. 2. 8. 4. 99. 36. 68. 1. 264. 2. 0. 9.
      229. 3. 5. 0. 6. 7. 4. 9. 129. 0. 2. 0. 8. 0. 0. 0. 2. 4. 1. 1. 5.
      2. 2. 4. 82. 218. 361. 13. 262. 7. 3. 7. 122. 13. 7. 1. 4. 6. 5.
      16. 63. 1127. 362. 5. 132. 5. 6. 3. 85. 592. 145. 2. 71. 157. 102.
      90. 579.</_>
    <_>
      695. 95. 139. 93. 168. 48. 129. 130. 122. 27. 43. 33. 126. 35.
      200. 229. 125. 13. 32. 9. 64. 10. 39. 28. 96. 19. 36. 26. 144. 41.
      294. 213. 145. 20. 29. 17. 35. 18. 13. 23. 43. 10. 8. 7. 45. 15.
      37. 41. 91. 15. 14. 10. 29. 7. 30. 23. 122. 18. 16. 12. 321. 60.
      232. 155. 109. 34. 24. 17. 26. 11. 16. 22. 20. 9. 9. 11. 14. 5.
      18. 23. 33. 8. 8. 4. 13. 4. 8. 8. 27. 12. 6. 4. 28. 7. 34. 46. 80.
      25. 14. 10. 15. 2. 12. 14. 24. 7. 7. 8. 16. 7. 19. 33. 83. 25. 18.
      12. 17. 11. 15. 28. 150. 25. 32. 34. 147. 47. 121. 152. 99. 85.
      35. 100. 21. 25. 32. 213. 23. 13. 11. 24. 21. 23. 28. 174. 19. 14.
      8. 24. 10. 6. 8. 25. 14. 14. 7. 18. 27. 27. 37. 155. 34. 25. 11.
      18. 3. 8. 11. 24. 5. 7. 10. 7. 11. 17. 20. 55. 16. 10. 7. 11. 6.
      11. 13. 34. 12. 19. 9. 17. 31. 39. 77. 209. 61. 120. 32. 305. 6.
      16. 19. 119. 11. 13. 8. 21. 7. 13. 12. 111. 24. 20. 10. 22. 11. 9.
      5. 24. 14. 17. 15. 32. 19. 36. 34. 199. 122. 188. 22. 133. 11. 19.
      17. 89. 15. 22. 9. 42. 19. 27. 28. 140. 180. 137. 23. 76. 26. 23.
      28. 142. 135. 73. 34. 159. 93. 163. 168. 1079.</_>
    <_>
      874. 136. 118. 70. 152. 39. 64. 102. 149. 24. 40. 20. 96. 29. 93.
      133. 185. 37. 34. 12. 67. 14. 33. 21. 95. 15. 29. 15. 155. 24.
      143. 89. 135. 37. 25. 10. 33. 6. 21. 9. 53. 20. 14. 11. 36. 18.
      38. 25. 114. 19. 23. 12. 42. 11. 30. 24. 103. 14. 39. 23. 173. 35.
      174. 99. 177. 50. 29. 21. 28. 13. 18. 14. 41. 13. 10. 4. 20. 11.
      12. 33. 64. 17. 9. 10. 20. 6. 21. 9. 42. 12. 9. 11. 33. 17. 31.
      47. 101. 46. 19. 17. 17. 13. 18. 17. 33. 15. 18. 12. 19. 11. 15.
      36. 164. 30. 26. 22. 30. 15. 26. 35. 176. 45. 37. 52. 122. 60.
      121. 154. 131. 67. 34. 83. 29. 15. 18. 112. 28. 16. 13. 25. 26.
      18. 26. 116. 49. 13. 5. 15. 13. 6. 16. 32. 20. 13. 12. 18. 23. 13.
      36. 73. 45. 31. 16. 29. 9. 5. 9. 20. 14. 15. 11. 9. 7. 17. 13. 31.
      42. 18. 12. 16. 14. 6. 18. 36. 32. 27. 15. 28. 38. 36. 93. 187.
      100. 90. 21. 89. 18. 27. 12. 74. 9. 15. 14. 22. 10. 17. 17. 56.
      30. 33. 11. 25. 19. 15. 10. 40. 22. 13. 17. 41. 35. 31. 26. 153.
      111. 128. 30. 113. 20. 24. 26. 78. 31. 27. 16. 62. 14. 37. 29.
      161. 187. 101. 36. 95. 45. 50. 40. 137. 176. 123. 67. 214. 127.
      183. 218. 1186.</_>
    <_>
      934. 175. 151. 87. 158. 53. 88. 110. 138. 29. 49. 25. 119. 28. 89.
      120. 150. 40. 55. 21. 63. 19. 33. 19. 92. 16. 43. 15. 194. 26.
      161. 90. 122. 37. 36. 20. 35. 16. 22. 20. 34. 10. 14. 13. 46. 12.
      35. 32. 68. 16. 27. 14. 37. 16. 22. 14. 86. 11. 36. 18. 188. 52.
      214. 112. 128. 56. 34. 36. 26. 10. 19. 21. 31. 19. 10. 9. 19. 10.
      25. 35. 56. 15. 13. 16. 10. 10. 11. 16. 22. 11. 18. 14. 21. 24.
      49. 48. 72. 21. 23. 26. 14. 9. 8. 19. 20. 4. 14. 18. 16. 6. 23.
      25. 108. 26. 14. 15. 20. 14. 23. 36. 104. 30. 36. 36. 92. 37. 99.
      179. 141. 86. 35. 77. 33. 33. 21. 119. 31. 15. 15. 23. 10. 21. 23.
      138. 29. 15. 15. 20. 11. 12. 24. 24. 16. 12. 16. 15. 23. 25. 44.
      88. 43. 29. 14. 24. 18. 16. 17. 34. 12. 10. 4. 19. 14. 17. 27. 58.
      23. 22. 10. 22. 16. 9. 20. 40. 24. 7. 12. 31. 29. 38. 83. 242. 71.
      123. 23. 144. 20. 24. 17. 99. 19. 21. 13. 37. 18. 20. 13. 81. 23.
      21. 19. 30. 13. 23. 13. 29. 16. 18. 18. 28. 18. 57. 56. 179. 84.
      156. 23. 156. 14. 35. 23. 77. 29. 29. 21. 57. 13. 26. 38. 195.
      135. 82. 33. 56. 17. 46. 32. 160. 151. 72. 52. 148. 86. 163. 190.
      1173.</_>
    <_>
      763. 80. 134. 65. 113. 24. 76. 122. 116. 21. 29. 24. 101. 22. 123.
      168. 93. 15. 24. 11. 52. 16. 27. 19. 89. 14. 37. 17. 178. 27. 358.
      135. 131. 31. 37. 18. 34. 4. 19. 11. 39. 7. 16. 7. 30. 13. 33. 23.
      77. 7. 18. 15. 23. 9. 19. 22. 115. 19. 25. 15. 278. 28. 266. 121.
      107. 23. 25. 22. 10. 8. 25. 12. 24. 13. 5. 9. 15. 4. 20. 19. 29.
      7. 8. 6. 7. 4. 6. 5. 24. 5. 4. 8. 17. 12. 29. 45. 94. 15. 19. 22.
      14. 3. 15. 18. 25. 5. 7. 9. 17. 3. 19. 19. 133. 19. 18. 17. 14.
      11. 19. 38. 296. 28. 15. 30. 112. 26. 103. 120. 115. 77. 35. 108.
      26. 18. 21. 220. 32. 16. 7. 21. 16. 18. 28. 174. 20. 25. 10. 21.
      15. 10. 6. 29. 16. 11. 12. 19. 22. 11. 30. 100. 28. 26. 8. 13. 13.
      10. 8. 21. 14. 1. 8. 7. 13. 9. 10. 31. 18. 12. 9. 19. 14. 6. 12.
      26. 23. 15. 7. 25. 19. 35. 50. 160. 80. 144. 19. 189. 8. 18. 17.
      100. 21. 12. 3. 25. 14. 17. 20. 75. 19. 20. 10. 22. 13. 8. 7. 34.
      17. 14. 8. 17. 25. 32. 32. 133. 110. 190. 23. 215. 19. 24. 15. 92.
      24. 20. 8. 44. 19. 22. 23. 118. 173. 104. 22. 98. 20. 31. 31. 153.
      150. 107. 38. 128. 82. 137. 155. 1934.</_>
    <_>
      918. 138. 145. 71. 134. 41. 71. 76. 130. 27. 37. 25. 81. 18. 96.
      109. 166. 29. 43. 14. 52. 19. 27. 28. 97. 29. 46. 17. 102. 30.
      172. 105. 174. 43. 56. 25. 39. 11. 27. 12. 53. 12. 12. 7. 35. 16.
      28. 25. 93. 25. 23. 15. 26. 13. 19. 19. 102. 27. 30. 17. 146. 28.
      145. 80. 156. 38. 38. 25. 28. 8. 16. 18. 31. 15. 14. 17. 15. 12.
      14. 33. 56. 18. 14. 8. 14. 8. 13. 15. 27. 8. 17. 16. 26. 21. 51.
      52. 109. 28. 29. 9. 20. 9. 10. 14. 31. 16. 6. 14. 22. 20. 19. 31.
      121. 25. 22. 18. 32. 14. 19. 28. 126. 33. 31. 31. 114. 48. 96.
      158. 116. 60. 32. 75. 29. 19. 25. 93. 28. 12. 13. 22. 16. 15. 20.
      93. 16. 19. 12. 22. 15. 7. 11. 26. 16. 13. 12. 16. 20. 23. 40. 60.
      41. 40. 13. 25. 15. 15. 8. 19. 14. 14. 8. 10. 9. 12. 26. 48. 33.
      19. 12. 20. 15. 12. 12. 37. 34. 23. 20. 31. 36. 36. 51. 200. 97.
      153. 26. 247. 26. 22. 19. 74. 19. 13. 7. 37. 11. 20. 22. 68. 28.
      23. 18. 37. 13. 15. 12. 38. 19. 22. 16. 47. 25. 58. 53. 181. 105.
      168. 25. 163. 19. 39. 17. 73. 22. 19. 15. 56. 20. 42. 40. 164.
      166. 95. 23. 95. 32. 56. 43. 165. 152. 92. 59. 167. 95. 195. 222.
      1289.</_>
    <_>
      991. 165. 157. 61. 150. 39. 56. 55. 143. 37. 39. 25. 67. 18. 65.
      79. 192. 31. 47. 14. 44. 11. 44. 28. 98. 21. 35. 20. 100. 20. 114.
      64. 157. 43. 44. 19. 33. 22. 20. 11. 38. 16. 17. 15. 28. 21. 26.
      21. 73. 14. 18. 11. 40. 18. 17. 18. 80. 19. 20. 20. 104. 37. 104.
      90. 182. 63. 36. 40. 30. 21. 17. 13. 35. 24. 13. 11. 25. 12. 21.
      21. 57. 18. 19. 8. 22. 15. 8. 14. 27. 13. 24. 17. 18. 16. 30. 53.
      87. 41. 19. 21. 18. 17. 12. 20. 27. 14. 7. 17. 22. 18. 21. 45.
      115. 27. 24. 31. 32. 15. 16. 42. 120. 27. 28. 57. 74. 43. 85. 177.
      139. 71. 33. 55. 28. 18. 27. 93. 41. 14. 12. 24. 15. 18. 16. 81.
      39. 24. 13. 14. 26. 17. 16. 31. 25. 13. 11. 16. 22. 25. 22. 56.
      57. 31. 20. 31. 22. 17. 10. 24. 17. 8. 10. 29. 14. 22. 13. 51. 32.
      25. 13. 23. 21. 20. 17. 38. 24. 18. 19. 30. 37. 40. 53. 143. 80.
      118. 39. 113. 20. 20. 10. 59. 18. 25. 16. 40. 12. 21. 16. 78. 31.
      30. 7. 29. 17. 17. 18. 47. 29. 28. 24. 36. 18. 48. 50. 161. 88.
      132. 28. 125. 26. 35. 20. 90. 30. 43. 22. 74. 18. 52. 44. 172.
      120. 91. 43. 109. 27. 69. 48. 165. 123. 97. 70. 208. 107. 195.
      213. 1495.</_>
    <_>
      897. 128. 126. 55. 158. 42. 65. 74. 133. 31. 43. 21. 97. 23. 61.
      77. 173. 26. 43. 14. 84. 16. 39. 23. 90. 17. 46. 12. 140. 30. 234.
      78. 173. 33. 44. 13. 46. 9. 28. 14. 58. 16. 11. 12. 42. 18. 36.
      26. 98. 19. 35. 14. 36. 13. 21. 21. 95. 15. 31. 21. 168. 43. 153.
      95. 144. 35. 30. 22. 31. 20. 17. 20. 34. 14. 11. 12. 20. 7. 17.
      29. 76. 17. 16. 13. 13. 14. 13. 12. 33. 11. 20. 10. 29. 21. 49.
      51. 84. 16. 27. 13. 18. 17. 14. 19. 26. 11. 12. 14. 23. 21. 22.
      26. 136. 29. 17. 20. 35. 17. 18. 16. 107. 28. 29. 43. 102. 63.
      105. 179. 129. 70. 28. 68. 22. 28. 32. 99. 27. 8. 11. 21. 13. 12.
      13. 85. 31. 18. 17. 14. 18. 13. 17. 18. 26. 8. 15. 16. 22. 19. 38.
      74. 43. 17. 10. 22. 9. 12. 6. 22. 8. 10. 10. 13. 11. 26. 21. 55.
      30. 11. 15. 16. 12. 9. 13. 27. 24. 19. 17. 40. 40. 49. 89. 215.
      105. 145. 30. 165. 17. 14. 14. 68. 13. 16. 12. 25. 8. 19. 22. 54.
      35. 22. 16. 31. 14. 14. 14. 36. 23. 19. 25. 35. 23. 40. 58. 151.
      88. 176. 22. 176. 20. 23. 17. 63. 26. 31. 17. 45. 11. 37. 30. 155.
      180. 97. 36. 102. 37. 57. 38. 152. 148. 106. 72. 192. 95. 170.
      222. 1328.</_>
    <_>
      905. 138. 150. 61. 122. 32. 46. 47. 138. 29. 32. 14. 67. 19. 72.
      87. 168. 28. 45. 10. 55. 15. 29. 15. 99. 16. 37. 20. 140. 24. 158.
      84. 192. 42. 61. 23. 40. 14. 21. 11. 42. 10. 23. 5. 40. 12. 25.
      23. 89. 18. 21. 13. 38. 9. 25. 8. 94. 16. 28. 24. 167. 40. 159.
      82. 148. 58. 32. 30. 27. 8. 13. 21. 33. 14. 9. 13. 16. 13. 14. 21.
      44. 23. 14. 11. 17. 8. 12. 14. 30. 8. 11. 12. 41. 14. 38. 40. 89.
      34. 21. 15. 12. 9. 9. 8. 24. 18. 11. 17. 17. 11. 17. 23. 134. 23.
      25. 20. 40. 12. 23. 34. 157. 30. 33. 38. 90. 43. 115. 178. 110.
      78. 34. 79. 23. 23. 19. 106. 22. 17. 8. 18. 16. 7. 24. 82. 34. 9.
      12. 14. 16. 6. 15. 24. 23. 12. 16. 14. 24. 23. 26. 63. 39. 26. 19.
      26. 11. 18. 8. 20. 11. 3. 14. 19. 8. 11. 15. 34. 27. 16. 16. 17.
      15. 10. 18. 26. 25. 20. 19. 39. 35. 40. 62. 179. 85. 155. 29. 199.
      14. 19. 22. 84. 19. 19. 10. 24. 13. 19. 16. 67. 30. 33. 13. 28.
      17. 23. 7. 28. 20. 26. 16. 39. 23. 58. 33. 174. 144. 200. 44. 163.
      23. 43. 11. 61. 20. 41. 15. 58. 26. 53. 29. 171. 169. 122. 25.
      115. 40. 50. 39. 157. 171. 97. 57. 187. 107. 223. 229. 1375.</_>
    <_>
      768. 107. 94. 55. 93. 34. 38. 62. 102. 26. 24. 18. 64. 13. 52.
      117. 143. 22. 25. 13. 33. 15. 20. 19. 56. 19. 26. 21. 66. 22. 79.
      61. 128. 42. 26. 16. 25. 12. 16. 13. 33. 19. 16. 1. 33. 6. 16. 20.
      76. 20. 19. 14. 29. 13. 15. 17. 93. 18. 19. 16. 102. 24. 74. 74.
      154. 62. 28. 31. 20. 14. 14. 24. 43. 14. 7. 7. 21. 4. 15. 24. 51.
      22. 21. 6. 17. 7. 17. 8. 26. 12. 10. 12. 19. 10. 34. 25. 86. 28.
      19. 25. 15. 12. 6. 6. 23. 13. 18. 14. 17. 12. 20. 27. 167. 40. 21.
      32. 26. 12. 21. 36. 173. 38. 35. 50. 81. 40. 86. 140. 133. 54. 35.
      68. 31. 22. 13. 122. 37. 21. 12. 23. 17. 18. 15. 94. 35. 15. 18.
      13. 17. 5. 11. 18. 15. 11. 6. 13. 9. 13. 15. 64. 41. 22. 15. 26.
      13. 16. 7. 26. 11. 10. 10. 17. 13. 13. 10. 35. 30. 16. 11. 21. 15.
      9. 13. 24. 25. 17. 20. 30. 18. 32. 30. 131. 75. 129. 35. 159. 14.
      21. 20. 92. 23. 24. 10. 26. 11. 15. 18. 86. 27. 26. 17. 38. 7. 16.
      22. 49. 29. 19. 21. 53. 17. 31. 34. 142. 91. 158. 31. 179. 18. 34.
      16. 114. 29. 38. 17. 75. 14. 39. 32. 187. 149. 102. 28. 137. 32.
      52. 39. 189. 194. 106. 75. 235. 117. 191. 156. 2554.</_>
    <_>
      964. 113. 151. 42. 194. 39. 74. 59. 165. 35. 55. 13. 106. 32. 77.
      101. 193. 33. 59. 17. 100. 17. 51. 21. 120. 15. 68. 20. 188. 32.
      184. 72. 179. 37. 47. 16. 39. 18. 26. 18. 59. 8. 23. 5. 71. 21.
      36. 23. 96. 27. 18. 9. 47. 15. 38. 25. 109. 22. 47. 22. 234. 69.
      202. 119. 138. 35. 28. 16. 36. 8. 20. 16. 32. 14. 15. 18. 19. 10.
      25. 20. 55. 21. 18. 12. 25. 15. 8. 16. 36. 13. 17. 12. 61. 27. 53.
      56. 78. 21. 15. 18. 13. 8. 10. 17. 21. 17. 18. 10. 22. 12. 24. 37.
      129. 25. 12. 20. 21. 14. 21. 30. 115. 36. 30. 48. 110. 73. 141.
      190. 102. 45. 26. 51. 23. 19. 30. 84. 25. 10. 14. 18. 15. 14. 18.
      85. 25. 13. 16. 13. 22. 7. 20. 28. 28. 11. 23. 16. 38. 22. 48. 72.
      37. 26. 9. 19. 7. 7. 8. 10. 17. 9. 7. 15. 9. 15. 15. 51. 21. 23.
      11. 21. 27. 13. 27. 33. 31. 19. 20. 33. 39. 51. 102. 191. 51. 83.
      19. 116. 13. 10. 10. 57. 18. 10. 5. 21. 8. 24. 11. 48. 28. 17. 11.
      17. 13. 10. 16. 32. 19. 18. 15. 37. 28. 50. 48. 168. 88. 136. 24.
      81. 13. 19. 19. 47. 23. 22. 20. 41. 25. 40. 40. 128. 164. 82. 21.
      51. 36. 38. 36. 118. 135. 50. 68. 179. 130. 182. 241. 1306.</_>
    <_>
      825. 133. 143. 56. 128. 41. 51. 49. 138. 28. 41. 17. 84. 29. 69.
      109. 161. 33. 36. 16. 60. 14. 32. 16. 80. 19. 39. 13. 138. 26.
      220. 76. 181. 48. 41. 26. 25. 14. 20. 12. 27. 19. 20. 13. 33. 22.
      25. 17. 86. 16. 28. 14. 36. 9. 20. 20. 69. 16. 37. 20. 111. 33.
      157. 106. 168. 46. 43. 31. 37. 19. 18. 10. 25. 11. 12. 16. 15. 14.
      15. 19. 67. 21. 17. 15. 28. 16. 8. 19. 42. 11. 11. 18. 36. 21. 43.
      29. 69. 28. 14. 24. 15. 12. 14. 17. 23. 14. 16. 16. 13. 19. 19.
      38. 107. 27. 14. 23. 22. 11. 24. 39. 150. 37. 29. 37. 84. 47. 105.
      163. 114. 76. 27. 50. 22. 16. 15. 97. 22. 13. 17. 12. 21. 6. 17.
      79. 29. 18. 13. 16. 16. 11. 15. 23. 17. 12. 15. 14. 17. 18. 44.
      45. 55. 35. 22. 29. 19. 15. 7. 18. 20. 12. 15. 12. 10. 13. 13. 33.
      24. 15. 15. 17. 14. 15. 13. 27. 31. 14. 17. 24. 42. 28. 66. 191.
      93. 162. 31. 190. 18. 26. 16. 87. 17. 32. 15. 33. 9. 17. 14. 56.
      26. 33. 9. 40. 15. 20. 8. 35. 20. 20. 16. 56. 26. 58. 58. 155. 94.
      226. 35. 199. 21. 40. 23. 107. 24. 39. 21. 81. 18. 65. 36. 159.
      109. 88. 34. 123. 20. 52. 39. 160. 122. 97. 63. 207. 85. 206. 203.
      1497.</_>
    <_>
      915. 138. 125. 59. 114. 38. 53. 82. 147. 29. 39. 21. 63. 21. 54.
      115. 177. 36. 38. 13. 42. 12. 28. 18. 90. 12. 27. 17. 69. 24. 95.
      78. 151. 29. 42. 21. 31. 13. 16. 15. 41. 7. 16. 12. 18. 17. 18.
      18. 95. 26. 8. 2. 24. 12. 10. 12. 89. 21. 26. 25. 96. 25. 105. 83.
      154. 63. 38. 32. 37. 12. 17. 23. 44. 16. 8. 19. 11. 11. 17. 23.
      60. 23. 14. 16. 23. 11. 18. 9. 32. 11. 14. 18. 23. 15. 25. 28. 88.
      33. 17. 21. 17. 10. 8. 21. 37. 13. 16. 13. 23. 7. 23. 37. 126. 29.
      25. 21. 26. 15. 15. 35. 160. 29. 43. 41. 91. 48. 123. 186. 122.
      75. 35. 81. 40. 30. 24. 136. 35. 15. 15. 37. 16. 16. 22. 125. 46.
      12. 16. 15. 12. 10. 10. 29. 18. 25. 12. 24. 16. 11. 30. 51. 44.
      31. 21. 27. 16. 12. 5. 19. 21. 14. 6. 11. 9. 8. 16. 42. 34. 17.
      14. 27. 25. 11. 13. 33. 31. 15. 24. 32. 32. 39. 64. 158. 101. 111.
      22. 121. 17. 23. 15. 98. 26. 18. 18. 41. 11. 13. 19. 72. 30. 26.
      21. 42. 14. 21. 15. 57. 9. 20. 14. 47. 14. 45. 54. 168. 86. 140.
      32. 159. 19. 37. 24. 109. 35. 31. 17. 68. 20. 57. 32. 179. 145.
      110. 45. 119. 39. 49. 37. 179. 164. 127. 75. 241. 132. 184. 206.
      1497.</_>
    <_>
      109. 14. 51. 68. 17. 1. 66. 159. 47. 4. 6. 5. 60. 3. 234. 492. 14.
      2. 2. 3. 0. 0. 0. 4. 57. 0. 4. 4. 170. 2. 523. 304. 55. 2. 13. 11.
      4. 0. 6. 5. 8. 0. 0. 1. 7. 0. 6. 2. 49. 3. 7. 7. 1. 0. 3. 3. 246.
      8. 9. 15. 774. 7. 364. 126. 23. 1. 6. 3. 1. 0. 5. 2. 5. 1. 0. 0.
      4. 0. 9. 7. 1. 0. 1. 1. 0. 0. 0. 0. 3. 0. 0. 0. 3. 0. 13. 5. 92.
      3. 6. 5. 2. 0. 5. 0. 16. 1. 1. 1. 14. 0. 6. 3. 148. 4. 9. 5. 2. 0.
      5. 5. 595. 19. 7. 3. 349. 10. 95. 67. 51. 53. 8. 331. 3. 1. 12.
      678. 9. 3. 0. 8. 1. 3. 7. 290. 3. 2. 0. 14. 1. 0. 0. 14. 2. 3. 0.
      8. 6. 5. 8. 143. 3. 8. 2. 14. 0. 0. 0. 4. 0. 0. 0. 1. 0. 0. 0. 8.
      8. 7. 1. 9. 0. 0. 1. 10. 3. 5. 0. 10. 6. 2. 6. 51. 73. 211. 13.
      854. 6. 6. 11. 455. 5. 3. 1. 7. 3. 5. 4. 175. 2. 4. 1. 10. 0. 0.
      0. 8. 5. 2. 0. 3. 3. 5. 3. 111. 298. 786. 7. 524. 7. 13. 9. 153.
      10. 10. 0. 5. 8. 9. 8. 70. 633. 389. 3. 156. 11. 9. 6. 89. 271.
      168. 4. 71. 101. 93. 52. 397.</_>
    <_>
      73. 5. 36. 32. 1. 0. 32. 142. 78. 1. 2. 6. 59. 1. 272. 721. 3. 0.
      1. 1. 0. 0. 0. 1. 70. 4. 4. 8. 112. 1. 880. 334. 27. 1. 7. 3. 0.
      0. 4. 3. 5. 0. 0. 0. 4. 0. 12. 4. 30. 2. 3. 2. 0. 0. 2. 1. 305.
      12. 8. 9. 791. 1. 472. 143. 3. 0. 0. 1. 0. 0. 4. 1. 3. 0. 0. 0. 2.
      0. 13. 4. 0. 0. 0. 0. 0. 0. 0. 0. 0. 0. 0. 0. 1. 0. 5. 3. 20. 0.
      1. 0. 3. 0. 6. 4. 6. 0. 0. 1. 11. 0. 9. 2. 164. 0. 2. 5. 2. 0. 0.
      11. 1031. 6. 3. 2. 355. 1. 150. 139. 69. 49. 2. 223. 3. 2. 5. 608.
      21. 3. 1. 8. 6. 3. 10. 432. 4. 2. 0. 7. 0. 0. 0. 6. 6. 2. 0. 6. 6.
      2. 2. 150. 2. 3. 1. 5. 0. 0. 2. 3. 1. 0. 0. 0. 0. 0. 0. 6. 8. 7.
      0. 6. 0. 0. 0. 4. 14. 13. 0. 4. 3. 3. 4. 77. 40. 89. 1. 410. 4. 2.
      7. 311. 6. 4. 0. 1. 3. 0. 10. 117. 1. 1. 0. 5. 0. 0. 0. 4. 0. 1.
      0. 5. 2. 2. 4. 96. 233. 404. 4. 230. 9. 6. 3. 125. 8. 4. 0. 4. 11.
      1. 11. 81. 912. 302. 7. 124. 6. 2. 4. 158. 578. 116. 5. 59. 137.
      62. 69. 614.</_>
    <_>
      790. 99. 192. 84. 151. 39. 82. 105. 161. 27. 36. 35. 83. 27. 101.
      148. 130. 19. 29. 21. 48. 11. 27. 23. 96. 18. 26. 19. 104. 25.
      113. 115. 173. 35. 44. 25. 24. 9. 24. 22. 46. 11. 9. 7. 32. 16.
      23. 21. 80. 26. 18. 12. 32. 9. 24. 20. 103. 19. 19. 21. 147. 34.
      116. 122. 141. 38. 38. 20. 23. 9. 24. 9. 24. 5. 9. 7. 23. 11. 21.
      34. 30. 8. 12. 6. 12. 8. 8. 14. 19. 14. 10. 6. 30. 12. 26. 44. 81.
      25. 22. 14. 11. 16. 13. 21. 16. 11. 7. 7. 29. 9. 22. 39. 102. 20.
      25. 25. 14. 11. 25. 39. 128. 29. 26. 42. 116. 49. 132. 221. 160.
      63. 38. 71. 28. 24. 38. 120. 51. 30. 13. 27. 31. 20. 27. 146. 37.
      18. 12. 17. 7. 8. 6. 26. 34. 16. 11. 27. 16. 23. 31. 123. 44. 25.
      12. 25. 9. 4. 9. 27. 13. 11. 7. 9. 14. 7. 12. 49. 16. 25. 9. 14.
      15. 8. 11. 34. 28. 30. 13. 32. 31. 45. 54. 178. 72. 94. 34. 149.
      10. 13. 16. 79. 14. 18. 10. 28. 11. 19. 18. 110. 20. 14. 8. 36. 6.
      9. 10. 35. 20. 26. 17. 38. 24. 38. 38. 190. 116. 121. 18. 118. 27.
      31. 21. 115. 22. 23. 11. 36. 23. 38. 23. 194. 135. 131. 26. 119.
      30. 39. 41. 220. 138. 129. 55. 179. 99. 205. 182. 1567.</_>
    <_>
      894. 105. 151. 84. 122. 36. 79. 102. 187. 38. 51. 45. 91. 18. 86.
      175. 120. 22. 32. 12. 45. 10. 33. 22. 106. 20. 20. 23. 140. 20.
      226. 102. 130. 25. 28. 15. 28. 11. 27. 20. 25. 16. 15. 18. 36. 12.
      31. 26. 91. 11. 31. 14. 35. 6. 27. 31. 111. 26. 19. 18. 216. 47.
      192. 137. 84. 31. 29. 20. 20. 13. 13. 16. 26. 15. 14. 14. 29. 2.
      15. 33. 25. 5. 7. 10. 13. 3. 6. 7. 28. 9. 14. 14. 19. 10. 52. 40.
      56. 19. 25. 21. 16. 5. 16. 24. 30. 15. 12. 14. 18. 9. 21. 46. 103.
      12. 10. 20. 25. 12. 23. 32. 254. 37. 18. 39. 117. 40. 123. 208.
      162. 81. 39. 97. 40. 20. 35. 254. 49. 17. 14. 22. 31. 23. 18. 145.
      37. 19. 9. 27. 13. 9. 10. 49. 21. 12. 14. 13. 26. 21. 37. 104. 37.
      17. 13. 26. 7. 10. 10. 22. 13. 5. 4. 10. 8. 8. 10. 36. 27. 18. 9.
      19. 13. 16. 17. 52. 15. 23. 11. 23. 29. 48. 43. 174. 58. 80. 24.
      202. 16. 14. 20. 114. 25. 20. 5. 25. 11. 32. 20. 116. 17. 8. 7.
      27. 13. 10. 9. 37. 20. 10. 17. 26. 25. 42. 35. 171. 84. 123. 15.
      106. 25. 9. 24. 95. 21. 22. 4. 28. 30. 33. 32. 151. 150. 100. 31.
      81. 31. 37. 44. 225. 145. 85. 27. 136. 112. 183. 186. 1304.</_>
    <_>
      85. 9. 58. 48. 6. 1. 41. 85. 59. 5. 14. 5. 41. 1. 205. 402. 9. 1.
      4. 4. 1. 0. 2. 2. 42. 3. 8. 9. 140. 1. 714. 232. 50. 3. 12. 6. 2.
      0. 11. 2. 12. 0. 0. 1. 10. 0. 9. 9. 56. 0. 7. 8. 3. 0. 4. 4. 221.
      12. 9. 8. 541. 9. 417. 126. 8. 0. 2. 3. 0. 0. 4. 3. 2. 1. 0. 1. 4.
      0. 6. 5. 3. 0. 0. 0. 0. 0. 1. 1. 3. 0. 3. 0. 1. 1. 11. 6. 43. 2.
      7. 5. 0. 0. 7. 5. 8. 0. 0. 1. 4. 0. 15. 7. 140. 4. 10. 4. 3. 0. 5.
      3. 628. 9. 7. 8. 245. 5. 134. 148. 82. 52. 5. 195. 6. 3. 5. 457.
      32. 15. 2. 14. 12. 5. 18. 314. 4. 5. 1. 11. 3. 0. 0. 5. 12. 9. 1.
      11. 12. 9. 7. 140. 12. 8. 0. 12. 0. 3. 0. 9. 1. 1. 0. 2. 2. 0. 0.
      7. 6. 10. 1. 10. 2. 0. 1. 7. 7. 16. 2. 12. 3. 6. 9. 89. 59. 163.
      1. 716. 9. 7. 9. 273. 19. 11. 1. 14. 4. 6. 9. 135. 1. 5. 0. 3. 0.
      0. 0. 5. 4. 7. 0. 9. 11. 11. 8. 104. 242. 675. 13. 664. 11. 4. 10.
      169. 19. 9. 2. 18. 6. 12. 10. 100. 518. 312. 13. 190. 6. 7. 10.
      157. 480. 148. 9. 114. 143. 113. 102. 1034.</_>
    <_>
      72. 7. 35. 53. 8. 0. 67. 149. 35. 5. 6. 8. 55. 1. 306. 599. 6. 0.
      4. 3. 0. 0. 0. 5. 60. 3. 6. 7. 190. 0. 666. 290. 53. 1. 6. 4. 1.
      0. 9. 4. 7. 1. 1. 0. 9. 0. 7. 4. 32. 1. 2. 8. 2. 0. 0. 3. 312. 7.
      1. 6. 868. 6. 375. 125. 7. 0. 7. 0. 0. 0. 3. 3. 0. 0. 0. 0. 2. 0.
      6. 1. 0. 0. 0. 0. 0. 0. 0. 0. 0. 0. 0. 0. 2. 0. 10. 6. 78. 0. 7.
      2. 2. 0. 10. 0. 8. 0. 0. 1. 9. 1. 2. 4. 181. 2. 5. 0. 1. 0. 2. 6.
      700. 6. 7. 2. 310. 8. 110. 88. 41. 46. 9. 349. 2. 0. 2. 569. 5. 1.
      0. 4. 3. 4. 8. 284. 0. 3. 0. 4. 0. 0. 0. 6. 3. 7. 0. 8. 2. 2. 5.
      109. 6. 7. 1. 9. 0. 0. 1. 2. 0. 0. 0. 0. 0. 0. 0. 3. 6. 2. 0. 7.
      0. 0. 0. 3. 6. 3. 0. 5. 4. 7. 4. 49. 68. 200. 10. 1058. 0. 3. 5.
      368. 3. 4. 1. 3. 7. 4. 7. 104. 0. 4. 0. 9. 0. 1. 0. 10. 0. 4. 0.
      3. 6. 9. 7. 96. 317. 982. 9. 503. 10. 9. 9. 127. 6. 5. 0. 3. 8. 7.
      1. 31. 564. 303. 3. 135. 6. 5. 4. 53. 306. 139. 2. 54. 112. 97.
      39. 380.</_>
    <_>
      52. 1. 58. 50. 5. 0. 54. 101. 17. 0. 3. 1. 45. 2. 259. 413. 6. 0.
      2. 0. 1. 0. 4. 0. 40. 0. 6. 3. 207. 1. 980. 305. 50. 2. 16. 1. 3.
      0. 9. 7. 4. 0. 0. 0. 9. 0. 16. 3. 32. 5. 9. 3. 2. 0. 3. 4. 307. 5.
      10. 9. 1602. 8. 1153. 151. 5. 1. 3. 1. 0. 0. 1. 3. 2. 0. 0. 0. 1.
      0. 3. 1. 1. 0. 0. 0. 0. 0. 0. 0. 2. 0. 0. 0. 4. 0. 9. 4. 59. 1. 4.
      2. 4. 0. 2. 1. 5. 0. 1. 0. 4. 0. 6. 4. 122. 3. 7. 5. 2. 0. 4. 2.
      539. 3. 6. 2. 475. 8. 199. 71. 16. 29. 1. 189. 0. 1. 5. 429. 0. 3.
      0. 6. 3. 2. 6. 237. 2. 0. 0. 2. 0. 0. 0. 0. 2. 3. 0. 7. 2. 3. 9.
      125. 5. 2. 1. 12. 0. 0. 0. 6. 0. 0. 0. 0. 0. 0. 0. 5. 3. 5. 0. 4.
      0. 0. 0. 4. 5. 4. 0. 6. 5. 9. 5. 76. 30. 96. 5. 698. 2. 4. 5. 255.
      0. 0. 1. 4. 2. 1. 4. 97. 2. 2. 0. 8. 0. 0. 0. 4. 2. 2. 1. 6. 3. 3.
      12. 116. 221. 518. 8. 397. 5. 2. 6. 102. 7. 3. 0. 4. 5. 4. 6. 38.
      432. 275. 3. 122. 4. 3. 2. 43. 373. 169. 9. 75. 153. 113. 89. 508.</_>
    <_>
      84. 9. 58. 55. 8. 0. 43. 74. 51. 1. 8. 4. 51. 0. 236. 344. 4. 1.
      2. 4. 0. 0. 1. 1. 74. 2. 3. 5. 176. 1. 708. 248. 60. 1. 13. 5. 3.
      0. 2. 5. 3. 0. 0. 0. 4. 0. 7. 2. 65. 2. 9. 4. 3. 1. 7. 3. 373. 9.
      14. 10. 881. 3. 494. 116. 5. 1. 2. 0. 0. 0. 4. 1. 0. 0. 0. 0. 2.
      0. 8. 0. 1. 0. 0. 0. 0. 0. 0. 0. 1. 0. 0. 0. 4. 0. 2. 4. 64. 3. 4.
      6. 2. 0. 5. 3. 6. 1. 0. 0. 8. 0. 13. 3. 219. 0. 4. 4. 5. 0. 4. 5.
      859. 7. 3. 5. 426. 6. 156. 87. 32. 50. 4. 211. 0. 0. 7. 300. 13.
      4. 1. 2. 4. 1. 8. 171. 1. 4. 0. 8. 1. 0. 0. 4. 13. 6. 0. 11. 8. 3.
      4. 110. 7. 5. 0. 8. 0. 0. 0. 2. 0. 0. 0. 0. 0. 0. 0. 1. 3. 4. 0.
      7. 1. 0. 1. 4. 6. 6. 0. 7. 3. 5. 2. 46. 65. 177. 7. 755. 1. 2. 4.
      222. 2. 5. 0. 5. 4. 4. 6. 101. 1. 2. 1. 5. 0. 0. 0. 4. 6. 1. 2. 4.
      2. 8. 3. 103. 372. 1015. 5. 558. 4. 0. 11. 121. 10. 6. 0. 2. 8. 1.
      2. 46. 713. 459. 5. 130. 4. 4. 6. 103. 385. 143. 3. 56. 161. 148.
      61. 483.</_>
    <_>
      52. 10. 31. 19. 5. 0. 36. 71. 27. 1. 7. 5. 32. 1. 138. 355. 9. 1.
      1. 2. 0. 0. 2. 1. 25. 0. 2. 3. 112. 1. 507. 202. 42. 3. 10. 2. 3.
      0. 5. 7. 6. 0. 0. 0. 10. 0. 13. 0. 40. 3. 3. 7. 0. 0. 2. 1. 259.
      3. 13. 6. 892. 6. 482. 117. 7. 0. 4. 2. 0. 0. 1. 2. 2. 0. 0. 0. 1.
      0. 1. 8. 0. 0. 0. 0. 0. 0. 0. 0. 2. 0. 0. 0. 0. 0. 9. 1. 42. 2. 7.
      1. 4. 0. 6. 1. 7. 3. 0. 1. 9. 0. 5. 4. 178. 1. 6. 6. 2. 0. 2. 2.
      862. 5. 8. 2. 441. 7. 169. 68. 26. 33. 0. 187. 0. 1. 3. 361. 3. 2.
      0. 6. 3. 3. 6. 207. 3. 3. 0. 6. 0. 0. 0. 1. 7. 1. 1. 8. 2. 3. 2.
      87. 2. 5. 1. 11. 1. 1. 0. 8. 0. 0. 0. 0. 0. 0. 2. 2. 5. 3. 2. 4.
      0. 0. 0. 1. 5. 9. 2. 6. 3. 3. 6. 68. 43. 148. 11. 802. 2. 4. 5.
      326. 2. 3. 1. 3. 7. 0. 6. 118. 1. 3. 0. 7. 0. 0. 2. 6. 4. 0. 0. 4.
      3. 4. 6. 70. 269. 908. 19. 588. 4. 6. 6. 135. 9. 6. 0. 7. 5. 4. 8.
      90. 799. 382. 4. 169. 7. 2. 5. 55. 583. 205. 8. 98. 153. 82. 95.
      1023.</_>
    <_>
      72. 5. 34. 40. 9. 0. 35. 135. 58. 1. 7. 3. 42. 1. 270. 762. 5. 0.
      5. 1. 1. 0. 1. 3. 69. 3. 10. 5. 221. 2. 962. 445. 39. 1. 7. 6. 2.
      0. 6. 11. 6. 0. 0. 0. 4. 0. 7. 9. 72. 2. 4. 5. 3. 0. 4. 4. 237. 3.
      18. 9. 847. 5. 804. 232. 6. 1. 1. 1. 0. 0. 3. 2. 3. 0. 0. 0. 2. 0.
      2. 8. 1. 0. 0. 0. 1. 0. 0. 0. 0. 0. 0. 0. 6. 0. 5. 6. 31. 1. 3. 0.
      1. 0. 5. 4. 5. 1. 0. 0. 3. 0. 10. 1. 110. 0. 8. 4. 4. 0. 3. 7.
      501. 4. 10. 3. 357. 5. 213. 122. 46. 41. 5. 179. 1. 0. 6. 392. 35.
      7. 2. 9. 6. 1. 10. 453. 2. 1. 0. 3. 0. 0. 0. 2. 8. 8. 0. 7. 8. 6.
      7. 147. 6. 3. 2. 5. 0. 0. 0. 8. 3. 0. 0. 0. 0. 0. 2. 7. 8. 6. 0.
      3. 0. 0. 1. 10. 19. 7. 0. 8. 8. 8. 9. 71. 39. 109. 2. 318. 2. 2.
      3. 190. 10. 5. 2. 7. 4. 3. 9. 130. 1. 1. 0. 7. 0. 0. 1. 2. 5. 2.
      0. 4. 5. 3. 5. 76. 199. 587. 4. 298. 5. 2. 5. 127. 11. 2. 1. 8.
      13. 2. 6. 71. 659. 333. 9. 144. 11. 4. 3. 92. 441. 113. 8. 71.
      170. 96. 95. 783.</_>
    <_>
      100. 10. 94. 58. 7. 0. 50. 95. 40. 3. 6. 3. 31. 0. 213. 317. 3. 1.
      7. 5. 2. 0. 3. 3. 61. 4. 8. 5. 229. 7. 793. 195. 93. 7. 20. 6. 1.
      0. 6. 1. 9. 0. 1. 0. 14. 0. 8. 2. 80. 6. 8. 4. 4. 0. 3. 6. 339. 7.
      11. 7. 1012. 6. 559. 111. 9. 0. 5. 4. 1. 0. 5. 1. 1. 0. 0. 0. 2.
      0. 5. 3. 0. 0. 0. 0. 0. 0. 0. 1. 1. 0. 0. 0. 1. 0. 13. 2. 73. 0.
      12. 2. 2. 0. 6. 8. 7. 0. 0. 0. 8. 0. 7. 3. 202. 3. 3. 7. 4. 0. 2.
      11. 726. 9. 5. 7. 395. 9. 148. 77. 45. 37. 6. 254. 3. 0. 6. 355.
      19. 5. 0. 4. 9. 1. 4. 142. 3. 1. 0. 9. 0. 0. 0. 5. 6. 6. 2. 10. 2.
      5. 5. 71. 8. 10. 1. 7. 0. 0. 0. 0. 0. 0. 0. 0. 0. 1. 0. 4. 5. 11.
      0. 6. 0. 0. 0. 3. 12. 8. 0. 2. 6. 10. 3. 34. 67. 181. 7. 692. 5.
      5. 8. 239. 9. 3. 1. 3. 6. 3. 1. 82. 1. 5. 0. 13. 0. 1. 1. 9. 6. 6.
      0. 13. 8. 11. 10. 129. 327. 1108. 16. 506. 9. 9. 7. 86. 8. 5. 0.
      2. 12. 5. 8. 32. 556. 344. 4. 151. 4. 3. 4. 87. 384. 162. 6. 58.
      152. 192. 62. 470.</_>
    <_>
      69. 3. 62. 39. 3. 0. 50. 105. 37. 0. 5. 3. 34. 2. 249. 524. 2. 1.
      0. 1. 1. 0. 1. 4. 33. 5. 4. 2. 125. 3. 899. 344. 58. 1. 28. 7. 3.
      0. 5. 3. 2. 0. 0. 0. 9. 1. 13. 6. 44. 3. 4. 2. 1. 0. 2. 3. 187. 5.
      6. 4. 748. 4. 502. 128. 5. 0. 1. 4. 0. 1. 1. 0. 2. 0. 0. 0. 3. 0.
      11. 4. 1. 0. 0. 0. 0. 0. 0. 0. 1. 0. 0. 0. 0. 1. 1. 2. 35. 0. 6.
      8. 2. 0. 6. 2. 5. 0. 1. 0. 4. 0. 6. 2. 106. 4. 3. 4. 0. 0. 2. 7.
      464. 4. 4. 0. 234. 0. 92. 65. 41. 28. 8. 294. 0. 0. 5. 684. 9. 6.
      2. 3. 5. 7. 6. 325. 0. 3. 0. 7. 0. 0. 1. 2. 2. 4. 0. 6. 3. 2. 4.
      124. 5. 2. 2. 8. 0. 0. 0. 3. 2. 0. 0. 0. 0. 0. 0. 2. 3. 4. 0. 6.
      0. 1. 1. 1. 6. 6. 0. 14. 3. 5. 3. 49. 44. 184. 6. 1189. 1. 4. 8.
      418. 4. 2. 0. 6. 1. 5. 7. 111. 1. 3. 0. 7. 0. 0. 0. 1. 6. 1. 0. 3.
      1. 8. 10. 103. 260. 997. 7. 732. 13. 5. 3. 136. 11. 2. 0. 7. 9. 8.
      3. 47. 640. 363. 3. 111. 3. 0. 2. 106. 311. 82. 4. 56. 81. 113.
      38. 437.</_>
    <_>
      992. 130. 108. 65. 128. 33. 64. 106. 147. 38. 39. 24. 77. 25. 74.
      119. 172. 20. 40. 18. 55. 16. 25. 22. 103. 26. 32. 17. 106. 28.
      160. 70. 112. 34. 28. 15. 29. 10. 16. 21. 41. 10. 12. 14. 26. 15.
      29. 29. 95. 25. 24. 8. 32. 9. 16. 26. 84. 22. 20. 22. 137. 34.
      135. 91. 162. 57. 25. 33. 40. 6. 14. 24. 47. 21. 21. 14. 16. 13.
      14. 29. 68. 14. 14. 11. 17. 12. 13. 24. 26. 13. 27. 11. 30. 16.
      28. 49. 85. 36. 24. 24. 17. 15. 16. 16. 33. 11. 20. 18. 14. 13.
      25. 35. 128. 31. 23. 31. 30. 23. 21. 51. 131. 33. 39. 37. 83. 61.
      103. 180. 159. 75. 38. 84. 29. 30. 33. 102. 41. 23. 24. 31. 20.
      17. 19. 103. 38. 17. 7. 25. 11. 12. 10. 34. 28. 9. 10. 17. 16. 21.
      28. 71. 38. 16. 13. 26. 23. 15. 18. 35. 17. 14. 11. 19. 17. 15.
      13. 48. 31. 27. 10. 10. 15. 13. 20. 38. 39. 21. 24. 38. 38. 28.
      73. 190. 90. 107. 27. 112. 13. 22. 14. 79. 14. 19. 13. 27. 16. 20.
      16. 68. 41. 22. 11. 37. 12. 28. 14. 42. 24. 17. 30. 43. 25. 36.
      47. 171. 85. 110. 26. 124. 17. 26. 21. 81. 31. 39. 19. 70. 21. 34.
      32. 187. 128. 79. 40. 100. 43. 47. 39. 187. 143. 96. 68. 206. 95.
      177. 238. 1307.</_>
    <_>
      913. 125. 154. 73. 147. 42. 73. 97. 122. 25. 31. 31. 77. 34. 63.
      107. 158. 36. 29. 15. 48. 19. 25. 24. 85. 13. 26. 14. 102. 25.
      150. 83. 160. 45. 28. 21. 43. 15. 18. 14. 55. 11. 15. 10. 25. 15.
      22. 28. 106. 17. 20. 19. 36. 14. 16. 19. 81. 19. 28. 25. 119. 19.
      123. 80. 190. 58. 35. 36. 27. 19. 19. 15. 37. 16. 14. 5. 14. 21.
      21. 29. 73. 22. 17. 5. 20. 14. 9. 21. 31. 15. 17. 17. 25. 20. 35.
      48. 74. 29. 23. 16. 15. 19. 21. 26. 34. 15. 15. 18. 16. 12. 23.
      39. 113. 27. 24. 20. 28. 25. 20. 38. 115. 36. 31. 55. 72. 52. 84.
      188. 123. 71. 45. 91. 41. 29. 24. 106. 34. 18. 21. 29. 22. 13. 18.
      130. 40. 23. 11. 17. 17. 12. 11. 23. 21. 14. 19. 14. 27. 26. 36.
      63. 41. 35. 15. 24. 9. 9. 15. 22. 16. 8. 5. 18. 9. 24. 11. 57. 29.
      19. 16. 21. 11. 15. 14. 29. 32. 27. 17. 31. 37. 42. 73. 174. 74.
      124. 28. 184. 22. 29. 15. 64. 28. 16. 12. 27. 12. 20. 21. 64. 38.
      22. 8. 49. 15. 17. 17. 43. 26. 22. 16. 42. 20. 41. 41. 159. 76.
      141. 24. 127. 23. 35. 21. 69. 38. 33. 25. 67. 23. 46. 35. 190.
      119. 77. 39. 80. 30. 57. 54. 169. 141. 92. 76. 231. 98. 197. 229.
      1352.</_>
    <_>
      50. 1. 51. 47. 5. 0. 38. 107. 46. 1. 1. 2. 48. 2. 305. 804. 3. 1.
      1. 2. 0. 0. 1. 2. 52. 2. 9. 3. 130. 1. 862. 593. 37. 3. 7. 8. 0.
      0. 10. 6. 4. 0. 1. 0. 5. 0. 8. 8. 21. 1. 9. 4. 1. 0. 5. 1. 200. 8.
      10. 7. 628. 3. 669. 208. 2. 0. 1. 2. 0. 0. 1. 1. 1. 0. 1. 0. 2. 0.
      5. 2. 0. 0. 0. 0. 0. 0. 1. 0. 1. 0. 0. 0. 1. 0. 4. 3. 29. 1. 0. 0.
      1. 0. 7. 1. 3. 0. 0. 0. 1. 0. 7. 1. 99. 2. 4. 4. 0. 0. 1. 4. 564.
      3. 3. 2. 369. 1. 173. 100. 34. 36. 5. 166. 3. 1. 7. 590. 19. 5. 2.
      7. 12. 0. 14. 681. 0. 2. 0. 6. 0. 0. 0. 6. 7. 5. 0. 8. 5. 2. 4.
      234. 4. 5. 0. 13. 0. 0. 0. 8. 1. 0. 1. 0. 0. 0. 3. 7. 2. 2. 0. 4.
      0. 0. 0. 5. 5. 9. 1. 3. 7. 4. 6. 102. 23. 88. 2. 491. 2. 2. 1.
      369. 10. 3. 0. 2. 1. 1. 8. 177. 0. 0. 0. 4. 0. 0. 0. 3. 0. 3. 0.
      3. 7. 3. 5. 88. 141. 567. 9. 325. 1. 4. 3. 132. 13. 0. 1. 2. 5. 3.
      13. 67. 690. 241. 2. 134. 5. 0. 3. 100. 580. 127. 4. 57. 128. 64.
      68. 636.</_>
    <_>
      91. 10. 69. 64. 13. 0. 44. 155. 67. 1. 4. 4. 65. 1. 338. 1141. 9.
      2. 1. 0. 0. 0. 0. 2. 57. 2. 8. 11. 138. 6. 927. 517. 65. 2. 20. 3.
      2. 0. 6. 2. 6. 2. 0. 0. 11. 0. 8. 3. 40. 9. 8. 2. 6. 0. 1. 4. 268.
      13. 5. 8. 747. 8. 559. 166. 7. 1. 2. 1. 4. 0. 4. 1. 5. 0. 0. 0. 1.
      0. 7. 6. 0. 0. 0. 0. 0. 0. 0. 0. 1. 0. 0. 0. 3. 0. 12. 4. 40. 1.
      1. 3. 5. 0. 3. 4. 4. 0. 0. 0. 15. 0. 7. 6. 134. 2. 2. 3. 2. 0. 5.
      5. 830. 6. 7. 2. 351. 4. 130. 94. 51. 26. 5. 213. 2. 2. 14. 602.
      14. 4. 0. 9. 5. 5. 8. 377. 4. 7. 0. 10. 0. 0. 0. 6. 5. 3. 0. 9. 6.
      5. 8. 171. 4. 6. 0. 8. 0. 0. 1. 3. 1. 0. 0. 0. 0. 0. 0. 4. 2. 5.
      0. 4. 0. 0. 0. 4. 7. 6. 1. 9. 7. 5. 4. 75. 34. 113. 9. 587. 5. 1.
      10. 315. 2. 4. 0. 6. 4. 4. 10. 138. 2. 1. 0. 6. 0. 0. 0. 6. 1. 3.
      0. 8. 1. 3. 8. 77. 169. 693. 6. 295. 7. 9. 4. 91. 3. 3. 0. 1. 10.
      4. 3. 22. 560. 228. 4. 85. 8. 2. 7. 78. 333. 88. 3. 42. 120. 89.
      50. 376.</_>
    <_>
      102. 9. 58. 58. 9. 1. 55. 128. 56. 4. 8. 3. 59. 0. 337. 1106. 11.
      0. 4. 1. 0. 0. 0. 5. 63. 3. 5. 6. 212. 0. 886. 552. 63. 4. 16. 6.
      4. 0. 7. 6. 4. 0. 1. 1. 14. 0. 6. 7. 43. 3. 7. 7. 2. 0. 4. 2. 262.
      11. 14. 11. 706. 16. 555. 155. 4. 1. 4. 3. 2. 0. 7. 2. 2. 0. 0. 0.
      4. 0. 11. 8. 1. 0. 0. 1. 0. 0. 0. 0. 1. 0. 0. 0. 4. 0. 6. 4. 48.
      6. 8. 2. 2. 0. 6. 4. 4. 0. 0. 0. 5. 0. 10. 4. 114. 0. 3. 0. 3. 0.
      1. 4. 844. 8. 2. 2. 360. 5. 139. 104. 46. 35. 5. 201. 3. 3. 4.
      559. 12. 1. 0. 1. 3. 3. 5. 408. 1. 3. 0. 18. 0. 0. 1. 6. 6. 5. 0.
      2. 2. 2. 4. 144. 11. 6. 0. 4. 2. 1. 0. 2. 0. 0. 0. 0. 0. 0. 1. 2.
      3. 11. 0. 9. 0. 0. 0. 5. 2. 7. 0. 9. 12. 6. 9. 64. 36. 134. 6.
      649. 2. 2. 10. 311. 3. 8. 1. 4. 4. 4. 9. 122. 1. 1. 0. 7. 0. 0. 0.
      8. 2. 5. 1. 4. 5. 5. 0. 98. 162. 637. 11. 320. 6. 3. 3. 102. 10.
      4. 0. 2. 8. 5. 11. 34. 593. 243. 3. 95. 9. 5. 5. 71. 311. 94. 2.
      42. 119. 87. 47. 358.</_>
    <_>
      27. 3. 28. 34. 2. 0. 30. 95. 36. 1. 1. 3. 18. 1. 189. 702. 2. 0.
      0. 1. 0. 0. 0. 0. 17. 0. 1. 2. 89. 2. 1004. 394. 40. 0. 16. 5. 1.
      0. 1. 1. 1. 0. 0. 0. 3. 0. 5. 2. 20. 3. 5. 4. 0. 0. 1. 1. 106. 1.
      11. 6. 680. 2. 483. 108. 0. 0. 0. 0. 0. 0. 2. 2. 1. 0. 0. 0. 2. 0.
      4. 2. 0. 0. 0. 0. 0. 0. 0. 0. 0. 0. 0. 0. 1. 0. 2. 0. 16. 1. 3. 1.
      2. 0. 1. 0. 3. 0. 1. 0. 2. 0. 2. 2. 56. 0. 0. 0. 1. 0. 2. 2. 743.
      1. 1. 2. 206. 0. 70. 65. 36. 31. 3. 265. 3. 0. 5. 1163. 20. 6. 0.
      5. 5. 1. 7. 712. 0. 0. 0. 2. 0. 0. 0. 2. 4. 1. 0. 4. 1. 0. 4. 124.
      2. 1. 1. 12. 0. 0. 0. 0. 0. 0. 0. 0. 0. 0. 1. 6. 0. 2. 0. 5. 0. 0.
      0. 5. 6. 3. 0. 2. 0. 1. 3. 45. 24. 83. 0. 864. 1. 1. 3. 489. 5. 2.
      0. 4. 1. 1. 2. 166. 0. 1. 0. 0. 0. 0. 0. 4. 0. 1. 0. 0. 0. 4. 2.
      81. 173. 880. 5. 589. 2. 2. 4. 166. 8. 0. 0. 5. 1. 2. 6. 82. 766.
      307. 1. 110. 0. 2. 1. 91. 372. 95. 4. 63. 72. 60. 33. 397.</_>
    <_>
      122. 3. 71. 67. 11. 0. 79. 146. 82. 3. 7. 8. 69. 2. 273. 967. 5.
      1. 4. 3. 0. 0. 1. 0. 52. 6. 11. 15. 135. 2. 698. 449. 64. 7. 21.
      1. 4. 0. 8. 7. 9. 1. 0. 0. 7. 0. 9. 5. 44. 6. 4. 5. 0. 0. 3. 1.
      221. 9. 5. 11. 687. 8. 340. 140. 6. 0. 2. 0. 0. 0. 3. 5. 0. 0. 0.
      1. 6. 0. 13. 5. 0. 0. 1. 0. 0. 0. 0. 0. 3. 0. 0. 0. 3. 0. 4. 2.
      45. 2. 7. 8. 5. 0. 4. 4. 6. 0. 0. 0. 6. 0. 14. 6. 109. 1. 1. 5. 4.
      0. 3. 10. 737. 6. 4. 3. 293. 1. 108. 118. 82. 61. 6. 307. 5. 3. 8.
      804. 20. 11. 0. 15. 5. 1. 9. 491. 3. 2. 0. 12. 0. 0. 0. 9. 2. 6.
      0. 7. 1. 3. 5. 102. 6. 3. 0. 6. 0. 1. 1. 0. 1. 0. 0. 1. 0. 0. 0.
      4. 7. 16. 0. 8. 1. 0. 0. 5. 6. 10. 0. 2. 4. 2. 1. 38. 66. 126. 8.
      787. 4. 2. 9. 490. 11. 3. 0. 5. 3. 5. 10. 134. 1. 5. 0. 7. 0. 1.
      0. 8. 5. 5. 0. 4. 4. 4. 6. 123. 234. 663. 7. 372. 8. 9. 10. 116.
      8. 5. 1. 5. 13. 6. 5. 43. 498. 280. 2. 114. 4. 6. 3. 114. 299. 76.
      1. 29. 96. 74. 31. 370.</_>
    <_>
      498. 52. 114. 55. 92. 23. 66. 154. 123. 12. 35. 8. 87. 21. 111.
      225. 104. 9. 29. 5. 40. 7. 20. 18. 112. 11. 39. 7. 207. 23. 269.
      112. 115. 9. 22. 23. 27. 3. 21. 20. 36. 4. 6. 6. 22. 10. 25. 28.
      106. 10. 20. 9. 26. 4. 27. 15. 148. 17. 28. 16. 320. 25. 276. 138.
      70. 15. 15. 16. 8. 6. 10. 14. 16. 5. 2. 8. 11. 7. 13. 16. 27. 4.
      9. 4. 9. 2. 6. 7. 25. 5. 9. 6. 35. 9. 45. 30. 70. 11. 11. 8. 15.
      4. 11. 9. 26. 6. 2. 9. 17. 3. 14. 18. 162. 23. 18. 16. 23. 7. 20.
      25. 218. 22. 28. 25. 161. 23. 169. 195. 84. 53. 18. 89. 14. 11.
      20. 140. 31. 20. 3. 17. 9. 10. 23. 199. 21. 5. 7. 15. 8. 5. 6. 14.
      22. 11. 5. 11. 25. 16. 33. 113. 18. 17. 5. 9. 5. 7. 5. 23. 6. 9.
      7. 6. 11. 5. 4. 39. 24. 12. 6. 12. 6. 5. 6. 21. 26. 10. 5. 11. 34.
      38. 72. 151. 45. 51. 14. 111. 13. 10. 10. 90. 14. 8. 2. 18. 8. 13.
      7. 93. 31. 13. 6. 13. 9. 2. 6. 27. 25. 10. 7. 23. 19. 28. 37. 144.
      99. 82. 12. 76. 10. 18. 12. 67. 20. 15. 10. 10. 16. 20. 15. 109.
      256. 99. 28. 84. 26. 28. 26. 104. 195. 97. 48. 126. 144. 186. 200.
      3023.</_>
    <_>
      76. 7. 21. 39. 5. 0. 47. 189. 59. 5. 3. 6. 52. 1. 239. 864. 3. 3.
      4. 3. 0. 0. 1. 2. 44. 1. 5. 4. 131. 3. 607. 364. 32. 3. 10. 5. 0.
      0. 2. 7. 5. 0. 0. 0. 4. 0. 3. 4. 39. 2. 3. 1. 2. 0. 1. 6. 243. 4.
      8. 5. 699. 4. 294. 105. 6. 0. 1. 1. 0. 0. 1. 1. 3. 0. 1. 1. 1. 0.
      4. 5. 0. 0. 0. 0. 0. 0. 0. 0. 1. 0. 0. 0. 1. 0. 5. 3. 57. 1. 9. 4.
      2. 0. 5. 7. 4. 0. 0. 0. 6. 0. 6. 3. 135. 3. 4. 2. 1. 0. 3. 10.
      733. 4. 3. 3. 318. 5. 96. 86. 61. 52. 7. 284. 2. 1. 8. 976. 29. 8.
      1. 7. 3. 3. 9. 575. 4. 3. 0. 6. 0. 0. 0. 5. 6. 2. 0. 2. 3. 4. 2.
      113. 6. 5. 0. 8. 0. 0. 0. 3. 1. 0. 0. 1. 1. 0. 1. 3. 3. 3. 0. 4.
      0. 0. 1. 3. 11. 1. 0. 7. 1. 4. 3. 42. 51. 146. 10. 818. 0. 4. 4.
      440. 5. 5. 0. 6. 1. 4. 7. 137. 0. 2. 0. 9. 0. 0. 0. 5. 4. 3. 0. 2.
      2. 2. 4. 79. 253. 738. 12. 417. 6. 3. 3. 138. 3. 3. 0. 4. 5. 5. 4.
      56. 773. 315. 4. 129. 5. 1. 3. 103. 334. 129. 3. 40. 91. 84. 38.
      360.</_>
    <_>
      52. 8. 21. 27. 2. 1. 22. 57. 21. 2. 4. 1. 31. 2. 179. 296. 8. 0.
      5. 0. 1. 0. 2. 0. 36. 4. 16. 5. 138. 2. 1288. 343. 41. 4. 10. 4.
      0. 1. 4. 3. 5. 1. 1. 0. 3. 0. 6. 4. 93. 1. 13. 5. 0. 0. 3. 2. 295.
      5. 28. 9. 694. 3. 874. 172. 2. 0. 1. 3. 1. 0. 0. 2. 0. 0. 0. 0. 0.
      1. 2. 5. 0. 0. 0. 0. 0. 0. 0. 1. 1. 0. 0. 0. 3. 1. 10. 7. 39. 0.
      10. 2. 1. 0. 1. 1. 3. 0. 0. 0. 3. 0. 4. 1. 142. 4. 9. 4. 3. 0. 4.
      3. 391. 4. 13. 2. 437. 2. 225. 77. 23. 24. 4. 136. 1. 0. 4. 339.
      11. 2. 1. 10. 1. 1. 11. 266. 2. 2. 0. 2. 0. 0. 0. 4. 5. 3. 2. 6.
      7. 4. 5. 116. 6. 7. 2. 8. 0. 0. 1. 5. 0. 0. 0. 2. 0. 0. 1. 4. 5.
      8. 0. 2. 1. 0. 1. 4. 18. 9. 0. 5. 5. 7. 13. 86. 32. 117. 4. 544.
      1. 1. 0. 200. 3. 6. 0. 4. 3. 1. 6. 94. 0. 2. 0. 4. 0. 0. 0. 2. 3.
      3. 0. 2. 3. 6. 7. 79. 229. 722. 9. 413. 2. 6. 3. 113. 9. 5. 0. 7.
      7. 4. 4. 78. 880. 477. 4. 147. 11. 7. 3. 73. 582. 193. 12. 88.
      290. 117. 139. 688.</_>
    <_>
      38. 9. 48. 50. 3. 0. 20. 73. 12. 0. 6. 3. 16. 0. 229. 632. 11. 3.
      6. 4. 0. 0. 3. 0. 45. 3. 17. 11. 168. 3. 1656. 379. 31. 11. 6. 7.
      1. 0. 1. 1. 0. 0. 0. 1. 2. 0. 5. 2. 57. 11. 5. 3. 0. 0. 1. 4. 272.
      3. 13. 2. 1082. 2. 728. 92. 3. 0. 1. 0. 3. 0. 0. 1. 2. 0. 0. 0. 0.
      0. 4. 3. 0. 0. 0. 0. 0. 0. 1. 0. 0. 0. 0. 0. 4. 0. 14. 7. 19. 0.
      3. 0. 1. 0. 2. 1. 3. 0. 0. 0. 4. 0. 5. 4. 103. 0. 0. 5. 1. 0. 3.
      0. 435. 4. 2. 4. 321. 2. 209. 36. 17. 31. 0. 165. 1. 1. 0. 323. 7.
      3. 1. 1. 0. 0. 2. 201. 0. 2. 0. 5. 0. 0. 0. 2. 4. 2. 0. 4. 2. 0.
      4. 84. 7. 11. 0. 10. 0. 0. 0. 1. 1. 0. 0. 0. 0. 0. 0. 4. 5. 10. 0.
      6. 0. 0. 0. 0. 6. 2. 1. 5. 3. 2. 2. 34. 16. 82. 1. 604. 1. 0. 4.
      226. 2. 1. 0. 3. 3. 0. 6. 97. 0. 1. 0. 3. 0. 0. 0. 1. 1. 3. 0. 2.
      0. 2. 8. 76. 210. 1241. 8. 432. 4. 10. 8. 105. 4. 5. 0. 3. 4. 5.
      9. 54. 870. 421. 2. 80. 8. 4. 4. 41. 404. 99. 9. 37. 183. 86. 92.
      366.</_>
    <_>
      132. 58. 86. 107. 18. 1. 41. 108. 36. 4. 18. 38. 45. 4. 221. 549.
      37. 7. 17. 6. 4. 1. 3. 3. 50. 10. 36. 21. 145. 3. 1290. 334. 64.
      6. 19. 12. 7. 4. 10. 5. 8. 2. 4. 0. 6. 0. 11. 10. 75. 10. 9. 7. 3.
      0. 3. 7. 188. 3. 12. 5. 651. 13. 374. 94. 13. 7. 8. 3. 3. 0. 3. 4.
      5. 0. 0. 0. 3. 0. 9. 23. 2. 0. 1. 0. 0. 0. 0. 1. 4. 1. 2. 2. 2. 0.
      32. 15. 58. 2. 4. 4. 4. 0. 4. 3. 7. 0. 0. 1. 7. 0. 8. 10. 133. 2.
      2. 0. 5. 0. 4. 8. 415. 13. 9. 8. 279. 5. 122. 93. 76. 109. 8. 216.
      3. 7. 4. 564. 6. 10. 0. 10. 4. 3. 4. 232. 4. 10. 0. 8. 2. 2. 0. 6.
      4. 4. 1. 6. 3. 7. 6. 115. 9. 43. 0. 9. 0. 2. 0. 9. 2. 0. 0. 2. 0.
      0. 0. 12. 15. 17. 0. 7. 0. 0. 1. 4. 8. 7. 0. 6. 7. 7. 5. 52. 57.
      158. 7. 619. 6. 2. 12. 339. 7. 6. 0. 5. 5. 6. 14. 141. 5. 1. 0.
      11. 1. 1. 0. 4. 2. 5. 0. 2. 6. 4. 18. 111. 275. 756. 10. 333. 15.
      28. 10. 139. 10. 8. 0. 5. 8. 20. 14. 99. 627. 395. 7. 126. 16. 12.
      8. 102. 272. 122. 4. 62. 127. 107. 86. 500.</_>
    <_>
      74. 8. 56. 47. 24. 1. 60. 120. 43. 7. 7. 6. 44. 6. 194. 328. 7. 0.
      4. 4. 0. 0. 3. 1. 40. 2. 9. 1. 201. 6. 1042. 293. 53. 3. 14. 8. 4.
      0. 8. 9. 10. 0. 1. 0. 5. 0. 9. 9. 61. 2. 5. 5. 2. 0. 3. 2. 248. 1.
      10. 6. 1269. 10. 594. 147. 14. 3. 6. 4. 0. 0. 4. 5. 3. 0. 0. 0. 1.
      0. 7. 9. 1. 0. 0. 0. 0. 0. 0. 1. 3. 0. 0. 0. 2. 0. 8. 6. 53. 1. 8.
      4. 2. 1. 6. 3. 7. 0. 1. 0. 10. 0. 5. 5. 104. 3. 6. 4. 5. 0. 2. 5.
      529. 3. 4. 1. 309. 3. 137. 71. 43. 51. 8. 214. 2. 2. 3. 512. 9. 2.
      1. 14. 3. 4. 4. 315. 2. 1. 0. 4. 0. 0. 0. 9. 6. 3. 1. 9. 11. 8.
      18. 140. 5. 11. 0. 17. 0. 1. 0. 7. 0. 0. 0. 1. 0. 1. 0. 9. 5. 2.
      0. 4. 0. 1. 0. 1. 10. 7. 1. 7. 4. 4. 12. 73. 42. 158. 5. 926. 1.
      2. 8. 320. 4. 6. 0. 5. 3. 5. 8. 147. 1. 1. 0. 10. 0. 0. 0. 2. 5.
      3. 1. 7. 3. 7. 8. 121. 180. 575. 13. 436. 4. 10. 6. 129. 9. 7. 1.
      11. 3. 8. 6. 62. 852. 285. 3. 133. 9. 5. 4. 72. 292. 112. 3. 61.
      131. 99. 59. 448.</_>
    <_>
      93. 13. 63. 50. 12. 0. 67. 92. 41. 1. 5. 6. 64. 1. 226. 534. 10.
      1. 7. 6. 0. 0. 2. 0. 50. 1. 10. 4. 184. 3. 941. 308. 62. 7. 28.
      13. 5. 0. 13. 4. 4. 0. 3. 0. 11. 0. 20. 6. 46. 5. 8. 5. 3. 0. 3.
      2. 209. 11. 11. 8. 759. 16. 529. 164. 9. 1. 3. 1. 2. 0. 2. 0. 2.
      0. 0. 0. 1. 0. 7. 7. 1. 0. 0. 0. 0. 0. 0. 0. 0. 0. 0. 0. 2. 0. 13.
      7. 40. 2. 7. 4. 4. 0. 3. 1. 3. 0. 0. 0. 9. 0. 8. 10. 85. 7. 6. 4.
      1. 0. 1. 8. 815. 7. 3. 6. 307. 8. 160. 126. 39. 31. 4. 188. 3. 2.
      8. 473. 8. 1. 0. 11. 4. 2. 10. 240. 4. 3. 0. 8. 0. 0. 0. 13. 4. 3.
      0. 6. 5. 4. 12. 109. 8. 11. 2. 8. 0. 0. 1. 6. 0. 0. 0. 0. 0. 0. 1.
      2. 2. 5. 0. 7. 0. 0. 0. 5. 6. 2. 0. 5. 7. 9. 11. 102. 31. 169. 9.
      941. 2. 2. 3. 283. 3. 4. 0. 4. 3. 4. 8. 110. 1. 2. 0. 10. 0. 0. 0.
      8. 4. 5. 0. 7. 3. 8. 13. 132. 210. 1329. 11. 585. 9. 11. 8. 98. 4.
      5. 1. 5. 6. 8. 9. 54. 304. 304. 7. 102. 7. 6. 8. 61. 246. 113. 3.
      52. 116. 114. 58. 463.</_>
    <_>
      117. 26. 97. 48. 20. 0. 60. 126. 35. 5. 4. 16. 70. 3. 176. 386.
      16. 3. 13. 5. 4. 0. 2. 1. 39. 1. 24. 4. 156. 3. 658. 144. 96. 8.
      36. 4. 15. 0. 8. 4. 13. 0. 1. 1. 19. 0. 10. 6. 65. 1. 3. 3. 4. 0.
      4. 2. 233. 13. 5. 5. 993. 17. 367. 102. 23. 1. 14. 1. 2. 1. 3. 5.
      3. 0. 1. 1. 1. 0. 8. 13. 2. 0. 0. 0. 0. 0. 0. 1. 2. 1. 0. 0. 4. 0.
      10. 11. 77. 3. 11. 3. 5. 0. 5. 3. 11. 0. 1. 1. 8. 0. 4. 8. 144. 3.
      1. 2. 6. 0. 6. 6. 526. 19. 5. 4. 347. 17. 83. 72. 48. 73. 10. 246.
      4. 3. 6. 781. 11. 6. 1. 9. 4. 3. 6. 277. 3. 5. 0. 5. 0. 0. 0. 16.
      4. 4. 1. 4. 2. 3. 4. 107. 5. 16. 1. 11. 0. 0. 0. 2. 0. 0. 0. 0. 0.
      0. 0. 2. 12. 7. 0. 4. 0. 0. 1. 4. 7. 2. 2. 10. 6. 9. 6. 60. 81.
      206. 22. 786. 4. 3. 9. 343. 6. 4. 0. 7. 4. 3. 3. 117. 1. 6. 1. 25.
      0. 1. 0. 16. 3. 4. 0. 13. 5. 15. 13. 127. 279. 797. 13. 434. 3.
      15. 6. 128. 8. 9. 0. 11. 5. 9. 5. 59. 820. 360. 4. 147. 17. 6. 9.
      104. 282. 159. 1. 84. 110. 130. 63. 417.</_>
    <_>
      50. 8. 43. 35. 5. 1. 41. 84. 26. 2. 4. 5. 43. 1. 224. 519. 3. 1.
      2. 1. 1. 0. 1. 2. 37. 2. 2. 2. 142. 1. 951. 302. 43. 2. 13. 6. 3.
      0. 5. 4. 5. 0. 0. 1. 2. 0. 8. 4. 51. 2. 4. 7. 2. 0. 1. 3. 275. 7.
      14. 6. 966. 3. 671. 152. 1. 0. 2. 4. 0. 0. 0. 0. 0. 0. 0. 0. 3. 0.
      4. 5. 0. 0. 0. 0. 0. 0. 0. 0. 1. 0. 0. 0. 4. 0. 9. 2. 37. 1. 7. 3.
      0. 0. 4. 2. 4. 0. 0. 0. 3. 0. 10. 1. 122. 0. 3. 1. 1. 0. 4. 6.
      573. 2. 6. 2. 355. 2. 156. 64. 38. 40. 3. 216. 2. 1. 3. 473. 4.
      10. 1. 6. 1. 1. 5. 288. 3. 1. 1. 3. 0. 0. 1. 1. 4. 2. 0. 5. 2. 0.
      5. 148. 5. 3. 0. 13. 0. 0. 0. 3. 0. 0. 0. 0. 0. 0. 1. 5. 1. 4. 0.
      6. 0. 0. 1. 7. 8. 2. 0. 4. 4. 4. 3. 65. 52. 155. 4. 657. 3. 3. 2.
      264. 5. 2. 0. 6. 3. 4. 9. 124. 1. 3. 0. 3. 0. 0. 0. 0. 1. 2. 1. 3.
      6. 3. 3. 81. 279. 937. 5. 683. 8. 6. 5. 148. 7. 6. 0. 4. 3. 5. 7.
      60. 642. 381. 5. 155. 1. 1. 1. 83. 464. 116. 4. 76. 137. 113. 65.
      505.</_>
    <_>
      1086. 219. 188. 82. 240. 81. 81. 83. 162. 41. 46. 25. 70. 41. 69.
      78. 178. 47. 43. 20. 82. 18. 35. 25. 79. 26. 29. 18. 85. 17. 80.
      71. 152. 36. 42. 24. 38. 22. 25. 20. 39. 21. 16. 22. 38. 25. 29.
      33. 49. 15. 14. 12. 35. 15. 25. 13. 67. 24. 12. 26. 97. 33. 78.
      85. 192. 64. 52. 24. 41. 28. 14. 32. 40. 19. 19. 16. 21. 17. 19.
      32. 65. 20. 25. 20. 29. 26. 7. 26. 22. 10. 18. 17. 28. 21. 29. 50.
      52. 29. 14. 18. 22. 16. 13. 22. 22. 16. 23. 23. 25. 15. 15. 44.
      78. 27. 17. 18. 29. 22. 26. 39. 81. 29. 31. 40. 65. 43. 72. 186.
      153. 68. 72. 57. 50. 35. 33. 103. 41. 27. 24. 31. 21. 22. 23. 94.
      31. 16. 22. 16. 22. 16. 22. 28. 23. 8. 12. 32. 20. 22. 37. 77. 36.
      20. 23. 20. 15. 17. 20. 40. 12. 16. 23. 32. 21. 12. 33. 75. 25.
      19. 18. 22. 10. 14. 23. 46. 30. 18. 21. 44. 23. 61. 81. 249. 73.
      70. 39. 88. 20. 26. 22. 63. 17. 22. 12. 41. 11. 20. 14. 86. 32.
      24. 24. 44. 18. 12. 20. 52. 17. 15. 21. 60. 9. 51. 44. 181. 48.
      55. 24. 71. 12. 35. 16. 82. 24. 28. 34. 60. 18. 42. 48. 211. 81.
      46. 28. 66. 34. 43. 39. 176. 96. 66. 61. 206. 61. 158. 210. 1278.</_>
    <_>
      120. 13. 58. 62. 17. 1. 64. 168. 78. 6. 10. 14. 79. 2. 276. 827.
      8. 1. 2. 4. 0. 0. 1. 4. 79. 4. 9. 6. 187. 3. 562. 339. 66. 4. 14.
      5. 4. 0. 8. 7. 5. 0. 1. 0. 14. 0. 9. 2. 62. 3. 4. 8. 2. 0. 3. 4.
      253. 6. 10. 10. 800. 6. 474. 155. 15. 0. 3. 0. 0. 0. 7. 5. 4. 0.
      0. 0. 4. 0. 6. 9. 0. 0. 1. 0. 0. 0. 0. 0. 0. 0. 0. 0. 2. 0. 6. 10.
      57. 2. 7. 5. 2. 0. 7. 4. 8. 0. 0. 2. 8. 0. 7. 10. 142. 2. 9. 1. 3.
      0. 8. 7. 742. 8. 6. 3. 345. 4. 129. 111. 64. 66. 6. 246. 1. 3. 9.
      511. 25. 7. 0. 14. 8. 2. 9. 389. 4. 2. 0. 6. 0. 0. 0. 7. 6. 3. 1.
      8. 13. 8. 11. 174. 7. 4. 2. 8. 0. 0. 0. 8. 1. 1. 0. 0. 0. 0. 0. 6.
      8. 7. 0. 8. 0. 0. 0. 5. 6. 4. 0. 6. 12. 7. 4. 66. 66. 135. 7. 503.
      1. 5. 1. 318. 11. 8. 0. 2. 4. 5. 8. 138. 3. 6. 0. 6. 0. 0. 0. 9.
      4. 9. 0. 3. 4. 9. 3. 102. 244. 820. 8. 350. 5. 8. 11. 128. 8. 4.
      1. 3. 6. 2. 2. 44. 712. 329. 4. 124. 8. 6. 10. 101. 340. 107. 6.
      35. 122. 89. 41. 449.</_>
    <_>
      75. 10. 66. 52. 10. 0. 53. 177. 85. 1. 0. 5. 53. 1. 234. 782. 7.
      1. 6. 3. 0. 0. 2. 3. 45. 1. 9. 3. 130. 3. 629. 324. 65. 4. 13. 9.
      4. 0. 7. 2. 2. 0. 1. 0. 7. 0. 2. 5. 43. 4. 3. 1. 1. 1. 3. 6. 227.
      6. 8. 5. 786. 5. 371. 111. 8. 1. 1. 2. 0. 0. 4. 2. 6. 0. 0. 0. 4.
      0. 7. 4. 1. 0. 0. 0. 0. 0. 0. 0. 2. 0. 0. 0. 2. 0. 7. 3. 36. 1. 4.
      2. 2. 0. 0. 2. 3. 0. 0. 0. 8. 0. 9. 4. 130. 3. 4. 2. 1. 0. 4. 6.
      700. 3. 5. 1. 320. 4. 96. 105. 71. 61. 2. 294. 2. 4. 7. 875. 20.
      5. 1. 9. 3. 5. 6. 571. 1. 0. 0. 6. 0. 0. 0. 4. 5. 0. 0. 5. 4. 2.
      4. 135. 7. 9. 0. 6. 0. 0. 0. 4. 0. 0. 0. 1. 0. 0. 0. 3. 4. 8. 0.
      4. 0. 0. 0. 2. 8. 6. 1. 4. 4. 2. 5. 52. 54. 146. 10. 620. 5. 0. 6.
      385. 4. 1. 0. 2. 2. 3. 5. 137. 1. 1. 0. 9. 0. 0. 0. 4. 2. 4. 0. 1.
      1. 4. 5. 89. 247. 842. 2. 399. 10. 5. 8. 115. 9. 2. 0. 2. 6. 5. 8.
      41. 763. 354. 0. 109. 10. 1. 4. 109. 428. 104. 4. 36. 110. 101.
      28. 348.</_>
    <_>
      66. 10. 57. 58. 3. 1. 53. 126. 57. 3. 3. 6. 32. 3. 215. 607. 8. 2.
      1. 2. 0. 0. 2. 2. 24. 4. 6. 10. 109. 1. 610. 329. 46. 0. 17. 7. 0.
      0. 6. 5. 6. 0. 0. 0. 7. 0. 7. 6. 37. 2. 7. 3. 0. 0. 1. 1. 228. 1.
      8. 4. 799. 4. 420. 130. 1. 0. 1. 0. 0. 0. 2. 1. 2. 0. 0. 0. 3. 0.
      10. 13. 0. 0. 0. 0. 0. 0. 0. 0. 0. 0. 0. 0. 3. 0. 4. 6. 40. 1. 8.
      2. 1. 0. 4. 7. 6. 0. 0. 1. 7. 0. 13. 2. 112. 1. 1. 4. 1. 0. 2. 2.
      728. 2. 1. 3. 353. 4. 104. 72. 55. 74. 7. 232. 3. 1. 4. 807. 17.
      7. 0. 9. 5. 1. 6. 550. 6. 3. 0. 5. 0. 0. 0. 7. 4. 3. 0. 8. 1. 1.
      2. 155. 4. 5. 0. 8. 0. 1. 0. 5. 2. 0. 0. 0. 0. 0. 0. 5. 9. 8. 0.
      6. 0. 0. 0. 2. 3. 8. 1. 9. 6. 4. 5. 67. 48. 118. 4. 702. 1. 2. 6.
      408. 4. 1. 0. 8. 4. 2. 5. 179. 2. 2. 0. 2. 0. 0. 0. 2. 5. 1. 0. 1.
      3. 2. 0. 83. 246. 734. 11. 421. 9. 10. 8. 144. 3. 7. 0. 0. 3. 3.
      4. 53. 734. 392. 5. 148. 7. 3. 0. 108. 454. 154. 3. 64. 114. 93.
      66. 507.</_>
    <_>
      66. 5. 27. 49. 2. 1. 33. 100. 30. 4. 3. 4. 23. 2. 229. 818. 10. 2.
      3. 3. 0. 0. 1. 1. 51. 5. 7. 4. 150. 1. 919. 318. 38. 6. 8. 4. 1.
      0. 7. 0. 3. 0. 3. 2. 3. 0. 9. 4. 42. 4. 10. 4. 0. 0. 1. 2. 235. 1.
      5. 8. 934. 4. 713. 112. 4. 1. 0. 1. 0. 0. 1. 1. 1. 0. 0. 0. 2. 0.
      4. 11. 1. 0. 0. 0. 0. 0. 0. 0. 1. 0. 0. 0. 3. 0. 6. 7. 42. 1. 4.
      2. 3. 0. 1. 1. 3. 0. 0. 0. 3. 0. 3. 3. 129. 0. 5. 1. 0. 0. 3. 1.
      829. 2. 6. 4. 292. 3. 136. 66. 28. 41. 5. 195. 0. 1. 5. 532. 8. 4.
      1. 7. 1. 1. 3. 393. 1. 2. 0. 4. 0. 0. 0. 8. 6. 1. 1. 2. 4. 0. 8.
      133. 4. 6. 0. 8. 0. 0. 0. 9. 1. 1. 0. 0. 1. 0. 0. 3. 7. 5. 0. 6.
      0. 1. 0. 5. 4. 7. 1. 12. 7. 1. 8. 67. 30. 108. 5. 706. 2. 4. 4.
      344. 3. 0. 0. 3. 8. 4. 6. 123. 1. 2. 0. 1. 0. 0. 0. 1. 2. 3. 0. 3.
      6. 4. 2. 77. 188. 775. 15. 400. 3. 10. 6. 137. 9. 11. 0. 3. 5. 4.
      6. 79. 760. 277. 3. 113. 3. 3. 0. 84. 387. 109. 4. 56. 130. 78.
      72. 562.</_>
    <_>
      103. 9. 76. 60. 11. 0. 68. 155. 62. 2. 4. 3. 61. 1. 266. 547. 5.
      0. 2. 0. 0. 0. 4. 3. 52. 1. 5. 7. 154. 4. 590. 312. 75. 4. 25. 8.
      4. 0. 12. 6. 11. 1. 0. 1. 4. 0. 9. 7. 63. 1. 14. 8. 2. 0. 2. 6.
      234. 4. 15. 10. 718. 6. 464. 187. 9. 0. 2. 2. 1. 0. 2. 1. 2. 0. 0.
      0. 4. 0. 9. 6. 1. 0. 0. 0. 0. 0. 0. 0. 1. 0. 0. 0. 2. 0. 8. 5. 55.
      1. 9. 6. 3. 0. 4. 4. 5. 0. 0. 0. 9. 0. 9. 2. 158. 2. 9. 4. 3. 0.
      2. 5. 633. 3. 5. 7. 315. 3. 134. 96. 71. 52. 9. 255. 4. 2. 8. 707.
      23. 9. 1. 14. 6. 4. 11. 469. 2. 3. 0. 3. 0. 0. 0. 8. 10. 3. 0. 7.
      4. 4. 7. 156. 8. 9. 0. 14. 0. 0. 0. 4. 0. 0. 0. 0. 0. 0. 1. 4. 8.
      7. 0. 9. 0. 0. 1. 4. 11. 5. 2. 9. 1. 2. 4. 70. 78. 143. 7. 486. 4.
      4. 5. 350. 10. 4. 1. 6. 5. 6. 12. 134. 0. 6. 0. 2. 0. 0. 0. 4. 3.
      2. 0. 6. 4. 8. 7. 128. 285. 778. 15. 444. 10. 14. 5. 139. 6. 7. 0.
      10. 9. 8. 10. 48. 578. 352. 4. 162. 4. 0. 2. 123. 411. 152. 9. 53.
      142. 96. 44. 545.</_>
    <_>
      84. 3. 60. 57. 7. 1. 44. 120. 36. 3. 3. 3. 36. 0. 228. 479. 10. 1.
      4. 2. 0. 0. 0. 1. 40. 1. 9. 4. 155. 4. 659. 251. 71. 2. 19. 5. 2.
      0. 7. 6. 4. 1. 1. 0. 5. 0. 14. 5. 62. 1. 9. 2. 1. 0. 1. 7. 266. 2.
      10. 5. 824. 12. 498. 132. 8. 0. 1. 1. 1. 1. 4. 1. 2. 0. 0. 0. 1.
      0. 7. 5. 1. 0. 0. 0. 0. 0. 0. 0. 1. 0. 1. 0. 4. 0. 8. 6. 88. 1. 7.
      5. 3. 0. 4. 1. 8. 0. 0. 0. 4. 0. 4. 3. 187. 3. 3. 7. 2. 0. 7. 8.
      675. 2. 3. 3. 317. 6. 116. 79. 42. 40. 7. 253. 4. 1. 4. 616. 13.
      2. 0. 8. 3. 2. 7. 244. 3. 2. 1. 4. 0. 0. 0. 7. 2. 4. 0. 8. 4. 6.
      1. 124. 5. 11. 1. 12. 0. 0. 0. 7. 1. 0. 0. 0. 0. 1. 1. 1. 6. 4. 0.
      2. 0. 0. 0. 3. 2. 10. 2. 4. 3. 4. 5. 69. 61. 165. 3. 821. 4. 5. 4.
      293. 5. 3. 0. 4. 0. 5. 2. 101. 2. 2. 0. 5. 0. 1. 1. 3. 5. 2. 0. 7.
      3. 10. 12. 124. 313. 890. 12. 534. 8. 7. 8. 118. 7. 2. 0. 3. 7. 9.
      8. 52. 790. 358. 7. 149. 5. 6. 2. 96. 407. 145. 7. 65. 131. 126.
      47. 508.</_>
    <_>
      880. 122. 154. 67. 164. 54. 90. 132. 168. 32. 41. 25. 72. 46. 86.
      140. 157. 28. 39. 16. 50. 14. 25. 29. 82. 17. 30. 29. 92. 23. 91.
      90. 138. 38. 44. 21. 38. 17. 14. 24. 40. 6. 22. 11. 19. 9. 31. 35.
      70. 19. 18. 13. 22. 15. 21. 22. 80. 14. 18. 17. 147. 35. 118. 99.
      163. 47. 22. 34. 25. 15. 9. 26. 31. 14. 13. 12. 18. 11. 9. 29. 56.
      12. 14. 15. 9. 7. 12. 14. 19. 13. 13. 12. 27. 14. 38. 43. 69. 29.
      19. 17. 15. 18. 14. 21. 33. 18. 9. 21. 22. 12. 20. 51. 127. 22.
      19. 26. 25. 10. 15. 52. 145. 21. 36. 45. 81. 37. 92. 194. 148. 66.
      36. 64. 36. 26. 34. 148. 37. 28. 24. 27. 19. 17. 27. 140. 37. 18.
      12. 15. 12. 15. 19. 48. 25. 15. 13. 21. 30. 27. 29. 109. 32. 34.
      13. 25. 11. 13. 12. 24. 12. 10. 11. 14. 9. 24. 20. 61. 29. 21. 12.
      17. 21. 15. 21. 42. 25. 18. 19. 28. 23. 38. 60. 169. 77. 118. 18.
      105. 17. 22. 24. 70. 19. 23. 15. 35. 14. 24. 13. 101. 30. 40. 13.
      30. 10. 10. 7. 40. 18. 27. 13. 41. 21. 31. 42. 197. 86. 197. 27.
      159. 18. 31. 19. 96. 28. 34. 16. 58. 21. 39. 34. 159. 129. 93. 32.
      102. 35. 46. 42. 169. 134. 103. 61. 177. 107. 153. 177. 1421.</_>
    <_>
      823. 146. 131. 82. 173. 38. 82. 151. 154. 38. 46. 33. 81. 32. 109.
      283. 145. 28. 24. 14. 45. 17. 37. 35. 73. 25. 30. 10. 98. 27. 119.
      156. 122. 37. 27. 15. 26. 16. 21. 18. 35. 7. 20. 15. 32. 18. 32.
      40. 89. 14. 15. 10. 27. 17. 10. 23. 104. 16. 23. 21. 116. 18. 118.
      126. 137. 49. 31. 25. 22. 19. 20. 19. 24. 11. 14. 16. 18. 15. 21.
      44. 59. 18. 12. 9. 15. 6. 11. 18. 36. 6. 10. 18. 16. 11. 37. 39.
      67. 21. 11. 17. 20. 12. 12. 21. 28. 13. 6. 8. 19. 14. 15. 43. 140.
      20. 18. 20. 21. 15. 20. 39. 159. 29. 20. 38. 108. 31. 78. 197.
      139. 64. 35. 80. 47. 23. 35. 141. 37. 24. 15. 17. 19. 14. 36. 227.
      35. 16. 16. 18. 19. 9. 13. 43. 17. 4. 12. 20. 24. 22. 31. 146. 44.
      15. 14. 23. 9. 10. 7. 38. 18. 9. 12. 21. 7. 12. 15. 65. 39. 11.
      15. 16. 19. 12. 17. 40. 32. 15. 10. 31. 34. 33. 50. 229. 69. 117.
      24. 100. 17. 28. 13. 104. 13. 17. 9. 28. 10. 22. 24. 97. 38. 20.
      11. 35. 5. 8. 7. 30. 16. 13. 10. 35. 24. 35. 32. 180. 118. 180.
      13. 136. 13. 19. 20. 64. 20. 34. 13. 58. 11. 29. 40. 177. 170. 85.
      30. 100. 37. 45. 43. 162. 172. 96. 72. 168. 104. 145. 173. 1267.</_>
    <_>
      949. 151. 188. 75. 143. 48. 101. 109. 140. 30. 37. 25. 103. 20.
      105. 155. 129. 35. 50. 16. 65. 6. 37. 17. 98. 26. 44. 14. 160. 22.
      216. 109. 171. 43. 83. 20. 48. 20. 25. 15. 37. 8. 10. 13. 46. 14.
      36. 33. 63. 19. 19. 14. 23. 7. 27. 20. 77. 12. 36. 14. 200. 41.
      209. 106. 118. 48. 45. 30. 31. 12. 14. 21. 23. 5. 13. 7. 19. 13.
      17. 19. 29. 10. 18. 7. 12. 9. 7. 8. 23. 7. 17. 9. 21. 18. 59. 51.
      89. 29. 25. 19. 18. 13. 16. 16. 20. 10. 6. 6. 11. 10. 11. 23. 118.
      19. 10. 12. 13. 5. 10. 27. 142. 22. 31. 32. 103. 46. 97. 141. 141.
      90. 37. 85. 13. 27. 20. 168. 23. 12. 7. 17. 20. 14. 15. 133. 19.
      14. 12. 14. 10. 8. 6. 27. 16. 16. 8. 12. 24. 32. 42. 107. 26. 37.
      16. 27. 14. 14. 6. 35. 10. 12. 5. 14. 8. 16. 17. 52. 29. 21. 11.
      18. 3. 19. 11. 21. 11. 17. 9. 28. 27. 57. 71. 162. 89. 147. 40.
      165. 11. 27. 24. 105. 12. 17. 14. 36. 9. 23. 21. 81. 21. 27. 15.
      52. 6. 13. 11. 41. 16. 20. 11. 40. 27. 73. 39. 217. 94. 244. 22.
      184. 20. 45. 12. 98. 20. 20. 7. 55. 11. 37. 25. 174. 209. 107. 29.
      94. 24. 34. 24. 126. 131. 87. 38. 166. 90. 200. 150. 1062.</_>
    <_>
      830. 120. 182. 88. 118. 37. 101. 114. 145. 28. 47. 29. 126. 21.
      172. 231. 119. 21. 46. 23. 30. 12. 36. 28. 94. 24. 27. 18. 156.
      21. 290. 194. 209. 31. 48. 27. 39. 14. 27. 17. 27. 6. 16. 11. 38.
      12. 32. 29. 86. 23. 15. 16. 16. 4. 21. 17. 116. 20. 28. 24. 234.
      31. 191. 126. 110. 41. 35. 22. 23. 9. 16. 22. 24. 7. 8. 8. 12. 8.
      15. 28. 36. 9. 10. 10. 9. 9. 10. 2. 24. 8. 18. 6. 24. 8. 32. 38.
      69. 26. 28. 13. 21. 10. 15. 23. 22. 1. 3. 6. 20. 7. 13. 30. 96.
      23. 13. 17. 26. 4. 11. 25. 141. 22. 23. 34. 140. 40. 117. 176.
      138. 98. 34. 107. 26. 24. 20. 159. 20. 16. 10. 28. 14. 17. 26.
      152. 27. 14. 8. 20. 8. 7. 12. 31. 15. 12. 7. 13. 18. 28. 31. 131.
      36. 40. 18. 24. 10. 10. 10. 27. 8. 6. 4. 12. 7. 14. 14. 38. 26.
      23. 6. 16. 5. 10. 9. 24. 24. 17. 8. 30. 28. 21. 58. 175. 76. 110.
      39. 189. 9. 22. 17. 133. 9. 14. 7. 35. 15. 21. 18. 140. 27. 27.
      11. 28. 7. 26. 5. 39. 17. 17. 10. 41. 31. 45. 38. 190. 93. 152.
      18. 149. 12. 31. 23. 110. 17. 24. 9. 46. 12. 46. 29. 159. 192.
      105. 23. 87. 31. 44. 21. 172. 126. 109. 48. 138. 104. 191. 158.
      1068.</_>
    <_>
      75. 11. 34. 31. 11. 2. 44. 152. 61. 3. 2. 4. 67. 2. 158. 402. 4.
      1. 0. 4. 1. 0. 1. 5. 39. 4. 0. 2. 92. 2. 232. 180. 40. 2. 6. 5. 4.
      0. 3. 2. 7. 0. 0. 0. 9. 0. 3. 6. 20. 6. 3. 3. 0. 0. 1. 1. 237. 4.
      5. 7. 547. 9. 223. 120. 18. 0. 4. 0. 7. 0. 9. 4. 3. 0. 0. 0. 4. 0.
      4. 5. 1. 0. 0. 0. 0. 0. 0. 0. 3. 0. 0. 0. 0. 0. 2. 1. 71. 2. 2. 2.
      5. 0. 1. 3. 11. 0. 0. 0. 12. 0. 9. 6. 133. 2. 4. 1. 3. 0. 7. 7.
      668. 13. 2. 8. 264. 14. 119. 78. 73. 62. 5. 383. 6. 0. 14. 1136.
      11. 4. 0. 11. 4. 4. 10. 392. 2. 1. 0. 8. 0. 0. 0. 13. 5. 8. 0. 10.
      1. 2. 7. 125. 4. 5. 0. 11. 0. 0. 0. 5. 0. 0. 0. 2. 0. 0. 1. 9. 4.
      5. 0. 8. 0. 0. 0. 2. 8. 10. 1. 13. 2. 5. 4. 80. 86. 163. 20. 878.
      6. 0. 14. 606. 4. 4. 0. 5. 7. 3. 4. 153. 1. 3. 0. 17. 0. 1. 0. 8.
      2. 5. 0. 6. 2. 4. 1. 61. 266. 760. 6. 472. 6. 3. 7. 174. 11. 5. 1.
      10. 8. 3. 6. 76. 871. 450. 5. 195. 4. 1. 5. 102. 375. 156. 8. 105.
      91. 88. 58. 645.</_>
    <_>
      89. 11. 54. 52. 4. 1. 44. 113. 51. 2. 5. 4. 43. 2. 249. 398. 12.
      0. 2. 3. 0. 0. 0. 3. 38. 3. 9. 9. 161. 2. 713. 265. 75. 3. 17. 2.
      5. 1. 9. 0. 9. 0. 0. 0. 5. 0. 9. 3. 63. 3. 7. 3. 0. 0. 2. 3. 323.
      16. 9. 11. 886. 8. 459. 107. 9. 1. 4. 3. 0. 0. 3. 0. 4. 0. 1. 0.
      2. 0. 15. 5. 1. 0. 1. 0. 0. 0. 0. 0. 1. 0. 1. 0. 5. 0. 7. 7. 81.
      1. 5. 7. 7. 0. 6. 3. 7. 0. 0. 0. 2. 0. 8. 3. 177. 5. 1. 1. 2. 0.
      2. 7. 706. 7. 4. 9. 411. 7. 144. 100. 66. 54. 6. 245. 0. 2. 2.
      362. 9. 4. 0. 10. 2. 1. 5. 197. 0. 1. 1. 10. 0. 0. 0. 6. 3. 6. 0.
      7. 4. 1. 6. 106. 10. 7. 2. 6. 0. 0. 0. 1. 0. 1. 0. 0. 0. 0. 0. 5.
      7. 7. 0. 9. 0. 1. 1. 5. 9. 6. 1. 6. 4. 9. 5. 42. 42. 171. 12. 784.
      8. 0. 6. 285. 4. 4. 0. 3. 4. 1. 9. 107. 0. 2. 0. 14. 0. 1. 0. 7.
      0. 5. 1. 8. 4. 6. 6. 102. 303. 950. 10. 532. 9. 9. 12. 135. 8. 4.
      0. 8. 15. 4. 12. 52. 615. 432. 3. 137. 6. 5. 4. 90. 503. 160. 5.
      62. 170. 134. 61. 455.</_>
    <_>
      135. 17. 65. 68. 17. 1. 66. 145. 46. 2. 7. 13. 57. 2. 209. 462.
      25. 1. 3. 3. 1. 0. 2. 4. 53. 3. 7. 6. 154. 8. 554. 256. 75. 6. 14.
      9. 5. 0. 6. 3. 9. 1. 0. 0. 17. 0. 11. 5. 74. 4. 9. 8. 5. 0. 6. 7.
      255. 13. 7. 13. 787. 17. 386. 129. 14. 2. 7. 4. 1. 0. 7. 0. 4. 0.
      0. 0. 5. 0. 8. 8. 5. 0. 0. 0. 0. 0. 0. 0. 2. 0. 0. 0. 4. 0. 17. 8.
      91. 3. 9. 5. 5. 0. 7. 3. 7. 0. 0. 0. 5. 0. 5. 9. 176. 1. 9. 7. 5.
      0. 6. 6. 628. 9. 11. 10. 322. 7. 151. 98. 41. 48. 7. 245. 8. 8.
      10. 476. 8. 6. 1. 2. 7. 5. 11. 264. 10. 3. 0. 13. 0. 0. 1. 16. 1.
      7. 0. 13. 4. 4. 3. 120. 3. 11. 0. 14. 2. 0. 0. 7. 1. 0. 0. 0. 0.
      0. 1. 5. 15. 9. 0. 11. 1. 0. 0. 9. 12. 5. 0. 12. 6. 9. 8. 70. 69.
      185. 13. 746. 3. 6. 4. 283. 3. 3. 0. 7. 4. 6. 10. 111. 2. 7. 1.
      18. 0. 1. 0. 7. 2. 7. 0. 8. 5. 7. 6. 105. 295. 890. 12. 486. 5.
      11. 13. 122. 7. 5. 1. 5. 9. 13. 11. 46. 577. 416. 10. 162. 10. 8.
      4. 88. 478. 180. 16. 75. 167. 135. 84. 437.</_>
    <_>
      48. 2. 33. 32. 7. 0. 38. 99. 45. 3. 4. 1. 30. 0. 241. 819. 5. 1.
      0. 1. 0. 0. 0. 0. 43. 2. 9. 5. 120. 0. 752. 434. 42. 2. 13. 4. 3.
      0. 6. 3. 4. 0. 0. 0. 3. 0. 8. 3. 38. 3. 6. 3. 1. 0. 1. 0. 237. 3.
      7. 6. 717. 0. 458. 117. 5. 0. 1. 0. 1. 0. 0. 1. 2. 0. 0. 0. 0. 0.
      5. 4. 0. 0. 0. 0. 0. 0. 0. 0. 1. 0. 0. 0. 5. 0. 4. 1. 46. 0. 6. 1.
      1. 0. 3. 0. 2. 0. 0. 0. 2. 0. 2. 3. 90. 1. 1. 2. 0. 0. 4. 4. 862.
      4. 1. 3. 394. 2. 137. 69. 49. 24. 1. 239. 2. 0. 1. 597. 21. 7. 0.
      11. 5. 1. 5. 401. 2. 3. 0. 6. 0. 0. 0. 2. 4. 1. 0. 8. 1. 3. 5.
      105. 4. 5. 1. 5. 0. 0. 0. 4. 1. 0. 1. 0. 0. 0. 2. 2. 7. 8. 0. 8.
      0. 0. 0. 2. 13. 3. 0. 9. 4. 5. 3. 52. 40. 96. 5. 608. 2. 1. 4.
      320. 7. 4. 1. 6. 4. 2. 12. 122. 1. 0. 1. 3. 0. 0. 0. 2. 0. 0. 0.
      2. 3. 5. 1. 81. 226. 681. 9. 405. 7. 4. 3. 136. 16. 4. 0. 5. 12.
      6. 5. 52. 1060. 392. 3. 138. 2. 1. 1. 112. 648. 121. 6. 52. 123.
      82. 65. 439.</_>
    <_>
      78. 3. 75. 42. 7. 0. 32. 81. 31. 2. 5. 2. 32. 1. 224. 458. 6. 1.
      1. 1. 0. 0. 2. 1. 70. 1. 9. 7. 139. 2. 649. 273. 89. 1. 52. 5. 8.
