<?xml version="1.0"?>
<opencv_storage>
<opencv_ml_svm>
  <format>3</format>
  <svmType>C_SVC</svmType>
  <kernel>
    <type>INTER</type>
    <gamma>1.</gamma></kernel>
  <C>1.</C>
  <term_criteria><iterations>100</iterations></term_criteria>
  <var_count>256</var_count>
  <class_count>2</class_count>
  <class_labels type_id="opencv-matrix">
    <rows>2</rows>
    <cols>1</cols>
    <dt>i</dt>
    <data>
      -1082130432 1065353216</data></class_labels>
  <sv_total>194</sv_total>
  <support_vectors>
    <_>
      200. 5. 0. 0. 167. 0. 0. 0. 92. 0. 0. 0. 75. 0. 0. 0. 216. 0. 0.
      0. 15. 0. 0. 0. 106. 0. 0. 0. 114. 0. 0. 0. 152. 0. 0. 0. 24. 0.
      0. 0. 19. 0. 0. 0. 33. 0. 0. 0. 165. 0. 0. 0. 16. 0. 0. 0. 236. 0.
      0. 0. 201. 0. 0. 0. 236. 0. 0. 0. 16. 0. 0. 0. 16. 0. 0. 0. 8. 0.
      0. 0. 17. 0. 0. 0. 2. 0. 0. 0. 14. 0. 0. 0. 7. 0. 0. 0. 215. 0. 0.
      0. 23. 0. 0. 0. 26. 0. 0. 0. 22. 0. 0. 0. 237. 0. 0. 0. 14. 0. 0.
      0. 87. 1. 0. 0. 152. 0. 0. 0. 134. 0. 0. 0. 15. 0. 0. 0. 4. 0. 0.
      0. 4. 0. 0. 0. 9. 0. 0. 0. 2. 0. 0. 0. 10. 0. 0. 0. 8. 0. 0. 0.
      36. 0. 0. 0. 2. 0. 0. 0. 4. 0. 0. 0. 5. 0. 0. 0. 27. 0. 0. 0. 5.
      0. 0. 0. 27. 0. 0. 0. 25. 0. 0. 0. 158. 0. 0. 0. 10. 0. 0. 0. 9.
      0. 0. 0. 7. 0. 0. 0. 9. 0. 0. 0. 0. 0. 0. 0. 5. 0. 0. 0. 8. 0. 0.
      0. 117. 1. 0. 0. 25. 0. 0. 0. 28. 0. 0. 0. 33. 0. 0. 0. 128. 1. 0.
      0. 15. 0. 0. 0. 51. 1. 0. 0. 149. 0. 0. 0.</_>
    <_>
      80. 3. 0. 0. 105. 0. 0. 0. 80. 0. 0. 0. 152. 0. 0. 0. 136. 0. 0.
      0. 2. 0. 0. 0. 121. 0. 0. 0. 8. 1. 0. 0. 67. 0. 0. 0. 2. 0. 0. 0.
      7. 0. 0. 0. 7. 0. 0. 0. 112. 0. 0. 0. 4. 0. 0. 0. 220. 1. 0. 0. 8.
      3. 0. 0. 96. 0. 0. 0. 10. 0. 0. 0. 4. 0. 0. 0. 9. 0. 0. 0. 2. 0.
      0. 0. 0. 0. 0. 0. 2. 0. 0. 0. 2. 0. 0. 0. 111. 0. 0. 0. 4. 0. 0.
      0. 3. 0. 0. 0. 8. 0. 0. 0. 9. 1. 0. 0. 0. 0. 0. 0. 13. 3. 0. 0.
      137. 0. 0. 0. 53. 0. 0. 0. 3. 0. 0. 0. 5. 0. 0. 0. 3. 0. 0. 0. 8.
      0. 0. 0. 0. 0. 0. 0. 3. 0. 0. 0. 6. 0. 0. 0. 3. 0. 0. 0. 0. 0. 0.
      0. 1. 0. 0. 0. 0. 0. 0. 0. 9. 0. 0. 0. 1. 0. 0. 0. 14. 0. 0. 0. 5.
      0. 0. 0. 101. 0. 0. 0. 5. 0. 0. 0. 3. 0. 0. 0. 1. 0. 0. 0. 2. 0.
      0. 0. 0. 0. 0. 0. 4. 0. 0. 0. 0. 0. 0. 0. 80. 1. 0. 0. 3. 0. 0. 0.
      21. 0. 0. 0. 9. 0. 0. 0. 72. 2. 0. 0. 1. 0. 0. 0. 68. 1. 0. 0. 82.
      0. 0. 0.</_>
    <_>
      129. 3. 0. 0. 65. 0. 0. 0. 81. 0. 0. 0. 130. 0. 0. 0. 65. 0. 0. 0.
      0. 0. 0. 0. 111. 0. 0. 0. 30. 1. 0. 0. 74. 0. 0. 0. 4. 0. 0. 0. 7.
      0. 0. 0. 2. 0. 0. 0. 97. 0. 0. 0. 0. 0. 0. 0. 61. 2. 0. 0. 236. 2.
      0. 0. 48. 0. 0. 0. 3. 0. 0. 0. 1. 0. 0. 0. 1. 0. 0. 0. 1. 0. 0. 0.
      0. 0. 0. 0. 1. 0. 0. 0. 1. 0. 0. 0. 109. 0. 0. 0. 4. 0. 0. 0. 7.
      0. 0. 0. 4. 0. 0. 0. 167. 0. 0. 0. 1. 0. 0. 0. 12. 2. 0. 0. 106.
      0. 0. 0. 60. 0. 0. 0. 1. 0. 0. 0. 7. 0. 0. 0. 1. 0. 0. 0. 2. 0. 0.
      0. 0. 0. 0. 0. 2. 0. 0. 0. 3. 0. 0. 0. 5. 0. 0. 0. 0. 0. 0. 0. 0.
      0. 0. 0. 1. 0. 0. 0. 10. 0. 0. 0. 0. 0. 0. 0. 13. 0. 0. 0. 7. 0.
      0. 0. 106. 0. 0. 0. 0. 0. 0. 0. 0. 0. 0. 0. 2. 0. 0. 0. 3. 0. 0.
      0. 0. 0. 0. 0. 2. 0. 0. 0. 0. 0. 0. 0. 92. 1. 0. 0. 3. 0. 0. 0.
      18. 0. 0. 0. 3. 0. 0. 0. 46. 1. 0. 0. 1. 0. 0. 0. 235. 0. 0. 0.
      30. 0. 0. 0.</_>
    <_>
      225. 3. 0. 0. 47. 0. 0. 0. 136. 0. 0. 0. 177. 0. 0. 0. 32. 0. 0.
      0. 0. 0. 0. 0. 133. 0. 0. 0. 20. 1. 0. 0. 100. 0. 0. 0. 2. 0. 0.
      0. 8. 0. 0. 0. 3. 0. 0. 0. 97. 0. 0. 0. 1. 0. 0. 0. 154. 2. 0. 0.
      152. 3. 0. 0. 39. 0. 0. 0. 1. 0. 0. 0. 0. 0. 0. 0. 0. 0. 0. 0. 0.
      0. 0. 0. 0. 0. 0. 0. 0. 0. 0. 0. 0. 0. 0. 0. 92. 0. 0. 0. 2. 0. 0.
      0. 8. 0. 0. 0. 4. 0. 0. 0. 160. 0. 0. 0. 0. 0. 0. 0. 149. 1. 0. 0.
      63. 0. 0. 0. 95. 0. 0. 0. 1. 0. 0. 0. 4. 0. 0. 0. 2. 0. 0. 0. 1.
      0. 0. 0. 0. 0. 0. 0. 2. 0. 0. 0. 1. 0. 0. 0. 4. 0. 0. 0. 0. 0. 0.
      0. 0. 0. 0. 0. 0. 0. 0. 0. 1. 0. 0. 0. 0. 0. 0. 0. 17. 0. 0. 0. 4.
      0. 0. 0. 102. 0. 0. 0. 1. 0. 0. 0. 2. 0. 0. 0. 1. 0. 0. 0. 0. 0.
      0. 0. 0. 0. 0. 0. 0. 0. 0. 0. 1. 0. 0. 0. 242. 1. 0. 0. 0. 0. 0.
      0. 21. 0. 0. 0. 5. 0. 0. 0. 175. 1. 0. 0. 0. 0. 0. 0. 231. 0. 0.
      0. 20. 0. 0. 0.</_>
    <_>
      101. 7. 0. 0. 249. 0. 0. 0. 101. 0. 0. 0. 133. 0. 0. 0. 205. 0. 0.
      0. 30. 0. 0. 0. 84. 0. 0. 0. 152. 0. 0. 0. 87. 0. 0. 0. 17. 0. 0.
      0. 11. 0. 0. 0. 16. 0. 0. 0. 85. 0. 0. 0. 8. 0. 0. 0. 122. 0. 0.
      0. 182. 0. 0. 0. 198. 0. 0. 0. 40. 0. 0. 0. 22. 0. 0. 0. 14. 0. 0.
      0. 24. 0. 0. 0. 7. 0. 0. 0. 14. 0. 0. 0. 12. 0. 0. 0. 86. 0. 0. 0.
      8. 0. 0. 0. 18. 0. 0. 0. 15. 0. 0. 0. 88. 0. 0. 0. 7. 0. 0. 0.
      118. 0. 0. 0. 111. 0. 0. 0. 110. 0. 0. 0. 28. 0. 0. 0. 4. 0. 0. 0.
      11. 0. 0. 0. 22. 0. 0. 0. 5. 0. 0. 0. 12. 0. 0. 0. 7. 0. 0. 0. 14.
      0. 0. 0. 0. 0. 0. 0. 2. 0. 0. 0. 6. 0. 0. 0. 9. 0. 0. 0. 3. 0. 0.
      0. 10. 0. 0. 0. 16. 0. 0. 0. 93. 0. 0. 0. 12. 0. 0. 0. 17. 0. 0.
      0. 5. 0. 0. 0. 13. 0. 0. 0. 1. 0. 0. 0. 6. 0. 0. 0. 7. 0. 0. 0.
      112. 0. 0. 0. 11. 0. 0. 0. 21. 0. 0. 0. 13. 0. 0. 0. 138. 0. 0. 0.
      17. 0. 0. 0. 106. 0. 0. 0. 66. 0. 0. 0.</_>
    <_>
      255. 2. 0. 0. 110. 0. 0. 0. 83. 0. 0. 0. 131. 0. 0. 0. 120. 0. 0.
      0. 3. 0. 0. 0. 153. 0. 0. 0. 226. 0. 0. 0. 54. 0. 0. 0. 5. 0. 0.
      0. 5. 0. 0. 0. 6. 0. 0. 0. 120. 0. 0. 0. 4. 0. 0. 0. 0. 1. 0. 0.
      91. 1. 0. 0. 121. 0. 0. 0. 15. 0. 0. 0. 5. 0. 0. 0. 9. 0. 0. 0. 6.
      0. 0. 0. 0. 0. 0. 0. 5. 0. 0. 0. 2. 0. 0. 0. 128. 0. 0. 0. 3. 0.
      0. 0. 5. 0. 0. 0. 13. 0. 0. 0. 238. 0. 0. 0. 4. 0. 0. 0. 66. 1. 0.
      0. 127. 0. 0. 0. 71. 0. 0. 0. 6. 0. 0. 0. 4. 0. 0. 0. 5. 0. 0. 0.
      9. 0. 0. 0. 1. 0. 0. 0. 4. 0. 0. 0. 1. 0. 0. 0. 16. 0. 0. 0. 0. 0.
      0. 0. 0. 0. 0. 0. 0. 0. 0. 0. 13. 0. 0. 0. 0. 0. 0. 0. 12. 0. 0.
      0. 15. 0. 0. 0. 162. 0. 0. 0. 9. 0. 0. 0. 11. 0. 0. 0. 6. 0. 0. 0.
      5. 0. 0. 0. 1. 0. 0. 0. 4. 0. 0. 0. 0. 0. 0. 0. 143. 1. 0. 0. 5.
      0. 0. 0. 12. 0. 0. 0. 11. 0. 0. 0. 159. 1. 0. 0. 2. 0. 0. 0. 242.
      0. 0. 0. 75. 0. 0. 0.</_>
    <_>
      173. 2. 0. 0. 100. 0. 0. 0. 69. 0. 0. 0. 184. 0. 0. 0. 103. 0. 0.
      0. 2. 0. 0. 0. 117. 0. 0. 0. 0. 1. 0. 0. 63. 0. 0. 0. 3. 0. 0. 0.
      5. 0. 0. 0. 3. 0. 0. 0. 112. 0. 0. 0. 3. 0. 0. 0. 14. 1. 0. 0.
      200. 1. 0. 0. 81. 0. 0. 0. 5. 0. 0. 0. 3. 0. 0. 0. 4. 0. 0. 0. 4.
      0. 0. 0. 0. 0. 0. 0. 1. 0. 0. 0. 0. 0. 0. 0. 139. 0. 0. 0. 3. 0.
      0. 0. 6. 0. 0. 0. 8. 0. 0. 0. 197. 0. 0. 0. 0. 0. 0. 0. 62. 1. 0.
      0. 128. 0. 0. 0. 55. 0. 0. 0. 3. 0. 0. 0. 3. 0. 0. 0. 6. 0. 0. 0.
      6. 0. 0. 0. 0. 0. 0. 0. 6. 0. 0. 0. 4. 0. 0. 0. 9. 0. 0. 0. 1. 0.
      0. 0. 0. 0. 0. 0. 0. 0. 0. 0. 11. 0. 0. 0. 0. 0. 0. 0. 14. 0. 0.
      0. 15. 0. 0. 0. 113. 0. 0. 0. 3. 0. 0. 0. 2. 0. 0. 0. 4. 0. 0. 0.
      2. 0. 0. 0. 0. 0. 0. 0. 0. 0. 0. 0. 2. 0. 0. 0. 189. 1. 0. 0. 6.
      0. 0. 0. 21. 0. 0. 0. 11. 0. 0. 0. 30. 4. 0. 0. 3. 0. 0. 0. 30. 1.
      0. 0. 64. 0. 0. 0.</_>
    <_>
      28. 2. 0. 0. 74. 0. 0. 0. 59. 0. 0. 0. 128. 0. 0. 0. 95. 0. 0. 0.
      3. 0. 0. 0. 127. 0. 0. 0. 235. 0. 0. 0. 42. 0. 0. 0. 1. 0. 0. 0.
      0. 0. 0. 0. 5. 0. 0. 0. 119. 0. 0. 0. 2. 0. 0. 0. 54. 1. 0. 0.
      157. 1. 0. 0. 70. 0. 0. 0. 11. 0. 0. 0. 3. 0. 0. 0. 1. 0. 0. 0. 3.
      0. 0. 0. 0. 0. 0. 0. 3. 0. 0. 0. 2. 0. 0. 0. 137. 0. 0. 0. 4. 0.
      0. 0. 9. 0. 0. 0. 13. 0. 0. 0. 23. 1. 0. 0. 1. 0. 0. 0. 56. 2. 0.
      0. 139. 0. 0. 0. 64. 0. 0. 0. 4. 0. 0. 0. 8. 0. 0. 0. 8. 0. 0. 0.
      5. 0. 0. 0. 0. 0. 0. 0. 3. 0. 0. 0. 7. 0. 0. 0. 5. 0. 0. 0. 0. 0.
      0. 0. 0. 0. 0. 0. 0. 0. 0. 0. 9. 0. 0. 0. 0. 0. 0. 0. 10. 0. 0. 0.
      7. 0. 0. 0. 153. 0. 0. 0. 3. 0. 0. 0. 4. 0. 0. 0. 3. 0. 0. 0. 2.
      0. 0. 0. 0. 0. 0. 0. 1. 0. 0. 0. 1. 0. 0. 0. 248. 1. 0. 0. 7. 0.
      0. 0. 17. 0. 0. 0. 8. 0. 0. 0. 205. 2. 0. 0. 0. 0. 0. 0. 79. 1. 0.
      0. 51. 0. 0. 0.</_>
    <_>
      55. 5. 0. 0. 200. 0. 0. 0. 105. 0. 0. 0. 159. 0. 0. 0. 199. 0. 0.
      0. 16. 0. 0. 0. 161. 0. 0. 0. 174. 0. 0. 0. 84. 0. 0. 0. 11. 0. 0.
      0. 17. 0. 0. 0. 17. 0. 0. 0. 136. 0. 0. 0. 5. 0. 0. 0. 40. 1. 0.
      0. 27. 1. 0. 0. 182. 0. 0. 0. 30. 0. 0. 0. 8. 0. 0. 0. 20. 0. 0.
      0. 8. 0. 0. 0. 1. 0. 0. 0. 9. 0. 0. 0. 5. 0. 0. 0. 133. 0. 0. 0.
      9. 0. 0. 0. 17. 0. 0. 0. 24. 0. 0. 0. 177. 0. 0. 0. 7. 0. 0. 0.
      82. 1. 0. 0. 154. 0. 0. 0. 83. 0. 0. 0. 8. 0. 0. 0. 9. 0. 0. 0. 5.
      0. 0. 0. 12. 0. 0. 0. 0. 0. 0. 0. 5. 0. 0. 0. 4. 0. 0. 0. 15. 0.
      0. 0. 2. 0. 0. 0. 0. 0. 0. 0. 2. 0. 0. 0. 18. 0. 0. 0. 4. 0. 0. 0.
      12. 0. 0. 0. 20. 0. 0. 0. 172. 0. 0. 0. 10. 0. 0. 0. 7. 0. 0. 0.
      6. 0. 0. 0. 13. 0. 0. 0. 0. 0. 0. 0. 3. 0. 0. 0. 3. 0. 0. 0. 20.
      1. 0. 0. 20. 0. 0. 0. 16. 0. 0. 0. 25. 0. 0. 0. 67. 1. 0. 0. 6. 0.
      0. 0. 217. 0. 0. 0. 103. 0. 0. 0.</_>
    <_>
      251. 4. 0. 0. 236. 0. 0. 0. 70. 0. 0. 0. 119. 0. 0. 0. 206. 0. 0.
      0. 9. 0. 0. 0. 131. 0. 0. 0. 151. 0. 0. 0. 91. 0. 0. 0. 15. 0. 0.
      0. 13. 0. 0. 0. 15. 0. 0. 0. 135. 0. 0. 0. 8. 0. 0. 0. 231. 0. 0.
      0. 236. 0. 0. 0. 203. 0. 0. 0. 26. 0. 0. 0. 11. 0. 0. 0. 14. 0. 0.
      0. 10. 0. 0. 0. 2. 0. 0. 0. 9. 0. 0. 0. 5. 0. 0. 0. 140. 0. 0. 0.
      15. 0. 0. 0. 13. 0. 0. 0. 19. 0. 0. 0. 141. 0. 0. 0. 6. 0. 0. 0.
      19. 1. 0. 0. 152. 0. 0. 0. 99. 0. 0. 0. 8. 0. 0. 0. 9. 0. 0. 0. 8.
      0. 0. 0. 16. 0. 0. 0. 2. 0. 0. 0. 8. 0. 0. 0. 5. 0. 0. 0. 21. 0.
      0. 0. 1. 0. 0. 0. 2. 0. 0. 0. 3. 0. 0. 0. 22. 0. 0. 0. 0. 0. 0. 0.
      22. 0. 0. 0. 11. 0. 0. 0. 181. 0. 0. 0. 16. 0. 0. 0. 9. 0. 0. 0.
      8. 0. 0. 0. 10. 0. 0. 0. 1. 0. 0. 0. 3. 0. 0. 0. 2. 0. 0. 0. 46.
      1. 0. 0. 17. 0. 0. 0. 17. 0. 0. 0. 24. 0. 0. 0. 93. 1. 0. 0. 5. 0.
      0. 0. 189. 0. 0. 0. 100. 0. 0. 0.</_>
    <_>
      25. 3. 0. 0. 102. 0. 0. 0. 62. 0. 0. 0. 130. 0. 0. 0. 90. 0. 0. 0.
      6. 0. 0. 0. 104. 0. 0. 0. 193. 0. 0. 0. 78. 0. 0. 0. 8. 0. 0. 0.
      5. 0. 0. 0. 6. 0. 0. 0. 147. 0. 0. 0. 10. 0. 0. 0. 6. 1. 0. 0. 35.
      1. 0. 0. 122. 0. 0. 0. 7. 0. 0. 0. 5. 0. 0. 0. 3. 0. 0. 0. 7. 0.
      0. 0. 0. 0. 0. 0. 2. 0. 0. 0. 3. 0. 0. 0. 185. 0. 0. 0. 6. 0. 0.
      0. 5. 0. 0. 0. 11. 0. 0. 0. 6. 1. 0. 0. 5. 0. 0. 0. 133. 1. 0. 0.
      135. 0. 0. 0. 80. 0. 0. 0. 13. 0. 0. 0. 8. 0. 0. 0. 4. 0. 0. 0. 3.
      0. 0. 0. 0. 0. 0. 0. 7. 0. 0. 0. 5. 0. 0. 0. 8. 0. 0. 0. 2. 0. 0.
      0. 1. 0. 0. 0. 0. 0. 0. 0. 16. 0. 0. 0. 0. 0. 0. 0. 14. 0. 0. 0.
      12. 0. 0. 0. 223. 0. 0. 0. 13. 0. 0. 0. 17. 0. 0. 0. 8. 0. 0. 0.
      8. 0. 0. 0. 0. 0. 0. 0. 5. 0. 0. 0. 0. 0. 0. 0. 37. 2. 0. 0. 7. 0.
      0. 0. 14. 0. 0. 0. 14. 0. 0. 0. 145. 3. 0. 0. 1. 0. 0. 0. 80. 1.
      0. 0. 73. 0. 0. 0.</_>
    <_>
      238. 5. 0. 0. 180. 0. 0. 0. 77. 0. 0. 0. 98. 0. 0. 0. 226. 0. 0.
      0. 15. 0. 0. 0. 93. 0. 0. 0. 119. 0. 0. 0. 97. 0. 0. 0. 14. 0. 0.
      0. 16. 0. 0. 0. 23. 0. 0. 0. 118. 0. 0. 0. 10. 0. 0. 0. 155. 0. 0.
      0. 187. 0. 0. 0. 248. 0. 0. 0. 26. 0. 0. 0. 20. 0. 0. 0. 18. 0. 0.
      0. 18. 0. 0. 0. 2. 0. 0. 0. 6. 0. 0. 0. 7. 0. 0. 0. 155. 0. 0. 0.
      24. 0. 0. 0. 20. 0. 0. 0. 19. 0. 0. 0. 131. 0. 0. 0. 8. 0. 0. 0.
      178. 0. 0. 0. 108. 0. 0. 0. 116. 0. 0. 0. 23. 0. 0. 0. 12. 0. 0.
      0. 12. 0. 0. 0. 22. 0. 0. 0. 4. 0. 0. 0. 16. 0. 0. 0. 4. 0. 0. 0.
      29. 0. 0. 0. 9. 0. 0. 0. 3. 0. 0. 0. 5. 0. 0. 0. 28. 0. 0. 0. 5.
      0. 0. 0. 16. 0. 0. 0. 17. 0. 0. 0. 164. 0. 0. 0. 19. 0. 0. 0. 9.
      0. 0. 0. 11. 0. 0. 0. 11. 0. 0. 0. 0. 0. 0. 0. 6. 0. 0. 0. 3. 0.
      0. 0. 21. 1. 0. 0. 23. 0. 0. 0. 12. 0. 0. 0. 22. 0. 0. 0. 22. 1.
      0. 0. 7. 0. 0. 0. 174. 0. 0. 0. 78. 0. 0. 0.</_>
    <_>
      95. 4. 0. 0. 184. 0. 0. 0. 70. 0. 0. 0. 123. 0. 0. 0. 190. 0. 0.
      0. 17. 0. 0. 0. 119. 0. 0. 0. 140. 0. 0. 0. 100. 0. 0. 0. 8. 0. 0.
      0. 7. 0. 0. 0. 9. 0. 0. 0. 147. 0. 0. 0. 7. 0. 0. 0. 181. 0. 0. 0.
      219. 0. 0. 0. 197. 0. 0. 0. 16. 0. 0. 0. 13. 0. 0. 0. 7. 0. 0. 0.
      10. 0. 0. 0. 1. 0. 0. 0. 7. 0. 0. 0. 10. 0. 0. 0. 137. 0. 0. 0. 9.
      0. 0. 0. 29. 0. 0. 0. 17. 0. 0. 0. 139. 0. 0. 0. 6. 0. 0. 0. 224.
      0. 0. 0. 109. 0. 0. 0. 85. 0. 0. 0. 14. 0. 0. 0. 9. 0. 0. 0. 6. 0.
      0. 0. 14. 0. 0. 0. 0. 0. 0. 0. 3. 0. 0. 0. 9. 0. 0. 0. 20. 0. 0.
      0. 2. 0. 0. 0. 2. 0. 0. 0. 2. 0. 0. 0. 16. 0. 0. 0. 1. 0. 0. 0.
      14. 0. 0. 0. 13. 0. 0. 0. 147. 0. 0. 0. 13. 0. 0. 0. 6. 0. 0. 0.
      5. 0. 0. 0. 9. 0. 0. 0. 1. 0. 0. 0. 3. 0. 0. 0. 3. 0. 0. 0. 89. 1.
      0. 0. 22. 0. 0. 0. 19. 0. 0. 0. 17. 0. 0. 0. 59. 1. 0. 0. 4. 0. 0.
      0. 187. 0. 0. 0. 96. 0. 0. 0.</_>
    <_>
      71. 4. 0. 0. 56. 0. 0. 0. 132. 0. 0. 0. 164. 0. 0. 0. 43. 0. 0. 0.
      1. 0. 0. 0. 117. 0. 0. 0. 195. 1. 0. 0. 67. 0. 0. 0. 2. 0. 0. 0.
      7. 0. 0. 0. 5. 0. 0. 0. 89. 0. 0. 0. 0. 0. 0. 0. 214. 1. 0. 0. 96.
      3. 0. 0. 53. 0. 0. 0. 1. 0. 0. 0. 1. 0. 0. 0. 0. 0. 0. 0. 0. 0. 0.
      0. 0. 0. 0. 0. 0. 0. 0. 0. 0. 0. 0. 0. 74. 0. 0. 0. 1. 0. 0. 0. 6.
      0. 0. 0. 3. 0. 0. 0. 213. 0. 0. 0. 0. 0. 0. 0. 162. 1. 0. 0. 78.
      0. 0. 0. 78. 0. 0. 0. 0. 0. 0. 0. 6. 0. 0. 0. 1. 0. 0. 0. 0. 0. 0.
      0. 0. 0. 0. 0. 2. 0. 0. 0. 3. 0. 0. 0. 2. 0. 0. 0. 1. 0. 0. 0. 0.
      0. 0. 0. 0. 0. 0. 0. 2. 0. 0. 0. 0. 0. 0. 0. 15. 0. 0. 0. 1. 0. 0.
      0. 68. 0. 0. 0. 0. 0. 0. 0. 1. 0. 0. 0. 2. 0. 0. 0. 0. 0. 0. 0. 0.
      0. 0. 0. 0. 0. 0. 0. 0. 0. 0. 0. 125. 1. 0. 0. 0. 0. 0. 0. 9. 0.
      0. 0. 3. 0. 0. 0. 155. 2. 0. 0. 0. 0. 0. 0. 251. 0. 0. 0. 23. 0.
      0. 0.</_>
    <_>
      104. 6. 0. 0. 176. 0. 0. 0. 104. 0. 0. 0. 78. 0. 0. 0. 206. 0. 0.
      0. 15. 0. 0. 0. 112. 0. 0. 0. 103. 0. 0. 0. 109. 0. 0. 0. 18. 0.
      0. 0. 18. 0. 0. 0. 20. 0. 0. 0. 118. 0. 0. 0. 9. 0. 0. 0. 172. 0.
      0. 0. 151. 0. 0. 0. 218. 0. 0. 0. 25. 0. 0. 0. 12. 0. 0. 0. 18. 0.
      0. 0. 21. 0. 0. 0. 4. 0. 0. 0. 6. 0. 0. 0. 10. 0. 0. 0. 140. 0. 0.
      0. 15. 0. 0. 0. 21. 0. 0. 0. 16. 0. 0. 0. 164. 0. 0. 0. 6. 0. 0.
      0. 201. 0. 0. 0. 119. 0. 0. 0. 123. 0. 0. 0. 15. 0. 0. 0. 7. 0. 0.
      0. 8. 0. 0. 0. 24. 0. 0. 0. 1. 0. 0. 0. 7. 0. 0. 0. 6. 0. 0. 0.
      28. 0. 0. 0. 6. 0. 0. 0. 2. 0. 0. 0. 2. 0. 0. 0. 17. 0. 0. 0. 2.
      0. 0. 0. 18. 0. 0. 0. 16. 0. 0. 0. 154. 0. 0. 0. 24. 0. 0. 0. 7.
      0. 0. 0. 13. 0. 0. 0. 18. 0. 0. 0. 1. 0. 0. 0. 10. 0. 0. 0. 8. 0.
      0. 0. 246. 0. 0. 0. 18. 0. 0. 0. 21. 0. 0. 0. 24. 0. 0. 0. 230. 0.
      0. 0. 13. 0. 0. 0. 206. 0. 0. 0. 112. 0. 0. 0.</_>
    <_>
      4. 5. 0. 0. 145. 0. 0. 0. 91. 0. 0. 0. 100. 0. 0. 0. 168. 0. 0. 0.
      15. 0. 0. 0. 107. 0. 0. 0. 141. 0. 0. 0. 102. 0. 0. 0. 6. 0. 0. 0.
      14. 0. 0. 0. 16. 0. 0. 0. 121. 0. 0. 0. 11. 0. 0. 0. 255. 0. 0. 0.
      195. 0. 0. 0. 168. 0. 0. 0. 31. 0. 0. 0. 12. 0. 0. 0. 14. 0. 0. 0.
      19. 0. 0. 0. 2. 0. 0. 0. 17. 0. 0. 0. 9. 0. 0. 0. 125. 0. 0. 0.
      11. 0. 0. 0. 19. 0. 0. 0. 23. 0. 0. 0. 172. 0. 0. 0. 7. 0. 0. 0.
      60. 1. 0. 0. 190. 0. 0. 0. 111. 0. 0. 0. 11. 0. 0. 0. 8. 0. 0. 0.
      6. 0. 0. 0. 10. 0. 0. 0. 1. 0. 0. 0. 4. 0. 0. 0. 6. 0. 0. 0. 22.
      0. 0. 0. 2. 0. 0. 0. 3. 0. 0. 0. 2. 0. 0. 0. 21. 0. 0. 0. 2. 0. 0.
      0. 20. 0. 0. 0. 25. 0. 0. 0. 142. 0. 0. 0. 13. 0. 0. 0. 10. 0. 0.
      0. 5. 0. 0. 0. 21. 0. 0. 0. 1. 0. 0. 0. 5. 0. 0. 0. 2. 0. 0. 0. 8.
      1. 0. 0. 23. 0. 0. 0. 27. 0. 0. 0. 10. 0. 0. 0. 107. 1. 0. 0. 13.
      0. 0. 0. 200. 0. 0. 0. 85. 0. 0. 0.</_>
    <_>
      46. 2. 0. 0. 86. 0. 0. 0. 92. 0. 0. 0. 165. 0. 0. 0. 61. 0. 0. 0.
      4. 0. 0. 0. 141. 0. 0. 0. 42. 1. 0. 0. 55. 0. 0. 0. 4. 0. 0. 0. 8.
      0. 0. 0. 10. 0. 0. 0. 121. 0. 0. 0. 3. 0. 0. 0. 50. 2. 0. 0. 76.
      3. 0. 0. 97. 0. 0. 0. 7. 0. 0. 0. 1. 0. 0. 0. 3. 0. 0. 0. 0. 0. 0.
      0. 0. 0. 0. 0. 2. 0. 0. 0. 1. 0. 0. 0. 116. 0. 0. 0. 2. 0. 0. 0.
      7. 0. 0. 0. 5. 0. 0. 0. 181. 0. 0. 0. 1. 0. 0. 0. 72. 2. 0. 0.
      154. 0. 0. 0. 61. 0. 0. 0. 6. 0. 0. 0. 5. 0. 0. 0. 2. 0. 0. 0. 2.
      0. 0. 0. 1. 0. 0. 0. 5. 0. 0. 0. 2. 0. 0. 0. 4. 0. 0. 0. 0. 0. 0.
      0. 1. 0. 0. 0. 0. 0. 0. 0. 5. 0. 0. 0. 0. 0. 0. 0. 21. 0. 0. 0. 6.
      0. 0. 0. 84. 0. 0. 0. 1. 0. 0. 0. 4. 0. 0. 0. 2. 0. 0. 0. 0. 0. 0.
      0. 0. 0. 0. 0. 1. 0. 0. 0. 1. 0. 0. 0. 59. 1. 0. 0. 2. 0. 0. 0.
      22. 0. 0. 0. 8. 0. 0. 0. 97. 1. 0. 0. 1. 0. 0. 0. 234. 0. 0. 0.
      41. 0. 0. 0.</_>
    <_>
      192. 2. 0. 0. 72. 0. 0. 0. 69. 0. 0. 0. 126. 0. 0. 0. 124. 0. 0.
      0. 3. 0. 0. 0. 163. 0. 0. 0. 206. 0. 0. 0. 61. 0. 0. 0. 2. 0. 0.
      0. 6. 0. 0. 0. 12. 0. 0. 0. 132. 0. 0. 0. 2. 0. 0. 0. 227. 1. 0.
      0. 226. 1. 0. 0. 122. 0. 0. 0. 8. 0. 0. 0. 2. 0. 0. 0. 5. 0. 0. 0.
      2. 0. 0. 0. 0. 0. 0. 0. 5. 0. 0. 0. 0. 0. 0. 0. 123. 0. 0. 0. 4.
      0. 0. 0. 6. 0. 0. 0. 14. 0. 0. 0. 218. 0. 0. 0. 1. 0. 0. 0. 34. 2.
      0. 0. 154. 0. 0. 0. 75. 0. 0. 0. 6. 0. 0. 0. 8. 0. 0. 0. 6. 0. 0.
      0. 7. 0. 0. 0. 0. 0. 0. 0. 3. 0. 0. 0. 3. 0. 0. 0. 7. 0. 0. 0. 1.
      0. 0. 0. 2. 0. 0. 0. 0. 0. 0. 0. 5. 0. 0. 0. 0. 0. 0. 0. 17. 0. 0.
      0. 14. 0. 0. 0. 117. 0. 0. 0. 6. 0. 0. 0. 6. 0. 0. 0. 2. 0. 0. 0.
      4. 0. 0. 0. 0. 0. 0. 0. 1. 0. 0. 0. 3. 0. 0. 0. 143. 1. 0. 0. 4.
      0. 0. 0. 18. 0. 0. 0. 8. 0. 0. 0. 179. 1. 0. 0. 3. 0. 0. 0. 20. 1.
      0. 0. 67. 0. 0. 0.</_>
    <_>
      181. 6. 0. 0. 235. 0. 0. 0. 131. 0. 0. 0. 119. 0. 0. 0. 228. 0. 0.
      0. 34. 0. 0. 0. 147. 0. 0. 0. 134. 0. 0. 0. 115. 0. 0. 0. 6. 0. 0.
      0. 24. 0. 0. 0. 26. 0. 0. 0. 143. 0. 0. 0. 19. 0. 0. 0. 214. 0. 0.
      0. 206. 0. 0. 0. 209. 0. 0. 0. 45. 0. 0. 0. 19. 0. 0. 0. 21. 0. 0.
      0. 39. 0. 0. 0. 6. 0. 0. 0. 25. 0. 0. 0. 12. 0. 0. 0. 108. 0. 0.
      0. 18. 0. 0. 0. 27. 0. 0. 0. 27. 0. 0. 0. 132. 0. 0. 0. 9. 0. 0.
      0. 235. 0. 0. 0. 185. 0. 0. 0. 112. 0. 0. 0. 16. 0. 0. 0. 10. 0.
      0. 0. 6. 0. 0. 0. 9. 0. 0. 0. 2. 0. 0. 0. 11. 0. 0. 0. 9. 0. 0. 0.
      11. 0. 0. 0. 0. 0. 0. 0. 6. 0. 0. 0. 6. 0. 0. 0. 21. 0. 0. 0. 4.
      0. 0. 0. 20. 0. 0. 0. 23. 0. 0. 0. 112. 0. 0. 0. 21. 0. 0. 0. 6.
      0. 0. 0. 8. 0. 0. 0. 14. 0. 0. 0. 2. 0. 0. 0. 5. 0. 0. 0. 6. 0. 0.
      0. 112. 0. 0. 0. 12. 0. 0. 0. 15. 0. 0. 0. 17. 0. 0. 0. 136. 0. 0.
      0. 11. 0. 0. 0. 117. 0. 0. 0. 116. 0. 0. 0.</_>
    <_>
      212. 6. 0. 0. 71. 0. 0. 0. 47. 0. 0. 0. 56. 0. 0. 0. 24. 1. 0. 0.
      10. 0. 0. 0. 65. 0. 0. 0. 59. 0. 0. 0. 132. 0. 0. 0. 6. 0. 0. 0.
      15. 0. 0. 0. 10. 0. 0. 0. 153. 0. 0. 0. 10. 0. 0. 0. 163. 0. 0. 0.
      103. 0. 0. 0. 170. 0. 0. 0. 15. 0. 0. 0. 8. 0. 0. 0. 8. 0. 0. 0.
      21. 0. 0. 0. 0. 0. 0. 0. 5. 0. 0. 0. 5. 0. 0. 0. 236. 0. 0. 0. 21.
      0. 0. 0. 10. 0. 0. 0. 15. 0. 0. 0. 251. 0. 0. 0. 4. 0. 0. 0. 244.
      0. 0. 0. 77. 0. 0. 0. 158. 0. 0. 0. 20. 0. 0. 0. 7. 0. 0. 0. 8. 0.
      0. 0. 18. 0. 0. 0. 1. 0. 0. 0. 7. 0. 0. 0. 3. 0. 0. 0. 29. 0. 0.
      0. 1. 0. 0. 0. 2. 0. 0. 0. 2. 0. 0. 0. 35. 0. 0. 0. 2. 0. 0. 0.
      20. 0. 0. 0. 10. 0. 0. 0. 187. 0. 0. 0. 17. 0. 0. 0. 6. 0. 0. 0.
      6. 0. 0. 0. 13. 0. 0. 0. 1. 0. 0. 0. 8. 0. 0. 0. 2. 0. 0. 0. 20.
      3. 0. 0. 24. 0. 0. 0. 38. 0. 0. 0. 30. 0. 0. 0. 202. 2. 0. 0. 18.
      0. 0. 0. 60. 1. 0. 0. 106. 0. 0. 0.</_>
    <_>
      106. 5. 0. 0. 173. 0. 0. 0. 96. 0. 0. 0. 159. 0. 0. 0. 132. 0. 0.
      0. 17. 0. 0. 0. 146. 0. 0. 0. 231. 0. 0. 0. 104. 0. 0. 0. 14. 0.
      0. 0. 13. 0. 0. 0. 13. 0. 0. 0. 139. 0. 0. 0. 12. 0. 0. 0. 100. 1.
      0. 0. 184. 1. 0. 0. 170. 0. 0. 0. 26. 0. 0. 0. 18. 0. 0. 0. 14. 0.
      0. 0. 15. 0. 0. 0. 1. 0. 0. 0. 9. 0. 0. 0. 5. 0. 0. 0. 129. 0. 0.
      0. 8. 0. 0. 0. 11. 0. 0. 0. 16. 0. 0. 0. 177. 0. 0. 0. 4. 0. 0. 0.
      118. 1. 0. 0. 177. 0. 0. 0. 90. 0. 0. 0. 3. 0. 0. 0. 15. 0. 0. 0.
      7. 0. 0. 0. 10. 0. 0. 0. 1. 0. 0. 0. 6. 0. 0. 0. 6. 0. 0. 0. 16.
      0. 0. 0. 3. 0. 0. 0. 2. 0. 0. 0. 0. 0. 0. 0. 11. 0. 0. 0. 1. 0. 0.
      0. 19. 0. 0. 0. 14. 0. 0. 0. 121. 0. 0. 0. 10. 0. 0. 0. 4. 0. 0.
      0. 4. 0. 0. 0. 6. 0. 0. 0. 1. 0. 0. 0. 7. 0. 0. 0. 2. 0. 0. 0.
      226. 0. 0. 0. 12. 0. 0. 0. 13. 0. 0. 0. 7. 0. 0. 0. 20. 1. 0. 0.
      4. 0. 0. 0. 248. 0. 0. 0. 90. 0. 0. 0.</_>
    <_>
      206. 5. 0. 0. 216. 0. 0. 0. 109. 0. 0. 0. 127. 0. 0. 0. 183. 0. 0.
      0. 22. 0. 0. 0. 129. 0. 0. 0. 155. 0. 0. 0. 108. 0. 0. 0. 18. 0.
      0. 0. 22. 0. 0. 0. 29. 0. 0. 0. 108. 0. 0. 0. 26. 0. 0. 0. 239. 0.
      0. 0. 205. 0. 0. 0. 15. 1. 0. 0. 61. 0. 0. 0. 13. 0. 0. 0. 15. 0.
      0. 0. 29. 0. 0. 0. 3. 0. 0. 0. 14. 0. 0. 0. 25. 0. 0. 0. 150. 0.
      0. 0. 24. 0. 0. 0. 20. 0. 0. 0. 29. 0. 0. 0. 153. 0. 0. 0. 14. 0.
      0. 0. 224. 0. 0. 0. 190. 0. 0. 0. 80. 0. 0. 0. 16. 0. 0. 0. 5. 0.
      0. 0. 10. 0. 0. 0. 11. 0. 0. 0. 0. 0. 0. 0. 8. 0. 0. 0. 9. 0. 0.
      0. 16. 0. 0. 0. 6. 0. 0. 0. 9. 0. 0. 0. 5. 0. 0. 0. 23. 0. 0. 0.
      2. 0. 0. 0. 21. 0. 0. 0. 25. 0. 0. 0. 120. 0. 0. 0. 20. 0. 0. 0.
      9. 0. 0. 0. 8. 0. 0. 0. 10. 0. 0. 0. 1. 0. 0. 0. 3. 0. 0. 0. 9. 0.
      0. 0. 220. 0. 0. 0. 15. 0. 0. 0. 14. 0. 0. 0. 15. 0. 0. 0. 238. 0.
      0. 0. 12. 0. 0. 0. 138. 0. 0. 0. 117. 0. 0. 0.</_>
    <_>
      47. 5. 0. 0. 164. 0. 0. 0. 101. 0. 0. 0. 98. 0. 0. 0. 143. 0. 0.
      0. 16. 0. 0. 0. 107. 0. 0. 0. 108. 0. 0. 0. 122. 0. 0. 0. 19. 0.
      0. 0. 19. 0. 0. 0. 9. 0. 0. 0. 124. 0. 0. 0. 15. 0. 0. 0. 237. 0.
      0. 0. 196. 0. 0. 0. 242. 0. 0. 0. 26. 0. 0. 0. 14. 0. 0. 0. 9. 0.
      0. 0. 21. 0. 0. 0. 1. 0. 0. 0. 25. 0. 0. 0. 3. 0. 0. 0. 157. 0. 0.
      0. 12. 0. 0. 0. 21. 0. 0. 0. 14. 0. 0. 0. 12. 1. 0. 0. 3. 0. 0. 0.
      26. 2. 0. 0. 143. 0. 0. 0. 90. 0. 0. 0. 11. 0. 0. 0. 7. 0. 0. 0.
      8. 0. 0. 0. 16. 0. 0. 0. 0. 0. 0. 0. 11. 0. 0. 0. 8. 0. 0. 0. 26.
      0. 0. 0. 1. 0. 0. 0. 5. 0. 0. 0. 3. 0. 0. 0. 18. 0. 0. 0. 2. 0. 0.
      0. 29. 0. 0. 0. 23. 0. 0. 0. 110. 0. 0. 0. 7. 0. 0. 0. 9. 0. 0. 0.
      4. 0. 0. 0. 3. 0. 0. 0. 3. 0. 0. 0. 7. 0. 0. 0. 1. 0. 0. 0. 19. 1.
      0. 0. 12. 0. 0. 0. 35. 0. 0. 0. 16. 0. 0. 0. 128. 1. 0. 0. 12. 0.
      0. 0. 76. 1. 0. 0. 88. 0. 0. 0.</_>
    <_>
      33. 5. 0. 0. 228. 0. 0. 0. 109. 0. 0. 0. 127. 0. 0. 0. 190. 0. 0.
      0. 22. 0. 0. 0. 141. 0. 0. 0. 149. 0. 0. 0. 108. 0. 0. 0. 17. 0.
      0. 0. 25. 0. 0. 0. 34. 0. 0. 0. 150. 0. 0. 0. 14. 0. 0. 0. 159. 1.
      0. 0. 115. 1. 0. 0. 212. 0. 0. 0. 43. 0. 0. 0. 15. 0. 0. 0. 22. 0.
      0. 0. 19. 0. 0. 0. 5. 0. 0. 0. 13. 0. 0. 0. 12. 0. 0. 0. 131. 0.
      0. 0. 15. 0. 0. 0. 20. 0. 0. 0. 21. 0. 0. 0. 151. 0. 0. 0. 13. 0.
      0. 0. 151. 1. 0. 0. 38. 1. 0. 0. 97. 0. 0. 0. 11. 0. 0. 0. 6. 0.
      0. 0. 4. 0. 0. 0. 13. 0. 0. 0. 2. 0. 0. 0. 4. 0. 0. 0. 8. 0. 0. 0.
      21. 0. 0. 0. 5. 0. 0. 0. 4. 0. 0. 0. 3. 0. 0. 0. 23. 0. 0. 0. 4.
      0. 0. 0. 23. 0. 0. 0. 23. 0. 0. 0. 97. 0. 0. 0. 17. 0. 0. 0. 7. 0.
      0. 0. 10. 0. 0. 0. 10. 0. 0. 0. 0. 0. 0. 0. 11. 0. 0. 0. 3. 0. 0.
      0. 223. 0. 0. 0. 14. 0. 0. 0. 22. 0. 0. 0. 18. 0. 0. 0. 207. 0. 0.
      0. 16. 0. 0. 0. 183. 0. 0. 0. 137. 0. 0. 0.</_>
    <_>
      97. 5. 0. 0. 136. 0. 0. 0. 101. 0. 0. 0. 124. 0. 0. 0. 174. 0. 0.
      0. 18. 0. 0. 0. 122. 0. 0. 0. 164. 0. 0. 0. 100. 0. 0. 0. 13. 0.
      0. 0. 20. 0. 0. 0. 26. 0. 0. 0. 124. 0. 0. 0. 11. 0. 0. 0. 3. 1.
      0. 0. 49. 1. 0. 0. 168. 0. 0. 0. 26. 0. 0. 0. 12. 0. 0. 0. 14. 0.
      0. 0. 15. 0. 0. 0. 3. 0. 0. 0. 5. 0. 0. 0. 5. 0. 0. 0. 114. 0. 0.
      0. 13. 0. 0. 0. 17. 0. 0. 0. 10. 0. 0. 0. 175. 0. 0. 0. 8. 0. 0.
      0. 19. 1. 0. 0. 170. 0. 0. 0. 87. 0. 0. 0. 12. 0. 0. 0. 10. 0. 0.
      0. 9. 0. 0. 0. 10. 0. 0. 0. 3. 0. 0. 0. 8. 0. 0. 0. 9. 0. 0. 0.
      23. 0. 0. 0. 3. 0. 0. 0. 2. 0. 0. 0. 1. 0. 0. 0. 19. 0. 0. 0. 2.
      0. 0. 0. 29. 0. 0. 0. 18. 0. 0. 0. 148. 0. 0. 0. 11. 0. 0. 0. 11.
      0. 0. 0. 8. 0. 0. 0. 14. 0. 0. 0. 0. 0. 0. 0. 3. 0. 0. 0. 2. 0. 0.
      0. 27. 1. 0. 0. 19. 0. 0. 0. 25. 0. 0. 0. 20. 0. 0. 0. 3. 1. 0. 0.
      6. 0. 0. 0. 242. 0. 0. 0. 104. 0. 0. 0.</_>
    <_>
      147. 5. 0. 0. 209. 0. 0. 0. 97. 0. 0. 0. 111. 0. 0. 0. 184. 0. 0.
      0. 13. 0. 0. 0. 116. 0. 0. 0. 139. 0. 0. 0. 110. 0. 0. 0. 16. 0.
      0. 0. 18. 0. 0. 0. 20. 0. 0. 0. 128. 0. 0. 0. 13. 0. 0. 0. 22. 1.
      0. 0. 14. 1. 0. 0. 227. 0. 0. 0. 35. 0. 0. 0. 19. 0. 0. 0. 12. 0.
      0. 0. 8. 0. 0. 0. 2. 0. 0. 0. 10. 0. 0. 0. 4. 0. 0. 0. 123. 0. 0.
      0. 16. 0. 0. 0. 14. 0. 0. 0. 17. 0. 0. 0. 151. 0. 0. 0. 6. 0. 0.
      0. 231. 0. 0. 0. 132. 0. 0. 0. 126. 0. 0. 0. 11. 0. 0. 0. 7. 0. 0.
      0. 6. 0. 0. 0. 13. 0. 0. 0. 1. 0. 0. 0. 13. 0. 0. 0. 4. 0. 0. 0.
      23. 0. 0. 0. 3. 0. 0. 0. 5. 0. 0. 0. 3. 0. 0. 0. 18. 0. 0. 0. 1.
      0. 0. 0. 30. 0. 0. 0. 12. 0. 0. 0. 141. 0. 0. 0. 16. 0. 0. 0. 7.
      0. 0. 0. 3. 0. 0. 0. 7. 0. 0. 0. 0. 0. 0. 0. 6. 0. 0. 0. 4. 0. 0.
      0. 79. 1. 0. 0. 18. 0. 0. 0. 17. 0. 0. 0. 23. 0. 0. 0. 2. 1. 0. 0.
      2. 0. 0. 0. 195. 0. 0. 0. 87. 0. 0. 0.</_>
    <_>
      176. 4. 0. 0. 174. 0. 0. 0. 101. 0. 0. 0. 112. 0. 0. 0. 158. 0. 0.
      0. 24. 0. 0. 0. 99. 0. 0. 0. 162. 0. 0. 0. 112. 0. 0. 0. 10. 0. 0.
      0. 20. 0. 0. 0. 17. 0. 0. 0. 154. 0. 0. 0. 17. 0. 0. 0. 68. 1. 0.
      0. 69. 1. 0. 0. 193. 0. 0. 0. 33. 0. 0. 0. 17. 0. 0. 0. 15. 0. 0.
      0. 24. 0. 0. 0. 1. 0. 0. 0. 20. 0. 0. 0. 13. 0. 0. 0. 131. 0. 0.
      0. 14. 0. 0. 0. 15. 0. 0. 0. 7. 0. 0. 0. 210. 0. 0. 0. 14. 0. 0.
      0. 143. 1. 0. 0. 235. 0. 0. 0. 102. 0. 0. 0. 16. 0. 0. 0. 5. 0. 0.
      0. 9. 0. 0. 0. 10. 0. 0. 0. 1. 0. 0. 0. 8. 0. 0. 0. 9. 0. 0. 0.
      17. 0. 0. 0. 1. 0. 0. 0. 5. 0. 0. 0. 1. 0. 0. 0. 19. 0. 0. 0. 3.
      0. 0. 0. 15. 0. 0. 0. 22. 0. 0. 0. 127. 0. 0. 0. 15. 0. 0. 0. 3.
      0. 0. 0. 5. 0. 0. 0. 5. 0. 0. 0. 3. 0. 0. 0. 3. 0. 0. 0. 4. 0. 0.
      0. 248. 0. 0. 0. 12. 0. 0. 0. 14. 0. 0. 0. 19. 0. 0. 0. 253. 0. 0.
      0. 7. 0. 0. 0. 241. 0. 0. 0. 106. 0. 0. 0.</_>
    <_>
      101. 4. 0. 0. 82. 0. 0. 0. 55. 0. 0. 0. 101. 0. 0. 0. 98. 0. 0. 0.
      9. 0. 0. 0. 86. 0. 0. 0. 174. 0. 0. 0. 83. 0. 0. 0. 13. 0. 0. 0.
      9. 0. 0. 0. 6. 0. 0. 0. 93. 0. 0. 0. 6. 0. 0. 0. 39. 1. 0. 0. 148.
      1. 0. 0. 136. 0. 0. 0. 10. 0. 0. 0. 6. 0. 0. 0. 4. 0. 0. 0. 1. 0.
      0. 0. 1. 0. 0. 0. 2. 0. 0. 0. 0. 0. 0. 0. 171. 0. 0. 0. 5. 0. 0.
      0. 7. 0. 0. 0. 6. 0. 0. 0. 243. 0. 0. 0. 3. 0. 0. 0. 29. 2. 0. 0.
      93. 0. 0. 0. 84. 0. 0. 0. 5. 0. 0. 0. 7. 0. 0. 0. 1. 0. 0. 0. 9.
      0. 0. 0. 0. 0. 0. 0. 4. 0. 0. 0. 3. 0. 0. 0. 10. 0. 0. 0. 1. 0. 0.
      0. 0. 0. 0. 0. 0. 0. 0. 0. 10. 0. 0. 0. 0. 0. 0. 0. 12. 0. 0. 0.
      16. 0. 0. 0. 146. 0. 0. 0. 3. 0. 0. 0. 5. 0. 0. 0. 4. 0. 0. 0. 1.
      0. 0. 0. 0. 0. 0. 0. 2. 0. 0. 0. 4. 0. 0. 0. 70. 2. 0. 0. 4. 0. 0.
      0. 9. 0. 0. 0. 6. 0. 0. 0. 48. 2. 0. 0. 3. 0. 0. 0. 242. 0. 0. 0.
      59. 0. 0. 0.</_>
    <_>
      233. 3. 0. 0. 190. 0. 0. 0. 80. 0. 0. 0. 142. 0. 0. 0. 173. 0. 0.
      0. 9. 0. 0. 0. 125. 0. 0. 0. 216. 0. 0. 0. 97. 0. 0. 0. 9. 0. 0.
      0. 9. 0. 0. 0. 16. 0. 0. 0. 151. 0. 0. 0. 18. 0. 0. 0. 14. 1. 0.
      0. 228. 1. 0. 0. 215. 0. 0. 0. 35. 0. 0. 0. 8. 0. 0. 0. 9. 0. 0.
      0. 20. 0. 0. 0. 1. 0. 0. 0. 8. 0. 0. 0. 3. 0. 0. 0. 125. 0. 0. 0.
      6. 0. 0. 0. 13. 0. 0. 0. 14. 0. 0. 0. 237. 0. 0. 0. 1. 0. 0. 0.
      198. 1. 0. 0. 164. 0. 0. 0. 61. 0. 0. 0. 11. 0. 0. 0. 2. 0. 0. 0.
      9. 0. 0. 0. 7. 0. 0. 0. 2. 0. 0. 0. 8. 0. 0. 0. 6. 0. 0. 0. 13. 0.
      0. 0. 0. 0. 0. 0. 0. 0. 0. 0. 1. 0. 0. 0. 8. 0. 0. 0. 0. 0. 0. 0.
      24. 0. 0. 0. 12. 0. 0. 0. 140. 0. 0. 0. 6. 0. 0. 0. 4. 0. 0. 0. 4.
      0. 0. 0. 9. 0. 0. 0. 0. 0. 0. 0. 4. 0. 0. 0. 1. 0. 0. 0. 240. 0.
      0. 0. 13. 0. 0. 0. 21. 0. 0. 0. 17. 0. 0. 0. 92. 1. 0. 0. 5. 0. 0.
      0. 40. 1. 0. 0. 96. 0. 0. 0.</_>
    <_>
      4. 5. 0. 0. 205. 0. 0. 0. 120. 0. 0. 0. 147. 0. 0. 0. 143. 0. 0.
      0. 15. 0. 0. 0. 93. 0. 0. 0. 180. 0. 0. 0. 95. 0. 0. 0. 13. 0. 0.
      0. 19. 0. 0. 0. 11. 0. 0. 0. 105. 0. 0. 0. 9. 0. 0. 0. 237. 0. 0.
      0. 94. 1. 0. 0. 219. 0. 0. 0. 38. 0. 0. 0. 21. 0. 0. 0. 19. 0. 0.
      0. 7. 0. 0. 0. 0. 0. 0. 0. 9. 0. 0. 0. 9. 0. 0. 0. 107. 0. 0. 0.
      11. 0. 0. 0. 17. 0. 0. 0. 17. 0. 0. 0. 142. 0. 0. 0. 6. 0. 0. 0.
      238. 0. 0. 0. 159. 0. 0. 0. 90. 0. 0. 0. 9. 0. 0. 0. 11. 0. 0. 0.
      8. 0. 0. 0. 7. 0. 0. 0. 1. 0. 0. 0. 10. 0. 0. 0. 7. 0. 0. 0. 20.
      0. 0. 0. 2. 0. 0. 0. 1. 0. 0. 0. 0. 0. 0. 0. 15. 0. 0. 0. 0. 0. 0.
      0. 20. 0. 0. 0. 32. 0. 0. 0. 116. 0. 0. 0. 16. 0. 0. 0. 6. 0. 0.
      0. 2. 0. 0. 0. 5. 0. 0. 0. 1. 0. 0. 0. 2. 0. 0. 0. 2. 0. 0. 0.
      194. 0. 0. 0. 15. 0. 0. 0. 15. 0. 0. 0. 11. 0. 0. 0. 184. 0. 0. 0.
      6. 0. 0. 0. 157. 0. 0. 0. 71. 0. 0. 0.</_>
    <_>
      110. 1. 0. 0. 69. 0. 0. 0. 41. 0. 0. 0. 71. 0. 0. 0. 31. 0. 0. 0.
      0. 0. 0. 0. 79. 0. 0. 0. 180. 0. 0. 0. 48. 0. 0. 0. 2. 0. 0. 0. 0.
      0. 0. 0. 8. 0. 0. 0. 62. 0. 0. 0. 0. 0. 0. 0. 4. 1. 0. 0. 172. 1.
      0. 0. 63. 0. 0. 0. 3. 0. 0. 0. 1. 0. 0. 0. 0. 0. 0. 0. 2. 0. 0. 0.
      0. 0. 0. 0. 2. 0. 0. 0. 0. 0. 0. 0. 85. 0. 0. 0. 2. 0. 0. 0. 4. 0.
      0. 0. 3. 0. 0. 0. 235. 0. 0. 0. 0. 0. 0. 0. 207. 1. 0. 0. 62. 0.
      0. 0. 78. 0. 0. 0. 1. 0. 0. 0. 8. 0. 0. 0. 2. 0. 0. 0. 1. 0. 0. 0.
      0. 0. 0. 0. 1. 0. 0. 0. 2. 0. 0. 0. 2. 0. 0. 0. 0. 0. 0. 0. 0. 0.
      0. 0. 0. 0. 0. 0. 5. 0. 0. 0. 0. 0. 0. 0. 9. 0. 0. 0. 4. 0. 0. 0.
      117. 0. 0. 0. 2. 0. 0. 0. 1. 0. 0. 0. 2. 0. 0. 0. 1. 0. 0. 0. 0.
      0. 0. 0. 1. 0. 0. 0. 0. 0. 0. 0. 9. 3. 0. 0. 0. 0. 0. 0. 11. 0. 0.
      0. 6. 0. 0. 0. 115. 3. 0. 0. 0. 0. 0. 0. 208. 0. 0. 0. 23. 0. 0.
      0.</_>
    <_>
      232. 3. 0. 0. 141. 0. 0. 0. 75. 0. 0. 0. 139. 0. 0. 0. 172. 0. 0.
      0. 10. 0. 0. 0. 169. 0. 0. 0. 160. 0. 0. 0. 91. 0. 0. 0. 12. 0. 0.
      0. 11. 0. 0. 0. 16. 0. 0. 0. 181. 0. 0. 0. 6. 0. 0. 0. 193. 1. 0.
      0. 85. 1. 0. 0. 168. 0. 0. 0. 30. 0. 0. 0. 5. 0. 0. 0. 11. 0. 0.
      0. 10. 0. 0. 0. 2. 0. 0. 0. 11. 0. 0. 0. 6. 0. 0. 0. 179. 0. 0. 0.
      5. 0. 0. 0. 9. 0. 0. 0. 13. 0. 0. 0. 47. 1. 0. 0. 11. 0. 0. 0.
      111. 2. 0. 0. 235. 0. 0. 0. 73. 0. 0. 0. 6. 0. 0. 0. 3. 0. 0. 0.
      4. 0. 0. 0. 5. 0. 0. 0. 1. 0. 0. 0. 4. 0. 0. 0. 1. 0. 0. 0. 9. 0.
      0. 0. 0. 0. 0. 0. 1. 0. 0. 0. 1. 0. 0. 0. 18. 0. 0. 0. 0. 0. 0. 0.
      27. 0. 0. 0. 18. 0. 0. 0. 145. 0. 0. 0. 7. 0. 0. 0. 8. 0. 0. 0.
      10. 0. 0. 0. 8. 0. 0. 0. 0. 0. 0. 0. 3. 0. 0. 0. 1. 0. 0. 0. 15.
      1. 0. 0. 11. 0. 0. 0. 20. 0. 0. 0. 15. 0. 0. 0. 75. 1. 0. 0. 6. 0.
      0. 0. 97. 1. 0. 0. 122. 0. 0. 0.</_>
    <_>
      105. 6. 0. 0. 102. 0. 0. 0. 110. 0. 0. 0. 90. 0. 0. 0. 156. 0. 0.
      0. 10. 0. 0. 0. 100. 0. 0. 0. 99. 0. 0. 0. 152. 0. 0. 0. 7. 0. 0.
      0. 13. 0. 0. 0. 7. 0. 0. 0. 141. 0. 0. 0. 4. 0. 0. 0. 255. 0. 0.
      0. 250. 0. 0. 0. 182. 0. 0. 0. 15. 0. 0. 0. 9. 0. 0. 0. 8. 0. 0.
      0. 13. 0. 0. 0. 1. 0. 0. 0. 4. 0. 0. 0. 7. 0. 0. 0. 175. 0. 0. 0.
      13. 0. 0. 0. 9. 0. 0. 0. 15. 0. 0. 0. 186. 0. 0. 0. 6. 0. 0. 0.
      27. 1. 0. 0. 133. 0. 0. 0. 152. 0. 0. 0. 11. 0. 0. 0. 10. 0. 0. 0.
      10. 0. 0. 0. 12. 0. 0. 0. 0. 0. 0. 0. 5. 0. 0. 0. 4. 0. 0. 0. 22.
      0. 0. 0. 2. 0. 0. 0. 5. 0. 0. 0. 3. 0. 0. 0. 24. 0. 0. 0. 2. 0. 0.
      0. 21. 0. 0. 0. 11. 0. 0. 0. 181. 0. 0. 0. 15. 0. 0. 0. 5. 0. 0.
      0. 2. 0. 0. 0. 12. 0. 0. 0. 1. 0. 0. 0. 3. 0. 0. 0. 1. 0. 0. 0.
      158. 1. 0. 0. 21. 0. 0. 0. 30. 0. 0. 0. 15. 0. 0. 0. 103. 1. 0. 0.
      14. 0. 0. 0. 25. 1. 0. 0. 80. 0. 0. 0.</_>
    <_>
      97. 13. 0. 0. 116. 0. 0. 0. 155. 0. 0. 0. 82. 0. 0. 0. 149. 0. 0.
      0. 10. 0. 0. 0. 105. 0. 0. 0. 85. 0. 0. 0. 160. 0. 0. 0. 8. 0. 0.
      0. 38. 0. 0. 0. 16. 0. 0. 0. 150. 0. 0. 0. 7. 0. 0. 0. 126. 1. 0.
      0. 209. 0. 0. 0. 162. 0. 0. 0. 26. 0. 0. 0. 12. 0. 0. 0. 4. 0. 0.
      0. 10. 0. 0. 0. 0. 0. 0. 0. 4. 0. 0. 0. 4. 0. 0. 0. 128. 0. 0. 0.
      9. 0. 0. 0. 14. 0. 0. 0. 17. 0. 0. 0. 134. 0. 0. 0. 14. 0. 0. 0.
      45. 1. 0. 0. 169. 0. 0. 0. 116. 0. 0. 0. 9. 0. 0. 0. 14. 0. 0. 0.
      4. 0. 0. 0. 7. 0. 0. 0. 2. 0. 0. 0. 9. 0. 0. 0. 4. 0. 0. 0. 27. 0.
      0. 0. 0. 0. 0. 0. 0. 0. 0. 0. 8. 0. 0. 0. 16. 0. 0. 0. 2. 0. 0. 0.
      27. 0. 0. 0. 19. 0. 0. 0. 96. 0. 0. 0. 11. 0. 0. 0. 3. 0. 0. 0. 8.
      0. 0. 0. 14. 0. 0. 0. 1. 0. 0. 0. 2. 0. 0. 0. 3. 0. 0. 0. 247. 0.
      0. 0. 7. 0. 0. 0. 33. 0. 0. 0. 11. 0. 0. 0. 131. 0. 0. 0. 8. 0. 0.
      0. 191. 0. 0. 0. 130. 0. 0. 0.</_>
    <_>
      196. 5. 0. 0. 206. 0. 0. 0. 112. 0. 0. 0. 171. 0. 0. 0. 165. 0. 0.
      0. 20. 0. 0. 0. 130. 0. 0. 0. 164. 0. 0. 0. 94. 0. 0. 0. 9. 0. 0.
      0. 13. 0. 0. 0. 11. 0. 0. 0. 105. 0. 0. 0. 11. 0. 0. 0. 228. 0. 0.
      0. 5. 1. 0. 0. 185. 0. 0. 0. 34. 0. 0. 0. 14. 0. 0. 0. 16. 0. 0.
      0. 13. 0. 0. 0. 2. 0. 0. 0. 16. 0. 0. 0. 8. 0. 0. 0. 129. 0. 0. 0.
      15. 0. 0. 0. 18. 0. 0. 0. 15. 0. 0. 0. 134. 0. 0. 0. 9. 0. 0. 0.
      238. 0. 0. 0. 173. 0. 0. 0. 104. 0. 0. 0. 12. 0. 0. 0. 3. 0. 0. 0.
      7. 0. 0. 0. 15. 0. 0. 0. 3. 0. 0. 0. 8. 0. 0. 0. 9. 0. 0. 0. 17.
      0. 0. 0. 3. 0. 0. 0. 2. 0. 0. 0. 3. 0. 0. 0. 21. 0. 0. 0. 1. 0. 0.
      0. 17. 0. 0. 0. 11. 0. 0. 0. 159. 0. 0. 0. 12. 0. 0. 0. 9. 0. 0.
      0. 6. 0. 0. 0. 6. 0. 0. 0. 1. 0. 0. 0. 7. 0. 0. 0. 5. 0. 0. 0.
      232. 0. 0. 0. 18. 0. 0. 0. 20. 0. 0. 0. 16. 0. 0. 0. 252. 0. 0. 0.
      9. 0. 0. 0. 153. 0. 0. 0. 81. 0. 0. 0.</_>
    <_>
      137. 3. 0. 0. 50. 0. 0. 0. 90. 0. 0. 0. 120. 0. 0. 0. 57. 0. 0. 0.
      1. 0. 0. 0. 113. 0. 0. 0. 5. 1. 0. 0. 122. 0. 0. 0. 4. 0. 0. 0.
      15. 0. 0. 0. 2. 0. 0. 0. 123. 0. 0. 0. 0. 0. 0. 0. 26. 2. 0. 0.
      96. 2. 0. 0. 80. 0. 0. 0. 4. 0. 0. 0. 1. 0. 0. 0. 4. 0. 0. 0. 1.
      0. 0. 0. 0. 0. 0. 0. 0. 0. 0. 0. 0. 0. 0. 0. 154. 0. 0. 0. 1. 0.
      0. 0. 7. 0. 0. 0. 10. 0. 0. 0. 2. 1. 0. 0. 0. 0. 0. 0. 91. 2. 0.
      0. 117. 0. 0. 0. 109. 0. 0. 0. 2. 0. 0. 0. 12. 0. 0. 0. 5. 0. 0.
      0. 2. 0. 0. 0. 0. 0. 0. 0. 6. 0. 0. 0. 1. 0. 0. 0. 11. 0. 0. 0. 2.
      0. 0. 0. 1. 0. 0. 0. 2. 0. 0. 0. 12. 0. 0. 0. 0. 0. 0. 0. 29. 0.
      0. 0. 6. 0. 0. 0. 161. 0. 0. 0. 2. 0. 0. 0. 6. 0. 0. 0. 1. 0. 0.
      0. 1. 0. 0. 0. 0. 0. 0. 0. 2. 0. 0. 0. 0. 0. 0. 0. 45. 3. 0. 0. 2.
      0. 0. 0. 17. 0. 0. 0. 4. 0. 0. 0. 161. 2. 0. 0. 1. 0. 0. 0. 127.
      1. 0. 0. 31. 0. 0. 0.</_>
    <_>
      128. 12. 0. 0. 65. 0. 0. 0. 208. 0. 0. 0. 118. 0. 0. 0. 27. 0. 0.
      0. 0. 0. 0. 0. 130. 0. 0. 0. 18. 1. 0. 0. 94. 0. 0. 0. 4. 0. 0. 0.
      8. 0. 0. 0. 8. 0. 0. 0. 102. 0. 0. 0. 3. 0. 0. 0. 59. 3. 0. 0. 46.
      3. 0. 0. 73. 0. 0. 0. 2. 0. 0. 0. 2. 0. 0. 0. 2. 0. 0. 0. 0. 0. 0.
      0. 0. 0. 0. 0. 2. 0. 0. 0. 0. 0. 0. 0. 94. 0. 0. 0. 5. 0. 0. 0. 6.
      0. 0. 0. 2. 0. 0. 0. 228. 0. 0. 0. 0. 0. 0. 0. 181. 3. 0. 0. 155.
      0. 0. 0. 51. 0. 0. 0. 2. 0. 0. 0. 6. 0. 0. 0. 2. 0. 0. 0. 2. 0. 0.
      0. 0. 0. 0. 0. 5. 0. 0. 0. 0. 0. 0. 0. 6. 0. 0. 0. 0. 0. 0. 0. 1.
      0. 0. 0. 0. 0. 0. 0. 4. 0. 0. 0. 0. 0. 0. 0. 11. 0. 0. 0. 9. 0. 0.
      0. 72. 0. 0. 0. 0. 0. 0. 0. 0. 0. 0. 0. 0. 0. 0. 0. 2. 0. 0. 0. 0.
      0. 0. 0. 1. 0. 0. 0. 0. 0. 0. 0. 217. 0. 0. 0. 0. 0. 0. 0. 16. 0.
      0. 0. 4. 0. 0. 0. 98. 1. 0. 0. 0. 0. 0. 0. 43. 1. 0. 0. 34. 0. 0.
      0.</_>
    <_>
      164. 11. 0. 0. 118. 0. 0. 0. 161. 0. 0. 0. 125. 0. 0. 0. 41. 0. 0.
      0. 3. 0. 0. 0. 103. 0. 0. 0. 46. 1. 0. 0. 86. 0. 0. 0. 8. 0. 0. 0.
      8. 0. 0. 0. 14. 0. 0. 0. 99. 0. 0. 0. 4. 0. 0. 0. 177. 2. 0. 0. 5.
      3. 0. 0. 108. 0. 0. 0. 10. 0. 0. 0. 8. 0. 0. 0. 2. 0. 0. 0. 1. 0.
      0. 0. 0. 0. 0. 0. 1. 0. 0. 0. 1. 0. 0. 0. 113. 0. 0. 0. 4. 0. 0.
      0. 10. 0. 0. 0. 13. 0. 0. 0. 249. 0. 0. 0. 0. 0. 0. 0. 97. 3. 0.
      0. 148. 0. 0. 0. 55. 0. 0. 0. 3. 0. 0. 0. 7. 0. 0. 0. 4. 0. 0. 0.
      0. 0. 0. 0. 0. 0. 0. 0. 6. 0. 0. 0. 3. 0. 0. 0. 5. 0. 0. 0. 0. 0.
      0. 0. 0. 0. 0. 0. 1. 0. 0. 0. 5. 0. 0. 0. 0. 0. 0. 0. 23. 0. 0. 0.
      6. 0. 0. 0. 74. 0. 0. 0. 3. 0. 0. 0. 0. 0. 0. 0. 3. 0. 0. 0. 2. 0.
      0. 0. 0. 0. 0. 0. 2. 0. 0. 0. 2. 0. 0. 0. 214. 0. 0. 0. 0. 0. 0.
      0. 15. 0. 0. 0. 4. 0. 0. 0. 47. 1. 0. 0. 0. 0. 0. 0. 38. 1. 0. 0.
      39. 0. 0. 0.</_>
    <_>
      6. 4. 0. 0. 187. 0. 0. 0. 119. 0. 0. 0. 205. 0. 0. 0. 140. 0. 0.
      0. 7. 0. 0. 0. 160. 0. 0. 0. 191. 0. 0. 0. 91. 0. 0. 0. 6. 0. 0.
      0. 16. 0. 0. 0. 15. 0. 0. 0. 159. 0. 0. 0. 9. 0. 0. 0. 95. 1. 0.
      0. 73. 1. 0. 0. 154. 0. 0. 0. 13. 0. 0. 0. 14. 0. 0. 0. 11. 0. 0.
      0. 8. 0. 0. 0. 0. 0. 0. 0. 10. 0. 0. 0. 5. 0. 0. 0. 187. 0. 0. 0.
      11. 0. 0. 0. 9. 0. 0. 0. 18. 0. 0. 0. 190. 0. 0. 0. 3. 0. 0. 0.
      40. 1. 0. 0. 180. 0. 0. 0. 66. 0. 0. 0. 11. 0. 0. 0. 8. 0. 0. 0.
      11. 0. 0. 0. 8. 0. 0. 0. 0. 0. 0. 0. 8. 0. 0. 0. 5. 0. 0. 0. 8. 0.
      0. 0. 2. 0. 0. 0. 1. 0. 0. 0. 0. 0. 0. 0. 17. 0. 0. 0. 1. 0. 0. 0.
      20. 0. 0. 0. 19. 0. 0. 0. 139. 0. 0. 0. 9. 0. 0. 0. 10. 0. 0. 0.
      7. 0. 0. 0. 6. 0. 0. 0. 0. 0. 0. 0. 6. 0. 0. 0. 3. 0. 0. 0. 98. 1.
      0. 0. 11. 0. 0. 0. 22. 0. 0. 0. 16. 0. 0. 0. 40. 1. 0. 0. 7. 0. 0.
      0. 252. 0. 0. 0. 105. 0. 0. 0.</_>
    <_>
      195. 5. 0. 0. 152. 0. 0. 0. 114. 0. 0. 0. 131. 0. 0. 0. 172. 0. 0.
      0. 16. 0. 0. 0. 142. 0. 0. 0. 138. 0. 0. 0. 128. 0. 0. 0. 14. 0.
      0. 0. 24. 0. 0. 0. 17. 0. 0. 0. 191. 0. 0. 0. 9. 0. 0. 0. 192. 1.
      0. 0. 108. 1. 0. 0. 206. 0. 0. 0. 35. 0. 0. 0. 15. 0. 0. 0. 14. 0.
      0. 0. 18. 0. 0. 0. 4. 0. 0. 0. 14. 0. 0. 0. 8. 0. 0. 0. 151. 0. 0.
      0. 16. 0. 0. 0. 32. 0. 0. 0. 17. 0. 0. 0. 207. 0. 0. 0. 8. 0. 0.
      0. 77. 2. 0. 0. 224. 0. 0. 0. 85. 0. 0. 0. 15. 0. 0. 0. 4. 0. 0.
      0. 6. 0. 0. 0. 10. 0. 0. 0. 3. 0. 0. 0. 11. 0. 0. 0. 1. 0. 0. 0.
      23. 0. 0. 0. 4. 0. 0. 0. 5. 0. 0. 0. 3. 0. 0. 0. 23. 0. 0. 0. 2.
      0. 0. 0. 32. 0. 0. 0. 14. 0. 0. 0. 106. 0. 0. 0. 15. 0. 0. 0. 6.
      0. 0. 0. 7. 0. 0. 0. 6. 0. 0. 0. 2. 0. 0. 0. 5. 0. 0. 0. 4. 0. 0.
      0. 211. 0. 0. 0. 15. 0. 0. 0. 32. 0. 0. 0. 28. 0. 0. 0. 212. 0. 0.
      0. 11. 0. 0. 0. 15. 1. 0. 0. 154. 0. 0. 0.</_>
    <_>
      234. 5. 0. 0. 196. 0. 0. 0. 129. 0. 0. 0. 126. 0. 0. 0. 186. 0. 0.
      0. 15. 0. 0. 0. 132. 0. 0. 0. 139. 0. 0. 0. 131. 0. 0. 0. 12. 0.
      0. 0. 31. 0. 0. 0. 19. 0. 0. 0. 162. 0. 0. 0. 15. 0. 0. 0. 42. 1.
      0. 0. 238. 0. 0. 0. 206. 0. 0. 0. 33. 0. 0. 0. 22. 0. 0. 0. 14. 0.
      0. 0. 40. 0. 0. 0. 2. 0. 0. 0. 17. 0. 0. 0. 22. 0. 0. 0. 159. 0.
      0. 0. 16. 0. 0. 0. 26. 0. 0. 0. 16. 0. 0. 0. 227. 0. 0. 0. 18. 0.
      0. 0. 158. 1. 0. 0. 233. 0. 0. 0. 132. 0. 0. 0. 13. 0. 0. 0. 5. 0.
      0. 0. 7. 0. 0. 0. 15. 0. 0. 0. 4. 0. 0. 0. 7. 0. 0. 0. 4. 0. 0. 0.
      20. 0. 0. 0. 2. 0. 0. 0. 5. 0. 0. 0. 2. 0. 0. 0. 25. 0. 0. 0. 5.
      0. 0. 0. 27. 0. 0. 0. 24. 0. 0. 0. 119. 0. 0. 0. 9. 0. 0. 0. 7. 0.
      0. 0. 10. 0. 0. 0. 18. 0. 0. 0. 1. 0. 0. 0. 6. 0. 0. 0. 5. 0. 0.
      0. 227. 0. 0. 0. 17. 0. 0. 0. 20. 0. 0. 0. 24. 0. 0. 0. 231. 0. 0.
      0. 16. 0. 0. 0. 16. 1. 0. 0. 130. 0. 0. 0.</_>
    <_>
      17. 7. 0. 0. 217. 0. 0. 0. 137. 0. 0. 0. 158. 0. 0. 0. 195. 0. 0.
      0. 30. 0. 0. 0. 126. 0. 0. 0. 140. 0. 0. 0. 101. 0. 0. 0. 11. 0.
      0. 0. 19. 0. 0. 0. 14. 0. 0. 0. 103. 0. 0. 0. 17. 0. 0. 0. 170. 0.
      0. 0. 162. 0. 0. 0. 206. 0. 0. 0. 42. 0. 0. 0. 13. 0. 0. 0. 21. 0.
      0. 0. 29. 0. 0. 0. 4. 0. 0. 0. 13. 0. 0. 0. 13. 0. 0. 0. 84. 0. 0.
      0. 9. 0. 0. 0. 13. 0. 0. 0. 27. 0. 0. 0. 94. 0. 0. 0. 11. 0. 0. 0.
      162. 0. 0. 0. 134. 0. 0. 0. 109. 0. 0. 0. 18. 0. 0. 0. 17. 0. 0.
      0. 12. 0. 0. 0. 24. 0. 0. 0. 3. 0. 0. 0. 9. 0. 0. 0. 11. 0. 0. 0.
      19. 0. 0. 0. 4. 0. 0. 0. 4. 0. 0. 0. 4. 0. 0. 0. 25. 0. 0. 0. 5.
      0. 0. 0. 16. 0. 0. 0. 14. 0. 0. 0. 114. 0. 0. 0. 14. 0. 0. 0. 10.
      0. 0. 0. 10. 0. 0. 0. 8. 0. 0. 0. 3. 0. 0. 0. 6. 0. 0. 0. 6. 0. 0.
      0. 149. 0. 0. 0. 23. 0. 0. 0. 20. 0. 0. 0. 10. 0. 0. 0. 146. 0. 0.
      0. 14. 0. 0. 0. 109. 0. 0. 0. 80. 0. 0. 0.</_>
    <_>
      184. 5. 0. 0. 98. 0. 0. 0. 90. 0. 0. 0. 97. 0. 0. 0. 234. 0. 0. 0.
      3. 0. 0. 0. 132. 0. 0. 0. 98. 0. 0. 0. 109. 0. 0. 0. 2. 0. 0. 0.
      10. 0. 0. 0. 15. 0. 0. 0. 176. 0. 0. 0. 6. 0. 0. 0. 188. 0. 0. 0.
      200. 0. 0. 0. 142. 0. 0. 0. 13. 0. 0. 0. 8. 0. 0. 0. 10. 0. 0. 0.
      7. 0. 0. 0. 0. 0. 0. 0. 4. 0. 0. 0. 2. 0. 0. 0. 164. 0. 0. 0. 8.
      0. 0. 0. 16. 0. 0. 0. 23. 0. 0. 0. 186. 0. 0. 0. 5. 0. 0. 0. 18.
      1. 0. 0. 99. 0. 0. 0. 123. 0. 0. 0. 9. 0. 0. 0. 11. 0. 0. 0. 4. 0.
      0. 0. 14. 0. 0. 0. 1. 0. 0. 0. 11. 0. 0. 0. 6. 0. 0. 0. 14. 0. 0.
      0. 0. 0. 0. 0. 3. 0. 0. 0. 6. 0. 0. 0. 22. 0. 0. 0. 1. 0. 0. 0.
      23. 0. 0. 0. 12. 0. 0. 0. 209. 0. 0. 0. 18. 0. 0. 0. 5. 0. 0. 0.
      16. 0. 0. 0. 1. 0. 0. 0. 0. 0. 0. 0. 5. 0. 0. 0. 3. 0. 0. 0. 163.
      1. 0. 0. 10. 0. 0. 0. 39. 0. 0. 0. 37. 0. 0. 0. 68. 1. 0. 0. 2. 0.
      0. 0. 253. 0. 0. 0. 114. 0. 0. 0.</_>
    <_>
      232. 5. 0. 0. 161. 0. 0. 0. 135. 0. 0. 0. 167. 0. 0. 0. 196. 0. 0.
      0. 13. 0. 0. 0. 146. 0. 0. 0. 167. 0. 0. 0. 135. 0. 0. 0. 13. 0.
      0. 0. 28. 0. 0. 0. 26. 0. 0. 0. 154. 0. 0. 0. 14. 0. 0. 0. 240. 0.
      0. 0. 21. 1. 0. 0. 154. 0. 0. 0. 21. 0. 0. 0. 12. 0. 0. 0. 13. 0.
      0. 0. 11. 0. 0. 0. 2. 0. 0. 0. 8. 0. 0. 0. 5. 0. 0. 0. 140. 0. 0.
      0. 17. 0. 0. 0. 20. 0. 0. 0. 25. 0. 0. 0. 166. 0. 0. 0. 11. 0. 0.
      0. 254. 0. 0. 0. 153. 0. 0. 0. 116. 0. 0. 0. 19. 0. 0. 0. 11. 0.
      0. 0. 7. 0. 0. 0. 18. 0. 0. 0. 1. 0. 0. 0. 10. 0. 0. 0. 11. 0. 0.
      0. 21. 0. 0. 0. 4. 0. 0. 0. 7. 0. 0. 0. 3. 0. 0. 0. 26. 0. 0. 0.
      0. 0. 0. 0. 31. 0. 0. 0. 19. 0. 0. 0. 127. 0. 0. 0. 12. 0. 0. 0.
      10. 0. 0. 0. 11. 0. 0. 0. 12. 0. 0. 0. 0. 0. 0. 0. 7. 0. 0. 0. 6.
      0. 0. 0. 223. 0. 0. 0. 18. 0. 0. 0. 21. 0. 0. 0. 23. 0. 0. 0. 230.
      0. 0. 0. 14. 0. 0. 0. 188. 0. 0. 0. 106. 0. 0. 0.</_>
    <_>
      201. 4. 0. 0. 186. 0. 0. 0. 124. 0. 0. 0. 141. 0. 0. 0. 182. 0. 0.
      0. 15. 0. 0. 0. 187. 0. 0. 0. 183. 0. 0. 0. 105. 0. 0. 0. 15. 0.
      0. 0. 32. 0. 0. 0. 35. 0. 0. 0. 134. 0. 0. 0. 15. 0. 0. 0. 184. 1.
      0. 0. 253. 1. 0. 0. 164. 0. 0. 0. 37. 0. 0. 0. 10. 0. 0. 0. 16. 0.
      0. 0. 18. 0. 0. 0. 0. 0. 0. 0. 8. 0. 0. 0. 10. 0. 0. 0. 120. 0. 0.
      0. 10. 0. 0. 0. 25. 0. 0. 0. 16. 0. 0. 0. 186. 0. 0. 0. 12. 0. 0.
      0. 116. 1. 0. 0. 42. 1. 0. 0. 77. 0. 0. 0. 7. 0. 0. 0. 7. 0. 0. 0.
      9. 0. 0. 0. 9. 0. 0. 0. 1. 0. 0. 0. 8. 0. 0. 0. 2. 0. 0. 0. 18. 0.
      0. 0. 1. 0. 0. 0. 4. 0. 0. 0. 5. 0. 0. 0. 14. 0. 0. 0. 0. 0. 0. 0.
      18. 0. 0. 0. 19. 0. 0. 0. 119. 0. 0. 0. 9. 0. 0. 0. 10. 0. 0. 0.
      5. 0. 0. 0. 7. 0. 0. 0. 1. 0. 0. 0. 4. 0. 0. 0. 6. 0. 0. 0. 224.
      0. 0. 0. 14. 0. 0. 0. 11. 0. 0. 0. 14. 0. 0. 0. 183. 0. 0. 0. 8.
      0. 0. 0. 210. 0. 0. 0. 118. 0. 0. 0.</_>
    <_>
      61. 3. 0. 0. 85. 0. 0. 0. 87. 0. 0. 0. 175. 0. 0. 0. 61. 0. 0. 0.
      3. 0. 0. 0. 139. 0. 0. 0. 112. 1. 0. 0. 73. 0. 0. 0. 5. 0. 0. 0.
      8. 0. 0. 0. 7. 0. 0. 0. 78. 0. 0. 0. 2. 0. 0. 0. 58. 1. 0. 0. 14.
      2. 0. 0. 54. 0. 0. 0. 3. 0. 0. 0. 3. 0. 0. 0. 5. 0. 0. 0. 3. 0. 0.
      0. 0. 0. 0. 0. 1. 0. 0. 0. 1. 0. 0. 0. 97. 0. 0. 0. 4. 0. 0. 0.
      10. 0. 0. 0. 9. 0. 0. 0. 165. 0. 0. 0. 0. 0. 0. 0. 58. 1. 0. 0.
      105. 0. 0. 0. 90. 0. 0. 0. 4. 0. 0. 0. 3. 0. 0. 0. 4. 0. 0. 0. 6.
      0. 0. 0. 0. 0. 0. 0. 3. 0. 0. 0. 1. 0. 0. 0. 9. 0. 0. 0. 0. 0. 0.
      0. 2. 0. 0. 0. 1. 0. 0. 0. 7. 0. 0. 0. 0. 0. 0. 0. 5. 0. 0. 0. 7.
      0. 0. 0. 115. 0. 0. 0. 3. 0. 0. 0. 3. 0. 0. 0. 0. 0. 0. 0. 3. 0.
      0. 0. 0. 0. 0. 0. 1. 0. 0. 0. 1. 0. 0. 0. 36. 1. 0. 0. 5. 0. 0. 0.
      10. 0. 0. 0. 11. 0. 0. 0. 85. 1. 0. 0. 2. 0. 0. 0. 195. 0. 0. 0.
      41. 0. 0. 0.</_>
    <_>
      162. 2. 0. 0. 68. 0. 0. 0. 65. 0. 0. 0. 140. 0. 0. 0. 73. 0. 0. 0.
      6. 0. 0. 0. 115. 0. 0. 0. 234. 0. 0. 0. 65. 0. 0. 0. 3. 0. 0. 0.
      1. 0. 0. 0. 9. 0. 0. 0. 100. 0. 0. 0. 2. 0. 0. 0. 66. 1. 0. 0.
      139. 1. 0. 0. 66. 0. 0. 0. 7. 0. 0. 0. 3. 0. 0. 0. 2. 0. 0. 0. 3.
      0. 0. 0. 0. 0. 0. 0. 3. 0. 0. 0. 1. 0. 0. 0. 113. 0. 0. 0. 2. 0.
      0. 0. 3. 0. 0. 0. 9. 0. 0. 0. 207. 0. 0. 0. 2. 0. 0. 0. 133. 1. 0.
      0. 115. 0. 0. 0. 73. 0. 0. 0. 4. 0. 0. 0. 7. 0. 0. 0. 4. 0. 0. 0.
      4. 0. 0. 0. 1. 0. 0. 0. 1. 0. 0. 0. 2. 0. 0. 0. 7. 0. 0. 0. 0. 0.
      0. 0. 0. 0. 0. 0. 0. 0. 0. 0. 6. 0. 0. 0. 0. 0. 0. 0. 11. 0. 0. 0.
      6. 0. 0. 0. 142. 0. 0. 0. 5. 0. 0. 0. 8. 0. 0. 0. 2. 0. 0. 0. 4.
      0. 0. 0. 0. 0. 0. 0. 0. 0. 0. 0. 1. 0. 0. 0. 245. 1. 0. 0. 10. 0.
      0. 0. 18. 0. 0. 0. 10. 0. 0. 0. 108. 2. 0. 0. 2. 0. 0. 0. 219. 0.
      0. 0. 54. 0. 0. 0.</_>
    <_>
      91. 6. 0. 0. 178. 0. 0. 0. 125. 0. 0. 0. 112. 0. 0. 0. 222. 0. 0.
      0. 16. 0. 0. 0. 139. 0. 0. 0. 130. 0. 0. 0. 135. 0. 0. 0. 20. 0.
      0. 0. 24. 0. 0. 0. 24. 0. 0. 0. 158. 0. 0. 0. 17. 0. 0. 0. 186. 0.
      0. 0. 188. 0. 0. 0. 185. 0. 0. 0. 21. 0. 0. 0. 14. 0. 0. 0. 12. 0.
      0. 0. 27. 0. 0. 0. 5. 0. 0. 0. 12. 0. 0. 0. 10. 0. 0. 0. 159. 0.
      0. 0. 17. 0. 0. 0. 17. 0. 0. 0. 11. 0. 0. 0. 177. 0. 0. 0. 6. 0.
      0. 0. 209. 0. 0. 0. 136. 0. 0. 0. 121. 0. 0. 0. 16. 0. 0. 0. 8. 0.
      0. 0. 11. 0. 0. 0. 17. 0. 0. 0. 5. 0. 0. 0. 14. 0. 0. 0. 9. 0. 0.
      0. 32. 0. 0. 0. 1. 0. 0. 0. 7. 0. 0. 0. 3. 0. 0. 0. 23. 0. 0. 0.
      0. 0. 0. 0. 23. 0. 0. 0. 20. 0. 0. 0. 125. 0. 0. 0. 15. 0. 0. 0.
      7. 0. 0. 0. 6. 0. 0. 0. 17. 0. 0. 0. 3. 0. 0. 0. 4. 0. 0. 0. 4. 0.
      0. 0. 51. 1. 0. 0. 18. 0. 0. 0. 24. 0. 0. 0. 26. 0. 0. 0. 67. 1.
      0. 0. 18. 0. 0. 0. 219. 0. 0. 0. 96. 0. 0. 0.</_>
    <_>
      224. 2. 0. 0. 61. 0. 0. 0. 75. 0. 0. 0. 131. 0. 0. 0. 95. 0. 0. 0.
      6. 0. 0. 0. 134. 0. 0. 0. 50. 1. 0. 0. 83. 0. 0. 0. 5. 0. 0. 0. 9.
      0. 0. 0. 8. 0. 0. 0. 117. 0. 0. 0. 2. 0. 0. 0. 104. 1. 0. 0. 154.
      1. 0. 0. 71. 0. 0. 0. 6. 0. 0. 0. 3. 0. 0. 0. 3. 0. 0. 0. 2. 0. 0.
      0. 0. 0. 0. 0. 0. 0. 0. 0. 3. 0. 0. 0. 108. 0. 0. 0. 4. 0. 0. 0.
      4. 0. 0. 0. 11. 0. 0. 0. 232. 0. 0. 0. 2. 0. 0. 0. 79. 1. 0. 0.
      140. 0. 0. 0. 71. 0. 0. 0. 1. 0. 0. 0. 0. 0. 0. 0. 1. 0. 0. 0. 5.
      0. 0. 0. 0. 0. 0. 0. 3. 0. 0. 0. 2. 0. 0. 0. 13. 0. 0. 0. 0. 0. 0.
      0. 0. 0. 0. 0. 3. 0. 0. 0. 9. 0. 0. 0. 0. 0. 0. 0. 14. 0. 0. 0. 7.
      0. 0. 0. 142. 0. 0. 0. 4. 0. 0. 0. 3. 0. 0. 0. 4. 0. 0. 0. 3. 0.
      0. 0. 1. 0. 0. 0. 5. 0. 0. 0. 2. 0. 0. 0. 138. 1. 0. 0. 5. 0. 0.
      0. 11. 0. 0. 0. 7. 0. 0. 0. 51. 2. 0. 0. 2. 0. 0. 0. 6. 1. 0. 0.
      58. 0. 0. 0.</_>
    <_>
      139. 4. 0. 0. 149. 0. 0. 0. 101. 0. 0. 0. 144. 0. 0. 0. 178. 0. 0.
      0. 11. 0. 0. 0. 160. 0. 0. 0. 210. 0. 0. 0. 112. 0. 0. 0. 8. 0. 0.
      0. 24. 0. 0. 0. 14. 0. 0. 0. 130. 0. 0. 0. 9. 0. 0. 0. 244. 0. 0.
      0. 25. 1. 0. 0. 120. 0. 0. 0. 23. 0. 0. 0. 14. 0. 0. 0. 10. 0. 0.
      0. 13. 0. 0. 0. 4. 0. 0. 0. 12. 0. 0. 0. 3. 0. 0. 0. 140. 0. 0. 0.
      9. 0. 0. 0. 22. 0. 0. 0. 17. 0. 0. 0. 177. 0. 0. 0. 10. 0. 0. 0.
      238. 0. 0. 0. 175. 0. 0. 0. 104. 0. 0. 0. 6. 0. 0. 0. 7. 0. 0. 0.
      9. 0. 0. 0. 10. 0. 0. 0. 2. 0. 0. 0. 13. 0. 0. 0. 5. 0. 0. 0. 21.
      0. 0. 0. 3. 0. 0. 0. 3. 0. 0. 0. 1. 0. 0. 0. 15. 0. 0. 0. 1. 0. 0.
      0. 14. 0. 0. 0. 16. 0. 0. 0. 114. 0. 0. 0. 13. 0. 0. 0. 6. 0. 0.
      0. 5. 0. 0. 0. 14. 0. 0. 0. 1. 0. 0. 0. 4. 0. 0. 0. 4. 0. 0. 0. 2.
      1. 0. 0. 15. 0. 0. 0. 16. 0. 0. 0. 22. 0. 0. 0. 170. 1. 0. 0. 17.
      0. 0. 0. 224. 0. 0. 0. 110. 0. 0. 0.</_>
    <_>
      142. 5. 0. 0. 169. 0. 0. 0. 76. 0. 0. 0. 122. 0. 0. 0. 163. 0. 0.
      0. 11. 0. 0. 0. 97. 0. 0. 0. 126. 0. 0. 0. 128. 0. 0. 0. 12. 0. 0.
      0. 14. 0. 0. 0. 22. 0. 0. 0. 144. 0. 0. 0. 10. 0. 0. 0. 217. 0. 0.
      0. 204. 0. 0. 0. 210. 0. 0. 0. 22. 0. 0. 0. 18. 0. 0. 0. 11. 0. 0.
      0. 20. 0. 0. 0. 3. 0. 0. 0. 7. 0. 0. 0. 6. 0. 0. 0. 188. 0. 0. 0.
      9. 0. 0. 0. 23. 0. 0. 0. 18. 0. 0. 0. 189. 0. 0. 0. 6. 0. 0. 0.
      10. 1. 0. 0. 155. 0. 0. 0. 122. 0. 0. 0. 10. 0. 0. 0. 9. 0. 0. 0.
      14. 0. 0. 0. 18. 0. 0. 0. 1. 0. 0. 0. 7. 0. 0. 0. 7. 0. 0. 0. 23.
      0. 0. 0. 5. 0. 0. 0. 3. 0. 0. 0. 3. 0. 0. 0. 24. 0. 0. 0. 5. 0. 0.
      0. 29. 0. 0. 0. 22. 0. 0. 0. 184. 0. 0. 0. 20. 0. 0. 0. 15. 0. 0.
      0. 11. 0. 0. 0. 20. 0. 0. 0. 2. 0. 0. 0. 3. 0. 0. 0. 4. 0. 0. 0.
      31. 1. 0. 0. 18. 0. 0. 0. 22. 0. 0. 0. 15. 0. 0. 0. 71. 1. 0. 0.
      14. 0. 0. 0. 245. 0. 0. 0. 94. 0. 0. 0.</_>
    <_>
      159. 5. 0. 0. 140. 0. 0. 0. 92. 0. 0. 0. 111. 0. 0. 0. 183. 0. 0.
      0. 24. 0. 0. 0. 112. 0. 0. 0. 115. 0. 0. 0. 112. 0. 0. 0. 16. 0.
      0. 0. 18. 0. 0. 0. 15. 0. 0. 0. 113. 0. 0. 0. 15. 0. 0. 0. 183. 0.
      0. 0. 167. 0. 0. 0. 195. 0. 0. 0. 18. 0. 0. 0. 16. 0. 0. 0. 11. 0.
      0. 0. 19. 0. 0. 0. 0. 0. 0. 0. 14. 0. 0. 0. 10. 0. 0. 0. 126. 0.
      0. 0. 13. 0. 0. 0. 17. 0. 0. 0. 17. 0. 0. 0. 157. 0. 0. 0. 17. 0.
      0. 0. 248. 0. 0. 0. 131. 0. 0. 0. 124. 0. 0. 0. 18. 0. 0. 0. 10.
      0. 0. 0. 8. 0. 0. 0. 14. 0. 0. 0. 2. 0. 0. 0. 8. 0. 0. 0. 9. 0. 0.
      0. 23. 0. 0. 0. 2. 0. 0. 0. 5. 0. 0. 0. 6. 0. 0. 0. 28. 0. 0. 0.
      5. 0. 0. 0. 18. 0. 0. 0. 16. 0. 0. 0. 154. 0. 0. 0. 18. 0. 0. 0.
      9. 0. 0. 0. 6. 0. 0. 0. 11. 0. 0. 0. 4. 0. 0. 0. 2. 0. 0. 0. 7. 0.
      0. 0. 50. 1. 0. 0. 19. 0. 0. 0. 23. 0. 0. 0. 17. 0. 0. 0. 10. 1.
      0. 0. 13. 0. 0. 0. 184. 0. 0. 0. 109. 0. 0. 0.</_>
    <_>
      224. 7. 0. 0. 177. 0. 0. 0. 116. 0. 0. 0. 110. 0. 0. 0. 252. 0. 0.
      0. 42. 0. 0. 0. 91. 0. 0. 0. 118. 0. 0. 0. 91. 0. 0. 0. 9. 0. 0.
      0. 17. 0. 0. 0. 17. 0. 0. 0. 87. 0. 0. 0. 12. 0. 0. 0. 109. 0. 0.
      0. 138. 0. 0. 0. 157. 0. 0. 0. 24. 0. 0. 0. 9. 0. 0. 0. 10. 0. 0.
      0. 22. 0. 0. 0. 2. 0. 0. 0. 12. 0. 0. 0. 7. 0. 0. 0. 97. 0. 0. 0.
      9. 0. 0. 0. 20. 0. 0. 0. 12. 0. 0. 0. 103. 0. 0. 0. 2. 0. 0. 0.
      122. 0. 0. 0. 85. 0. 0. 0. 75. 0. 0. 0. 16. 0. 0. 0. 10. 0. 0. 0.
      15. 0. 0. 0. 22. 0. 0. 0. 6. 0. 0. 0. 7. 0. 0. 0. 10. 0. 0. 0. 31.
      0. 0. 0. 5. 0. 0. 0. 2. 0. 0. 0. 4. 0. 0. 0. 17. 0. 0. 0. 5. 0. 0.
      0. 17. 0. 0. 0. 8. 0. 0. 0. 123. 0. 0. 0. 12. 0. 0. 0. 7. 0. 0. 0.
      14. 0. 0. 0. 18. 0. 0. 0. 4. 0. 0. 0. 8. 0. 0. 0. 6. 0. 0. 0. 227.
      0. 0. 0. 23. 0. 0. 0. 22. 0. 0. 0. 18. 0. 0. 0. 222. 0. 0. 0. 12.
      0. 0. 0. 133. 0. 0. 0. 86. 0. 0. 0.</_>
    <_>
      114. 13. 0. 0. 178. 0. 0. 0. 61. 0. 0. 0. 78. 0. 0. 0. 146. 0. 0.
      0. 24. 0. 0. 0. 56. 0. 0. 0. 79. 0. 0. 0. 89. 0. 0. 0. 8. 0. 0. 0.
      12. 0. 0. 0. 9. 0. 0. 0. 76. 0. 0. 0. 13. 0. 0. 0. 120. 0. 0. 0.
      117. 0. 0. 0. 198. 0. 0. 0. 36. 0. 0. 0. 19. 0. 0. 0. 14. 0. 0. 0.
      33. 0. 0. 0. 2. 0. 0. 0. 7. 0. 0. 0. 6. 0. 0. 0. 80. 0. 0. 0. 15.
      0. 0. 0. 6. 0. 0. 0. 12. 0. 0. 0. 107. 0. 0. 0. 16. 0. 0. 0. 130.
      0. 0. 0. 99. 0. 0. 0. 121. 0. 0. 0. 27. 0. 0. 0. 6. 0. 0. 0. 6. 0.
      0. 0. 16. 0. 0. 0. 2. 0. 0. 0. 8. 0. 0. 0. 7. 0. 0. 0. 20. 0. 0.
      0. 5. 0. 0. 0. 5. 0. 0. 0. 1. 0. 0. 0. 21. 0. 0. 0. 3. 0. 0. 0.
      18. 0. 0. 0. 20. 0. 0. 0. 104. 0. 0. 0. 15. 0. 0. 0. 3. 0. 0. 0.
      15. 0. 0. 0. 18. 0. 0. 0. 1. 0. 0. 0. 10. 0. 0. 0. 4. 0. 0. 0.
      178. 0. 0. 0. 21. 0. 0. 0. 19. 0. 0. 0. 16. 0. 0. 0. 187. 0. 0. 0.
      10. 0. 0. 0. 125. 0. 0. 0. 75. 0. 0. 0.</_>
    <_>
      10. 8. 0. 0. 221. 0. 0. 0. 102. 0. 0. 0. 98. 0. 0. 0. 191. 0. 0.
      0. 28. 0. 0. 0. 89. 0. 0. 0. 75. 0. 0. 0. 131. 0. 0. 0. 20. 0. 0.
      0. 24. 0. 0. 0. 13. 0. 0. 0. 94. 0. 0. 0. 16. 0. 0. 0. 142. 0. 0.
      0. 133. 0. 0. 0. 211. 0. 0. 0. 35. 0. 0. 0. 16. 0. 0. 0. 13. 0. 0.
      0. 28. 0. 0. 0. 4. 0. 0. 0. 15. 0. 0. 0. 17. 0. 0. 0. 98. 0. 0. 0.
      12. 0. 0. 0. 19. 0. 0. 0. 9. 0. 0. 0. 111. 0. 0. 0. 13. 0. 0. 0.
      153. 0. 0. 0. 116. 0. 0. 0. 167. 0. 0. 0. 23. 0. 0. 0. 12. 0. 0.
      0. 9. 0. 0. 0. 27. 0. 0. 0. 3. 0. 0. 0. 9. 0. 0. 0. 8. 0. 0. 0.
      26. 0. 0. 0. 3. 0. 0. 0. 5. 0. 0. 0. 1. 0. 0. 0. 29. 0. 0. 0. 5.
      0. 0. 0. 22. 0. 0. 0. 13. 0. 0. 0. 138. 0. 0. 0. 15. 0. 0. 0. 8.
      0. 0. 0. 9. 0. 0. 0. 13. 0. 0. 0. 1. 0. 0. 0. 10. 0. 0. 0. 7. 0.
      0. 0. 187. 0. 0. 0. 16. 0. 0. 0. 35. 0. 0. 0. 22. 0. 0. 0. 150. 0.
      0. 0. 17. 0. 0. 0. 141. 0. 0. 0. 76. 0. 0. 0.</_>
    <_>
      11. 6. 0. 0. 145. 0. 0. 0. 120. 0. 0. 0. 111. 0. 0. 0. 250. 0. 0.
      0. 18. 0. 0. 0. 148. 0. 0. 0. 186. 0. 0. 0. 157. 0. 0. 0. 12. 0.
      0. 0. 22. 0. 0. 0. 21. 0. 0. 0. 192. 0. 0. 0. 10. 0. 0. 0. 225. 0.
      0. 0. 209. 0. 0. 0. 197. 0. 0. 0. 23. 0. 0. 0. 17. 0. 0. 0. 12. 0.
      0. 0. 32. 0. 0. 0. 2. 0. 0. 0. 23. 0. 0. 0. 15. 0. 0. 0. 199. 0.
      0. 0. 13. 0. 0. 0. 16. 0. 0. 0. 28. 0. 0. 0. 223. 0. 0. 0. 8. 0.
      0. 0. 254. 0. 0. 0. 176. 0. 0. 0. 97. 0. 0. 0. 10. 0. 0. 0. 6. 0.
      0. 0. 6. 0. 0. 0. 12. 0. 0. 0. 0. 0. 0. 0. 5. 0. 0. 0. 6. 0. 0. 0.
      18. 0. 0. 0. 3. 0. 0. 0. 5. 0. 0. 0. 1. 0. 0. 0. 24. 0. 0. 0. 2.
      0. 0. 0. 23. 0. 0. 0. 9. 0. 0. 0. 123. 0. 0. 0. 11. 0. 0. 0. 4. 0.
      0. 0. 9. 0. 0. 0. 13. 0. 0. 0. 1. 0. 0. 0. 5. 0. 0. 0. 5. 0. 0. 0.
      53. 1. 0. 0. 17. 0. 0. 0. 30. 0. 0. 0. 25. 0. 0. 0. 47. 1. 0. 0.
      14. 0. 0. 0. 233. 0. 0. 0. 145. 0. 0. 0.</_>
    <_>
      84. 5. 0. 0. 217. 0. 0. 0. 77. 0. 0. 0. 131. 0. 0. 0. 196. 0. 0.
      0. 13. 0. 0. 0. 112. 0. 0. 0. 120. 0. 0. 0. 81. 0. 0. 0. 10. 0. 0.
      0. 8. 0. 0. 0. 18. 0. 0. 0. 113. 0. 0. 0. 9. 0. 0. 0. 149. 0. 0.
      0. 155. 0. 0. 0. 235. 0. 0. 0. 28. 0. 0. 0. 9. 0. 0. 0. 12. 0. 0.
      0. 14. 0. 0. 0. 0. 0. 0. 0. 6. 0. 0. 0. 7. 0. 0. 0. 180. 0. 0. 0.
      19. 0. 0. 0. 18. 0. 0. 0. 13. 0. 0. 0. 108. 0. 0. 0. 7. 0. 0. 0.
      144. 0. 0. 0. 73. 0. 0. 0. 104. 0. 0. 0. 12. 0. 0. 0. 3. 0. 0. 0.
      18. 0. 0. 0. 16. 0. 0. 0. 3. 0. 0. 0. 11. 0. 0. 0. 6. 0. 0. 0. 13.
      0. 0. 0. 2. 0. 0. 0. 6. 0. 0. 0. 4. 0. 0. 0. 25. 0. 0. 0. 3. 0. 0.
      0. 16. 0. 0. 0. 21. 0. 0. 0. 176. 0. 0. 0. 21. 0. 0. 0. 14. 0. 0.
      0. 17. 0. 0. 0. 15. 0. 0. 0. 3. 0. 0. 0. 2. 0. 0. 0. 3. 0. 0. 0.
      127. 1. 0. 0. 22. 0. 0. 0. 18. 0. 0. 0. 15. 0. 0. 0. 155. 1. 0. 0.
      12. 0. 0. 0. 199. 0. 0. 0. 85. 0. 0. 0.</_>
    <_>
      83. 4. 0. 0. 155. 0. 0. 0. 71. 0. 0. 0. 115. 0. 0. 0. 163. 0. 0.
      0. 12. 0. 0. 0. 111. 0. 0. 0. 150. 0. 0. 0. 98. 0. 0. 0. 21. 0. 0.
      0. 8. 0. 0. 0. 16. 0. 0. 0. 130. 0. 0. 0. 3. 0. 0. 0. 239. 0. 0.
      0. 235. 0. 0. 0. 238. 0. 0. 0. 22. 0. 0. 0. 5. 0. 0. 0. 11. 0. 0.
      0. 8. 0. 0. 0. 1. 0. 0. 0. 6. 0. 0. 0. 5. 0. 0. 0. 196. 0. 0. 0.
      15. 0. 0. 0. 14. 0. 0. 0. 19. 0. 0. 0. 205. 0. 0. 0. 8. 0. 0. 0.
      31. 1. 0. 0. 157. 0. 0. 0. 104. 0. 0. 0. 9. 0. 0. 0. 5. 0. 0. 0.
      1. 0. 0. 0. 11. 0. 0. 0. 0. 0. 0. 0. 5. 0. 0. 0. 3. 0. 0. 0. 24.
      0. 0. 0. 2. 0. 0. 0. 3. 0. 0. 0. 2. 0. 0. 0. 28. 0. 0. 0. 2. 0. 0.
      0. 13. 0. 0. 0. 14. 0. 0. 0. 203. 0. 0. 0. 8. 0. 0. 0. 8. 0. 0. 0.
      14. 0. 0. 0. 5. 0. 0. 0. 2. 0. 0. 0. 3. 0. 0. 0. 2. 0. 0. 0. 5. 2.
      0. 0. 27. 0. 0. 0. 20. 0. 0. 0. 22. 0. 0. 0. 246. 1. 0. 0. 11. 0.
      0. 0. 31. 1. 0. 0. 114. 0. 0. 0.</_>
    <_>
      238. 3. 0. 0. 163. 0. 0. 0. 65. 0. 0. 0. 152. 0. 0. 0. 196. 0. 0.
      0. 10. 0. 0. 0. 155. 0. 0. 0. 185. 0. 0. 0. 60. 0. 0. 0. 9. 0. 0.
      0. 3. 0. 0. 0. 11. 0. 0. 0. 143. 0. 0. 0. 7. 0. 0. 0. 176. 0. 0.
      0. 217. 0. 0. 0. 145. 0. 0. 0. 10. 0. 0. 0. 8. 0. 0. 0. 11. 0. 0.
      0. 7. 0. 0. 0. 1. 0. 0. 0. 11. 0. 0. 0. 3. 0. 0. 0. 147. 0. 0. 0.
      12. 0. 0. 0. 18. 0. 0. 0. 9. 0. 0. 0. 196. 0. 0. 0. 4. 0. 0. 0.
      222. 0. 0. 0. 105. 0. 0. 0. 72. 0. 0. 0. 10. 0. 0. 0. 2. 0. 0. 0.
      8. 0. 0. 0. 7. 0. 0. 0. 0. 0. 0. 0. 7. 0. 0. 0. 11. 0. 0. 0. 6. 0.
      0. 0. 2. 0. 0. 0. 1. 0. 0. 0. 1. 0. 0. 0. 21. 0. 0. 0. 0. 0. 0. 0.
      16. 0. 0. 0. 10. 0. 0. 0. 153. 0. 0. 0. 9. 0. 0. 0. 9. 0. 0. 0. 9.
      0. 0. 0. 10. 0. 0. 0. 1. 0. 0. 0. 6. 0. 0. 0. 2. 0. 0. 0. 136. 1.
      0. 0. 11. 0. 0. 0. 21. 0. 0. 0. 23. 0. 0. 0. 116. 1. 0. 0. 3. 0.
      0. 0. 217. 0. 0. 0. 92. 0. 0. 0.</_>
    <_>
      73. 3. 0. 0. 100. 0. 0. 0. 46. 0. 0. 0. 115. 0. 0. 0. 165. 0. 0.
      0. 7. 0. 0. 0. 108. 0. 0. 0. 224. 0. 0. 0. 82. 0. 0. 0. 8. 0. 0.
      0. 3. 0. 0. 0. 9. 0. 0. 0. 140. 0. 0. 0. 5. 0. 0. 0. 199. 0. 0. 0.
      17. 1. 0. 0. 88. 0. 0. 0. 5. 0. 0. 0. 6. 0. 0. 0. 2. 0. 0. 0. 4.
      0. 0. 0. 1. 0. 0. 0. 3. 0. 0. 0. 1. 0. 0. 0. 152. 0. 0. 0. 6. 0.
      0. 0. 8. 0. 0. 0. 10. 0. 0. 0. 232. 0. 0. 0. 2. 0. 0. 0. 226. 0.
      0. 0. 110. 0. 0. 0. 64. 0. 0. 0. 7. 0. 0. 0. 4. 0. 0. 0. 5. 0. 0.
      0. 13. 0. 0. 0. 0. 0. 0. 0. 8. 0. 0. 0. 4. 0. 0. 0. 9. 0. 0. 0. 2.
      0. 0. 0. 0. 0. 0. 0. 0. 0. 0. 0. 13. 0. 0. 0. 1. 0. 0. 0. 9. 0. 0.
      0. 12. 0. 0. 0. 132. 0. 0. 0. 8. 0. 0. 0. 3. 0. 0. 0. 5. 0. 0. 0.
      9. 0. 0. 0. 0. 0. 0. 0. 6. 0. 0. 0. 3. 0. 0. 0. 59. 2. 0. 0. 9. 0.
      0. 0. 18. 0. 0. 0. 23. 0. 0. 0. 59. 3. 0. 0. 1. 0. 0. 0. 10. 1. 0.
      0. 96. 0. 0. 0.</_>
    <_>
      240. 4. 0. 0. 181. 0. 0. 0. 108. 0. 0. 0. 187. 0. 0. 0. 223. 0. 0.
      0. 31. 0. 0. 0. 181. 0. 0. 0. 249. 0. 0. 0. 79. 0. 0. 0. 13. 0. 0.
      0. 26. 0. 0. 0. 11. 0. 0. 0. 131. 0. 0. 0. 11. 0. 0. 0. 7. 1. 0.
      0. 8. 1. 0. 0. 149. 0. 0. 0. 28. 0. 0. 0. 10. 0. 0. 0. 8. 0. 0. 0.
      17. 0. 0. 0. 3. 0. 0. 0. 16. 0. 0. 0. 13. 0. 0. 0. 118. 0. 0. 0.
      7. 0. 0. 0. 16. 0. 0. 0. 22. 0. 0. 0. 180. 0. 0. 0. 8. 0. 0. 0.
      20. 1. 0. 0. 180. 0. 0. 0. 83. 0. 0. 0. 11. 0. 0. 0. 5. 0. 0. 0.
      5. 0. 0. 0. 13. 0. 0. 0. 1. 0. 0. 0. 7. 0. 0. 0. 9. 0. 0. 0. 13.
      0. 0. 0. 5. 0. 0. 0. 0. 0. 0. 0. 0. 0. 0. 0. 13. 0. 0. 0. 0. 0. 0.
      0. 21. 0. 0. 0. 14. 0. 0. 0. 113. 0. 0. 0. 18. 0. 0. 0. 5. 0. 0.
      0. 6. 0. 0. 0. 15. 0. 0. 0. 1. 0. 0. 0. 7. 0. 0. 0. 5. 0. 0. 0.
      235. 0. 0. 0. 10. 0. 0. 0. 25. 0. 0. 0. 26. 0. 0. 0. 30. 1. 0. 0.
      10. 0. 0. 0. 207. 0. 0. 0. 142. 0. 0. 0.</_>
    <_>
      191. 4. 0. 0. 180. 0. 0. 0. 131. 0. 0. 0. 174. 0. 0. 0. 230. 0. 0.
      0. 18. 0. 0. 0. 193. 0. 0. 0. 237. 0. 0. 0. 77. 0. 0. 0. 19. 0. 0.
      0. 12. 0. 0. 0. 22. 0. 0. 0. 153. 0. 0. 0. 9. 0. 0. 0. 26. 1. 0.
      0. 90. 1. 0. 0. 141. 0. 0. 0. 20. 0. 0. 0. 10. 0. 0. 0. 24. 0. 0.
      0. 23. 0. 0. 0. 0. 0. 0. 0. 11. 0. 0. 0. 10. 0. 0. 0. 150. 0. 0.
      0. 10. 0. 0. 0. 15. 0. 0. 0. 25. 0. 0. 0. 213. 0. 0. 0. 8. 0. 0.
      0. 55. 1. 0. 0. 193. 0. 0. 0. 62. 0. 0. 0. 7. 0. 0. 0. 3. 0. 0. 0.
      9. 0. 0. 0. 3. 0. 0. 0. 0. 0. 0. 0. 8. 0. 0. 0. 8. 0. 0. 0. 7. 0.
      0. 0. 0. 0. 0. 0. 3. 0. 0. 0. 2. 0. 0. 0. 18. 0. 0. 0. 3. 0. 0. 0.
      22. 0. 0. 0. 20. 0. 0. 0. 112. 0. 0. 0. 14. 0. 0. 0. 6. 0. 0. 0.
      10. 0. 0. 0. 7. 0. 0. 0. 0. 0. 0. 0. 8. 0. 0. 0. 1. 0. 0. 0. 225.
      0. 0. 0. 15. 0. 0. 0. 23. 0. 0. 0. 20. 0. 0. 0. 38. 1. 0. 0. 9. 0.
      0. 0. 249. 0. 0. 0. 114. 0. 0. 0.</_>
    <_>
      120. 4. 0. 0. 159. 0. 0. 0. 83. 0. 0. 0. 140. 0. 0. 0. 217. 0. 0.
      0. 19. 0. 0. 0. 139. 0. 0. 0. 219. 0. 0. 0. 100. 0. 0. 0. 14. 0.
      0. 0. 11. 0. 0. 0. 14. 0. 0. 0. 172. 0. 0. 0. 8. 0. 0. 0. 44. 1.
      0. 0. 47. 1. 0. 0. 150. 0. 0. 0. 11. 0. 0. 0. 14. 0. 0. 0. 6. 0.
      0. 0. 12. 0. 0. 0. 2. 0. 0. 0. 11. 0. 0. 0. 6. 0. 0. 0. 132. 0. 0.
      0. 8. 0. 0. 0. 25. 0. 0. 0. 17. 0. 0. 0. 197. 0. 0. 0. 6. 0. 0. 0.
      152. 1. 0. 0. 197. 0. 0. 0. 92. 0. 0. 0. 9. 0. 0. 0. 5. 0. 0. 0.
      3. 0. 0. 0. 22. 0. 0. 0. 0. 0. 0. 0. 7. 0. 0. 0. 9. 0. 0. 0. 13.
      0. 0. 0. 1. 0. 0. 0. 2. 0. 0. 0. 3. 0. 0. 0. 22. 0. 0. 0. 0. 0. 0.
      0. 19. 0. 0. 0. 15. 0. 0. 0. 119. 0. 0. 0. 4. 0. 0. 0. 3. 0. 0. 0.
      12. 0. 0. 0. 12. 0. 0. 0. 1. 0. 0. 0. 7. 0. 0. 0. 5. 0. 0. 0. 7.
      1. 0. 0. 14. 0. 0. 0. 19. 0. 0. 0. 24. 0. 0. 0. 70. 1. 0. 0. 5. 0.
      0. 0. 213. 0. 0. 0. 107. 0. 0. 0.</_>
    <_>
      201. 5. 0. 0. 122. 0. 0. 0. 116. 0. 0. 0. 90. 0. 0. 0. 201. 0. 0.
      0. 19. 0. 0. 0. 82. 0. 0. 0. 112. 0. 0. 0. 157. 0. 0. 0. 17. 0. 0.
      0. 25. 0. 0. 0. 9. 0. 0. 0. 110. 0. 0. 0. 11. 0. 0. 0. 154. 0. 0.
      0. 129. 0. 0. 0. 186. 0. 0. 0. 18. 0. 0. 0. 18. 0. 0. 0. 8. 0. 0.
      0. 24. 0. 0. 0. 0. 0. 0. 0. 14. 0. 0. 0. 7. 0. 0. 0. 134. 0. 0. 0.
      8. 0. 0. 0. 8. 0. 0. 0. 19. 0. 0. 0. 131. 0. 0. 0. 14. 0. 0. 0.
      176. 0. 0. 0. 87. 0. 0. 0. 160. 0. 0. 0. 13. 0. 0. 0. 13. 0. 0. 0.
      3. 0. 0. 0. 31. 0. 0. 0. 0. 0. 0. 0. 6. 0. 0. 0. 5. 0. 0. 0. 45.
      0. 0. 0. 3. 0. 0. 0. 3. 0. 0. 0. 2. 0. 0. 0. 32. 0. 0. 0. 1. 0. 0.
      0. 33. 0. 0. 0. 7. 0. 0. 0. 145. 0. 0. 0. 11. 0. 0. 0. 5. 0. 0. 0.
      9. 0. 0. 0. 21. 0. 0. 0. 1. 0. 0. 0. 3. 0. 0. 0. 5. 0. 0. 0. 5. 2.
      0. 0. 24. 0. 0. 0. 38. 0. 0. 0. 18. 0. 0. 0. 196. 1. 0. 0. 16. 0.
      0. 0. 194. 0. 0. 0. 86. 0. 0. 0.</_>
    <_>
      71. 8. 0. 0. 196. 0. 0. 0. 136. 0. 0. 0. 129. 0. 0. 0. 20. 1. 0.
      0. 33. 0. 0. 0. 130. 0. 0. 0. 110. 0. 0. 0. 165. 0. 0. 0. 26. 0.
      0. 0. 28. 0. 0. 0. 20. 0. 0. 0. 147. 0. 0. 0. 16. 0. 0. 0. 134. 0.
      0. 0. 118. 0. 0. 0. 232. 0. 0. 0. 42. 0. 0. 0. 18. 0. 0. 0. 17. 0.
      0. 0. 41. 0. 0. 0. 9. 0. 0. 0. 16. 0. 0. 0. 12. 0. 0. 0. 148. 0.
      0. 0. 21. 0. 0. 0. 23. 0. 0. 0. 30. 0. 0. 0. 162. 0. 0. 0. 15. 0.
      0. 0. 176. 0. 0. 0. 107. 0. 0. 0. 118. 0. 0. 0. 16. 0. 0. 0. 14.
      0. 0. 0. 13. 0. 0. 0. 37. 0. 0. 0. 1. 0. 0. 0. 14. 0. 0. 0. 15. 0.
      0. 0. 40. 0. 0. 0. 4. 0. 0. 0. 7. 0. 0. 0. 9. 0. 0. 0. 21. 0. 0.
      0. 4. 0. 0. 0. 32. 0. 0. 0. 25. 0. 0. 0. 90. 0. 0. 0. 21. 0. 0. 0.
      12. 0. 0. 0. 9. 0. 0. 0. 15. 0. 0. 0. 2. 0. 0. 0. 12. 0. 0. 0. 10.
      0. 0. 0. 135. 0. 0. 0. 31. 0. 0. 0. 35. 0. 0. 0. 30. 0. 0. 0. 198.
      0. 0. 0. 26. 0. 0. 0. 171. 0. 0. 0. 128. 0. 0. 0.</_>
    <_>
      119. 2. 0. 0. 75. 0. 0. 0. 67. 0. 0. 0. 109. 0. 0. 0. 112. 0. 0.
      0. 2. 0. 0. 0. 99. 0. 0. 0. 247. 0. 0. 0. 76. 0. 0. 0. 1. 0. 0. 0.
      6. 0. 0. 0. 5. 0. 0. 0. 95. 0. 0. 0. 1. 0. 0. 0. 1. 1. 0. 0. 56.
      1. 0. 0. 65. 0. 0. 0. 6. 0. 0. 0. 0. 0. 0. 0. 2. 0. 0. 0. 4. 0. 0.
      0. 0. 0. 0. 0. 1. 0. 0. 0. 0. 0. 0. 0. 111. 0. 0. 0. 3. 0. 0. 0.
      3. 0. 0. 0. 10. 0. 0. 0. 230. 0. 0. 0. 2. 0. 0. 0. 62. 1. 0. 0.
      92. 0. 0. 0. 78. 0. 0. 0. 4. 0. 0. 0. 5. 0. 0. 0. 4. 0. 0. 0. 9.
      0. 0. 0. 0. 0. 0. 0. 5. 0. 0. 0. 5. 0. 0. 0. 9. 0. 0. 0. 0. 0. 0.
      0. 0. 0. 0. 0. 1. 0. 0. 0. 10. 0. 0. 0. 0. 0. 0. 0. 8. 0. 0. 0.
      12. 0. 0. 0. 139. 0. 0. 0. 5. 0. 0. 0. 7. 0. 0. 0. 5. 0. 0. 0. 1.
      0. 0. 0. 0. 0. 0. 0. 4. 0. 0. 0. 1. 0. 0. 0. 43. 2. 0. 0. 4. 0. 0.
      0. 16. 0. 0. 0. 9. 0. 0. 0. 226. 2. 0. 0. 1. 0. 0. 0. 224. 0. 0.
      0. 39. 0. 0. 0.</_>
    <_>
      231. 1. 0. 0. 54. 0. 0. 0. 41. 0. 0. 0. 124. 0. 0. 0. 57. 0. 0. 0.
      0. 0. 0. 0. 122. 0. 0. 0. 8. 1. 0. 0. 41. 0. 0. 0. 2. 0. 0. 0. 4.
      0. 0. 0. 1. 0. 0. 0. 86. 0. 0. 0. 1. 0. 0. 0. 39. 1. 0. 0. 75. 1.
      0. 0. 47. 0. 0. 0. 1. 0. 0. 0. 1. 0. 0. 0. 3. 0. 0. 0. 2. 0. 0. 0.
      0. 0. 0. 0. 0. 0. 0. 0. 0. 0. 0. 0. 92. 0. 0. 0. 1. 0. 0. 0. 2. 0.
      0. 0. 3. 0. 0. 0. 6. 1. 0. 0. 2. 0. 0. 0. 55. 2. 0. 0. 103. 0. 0.
      0. 52. 0. 0. 0. 2. 0. 0. 0. 2. 0. 0. 0. 2. 0. 0. 0. 4. 0. 0. 0. 0.
      0. 0. 0. 5. 0. 0. 0. 1. 0. 0. 0. 6. 0. 0. 0. 0. 0. 0. 0. 0. 0. 0.
      0. 0. 0. 0. 0. 4. 0. 0. 0. 0. 0. 0. 0. 6. 0. 0. 0. 4. 0. 0. 0.
      137. 0. 0. 0. 1. 0. 0. 0. 4. 0. 0. 0. 1. 0. 0. 0. 3. 0. 0. 0. 0.
      0. 0. 0. 1. 0. 0. 0. 0. 0. 0. 0. 145. 1. 0. 0. 2. 0. 0. 0. 19. 0.
      0. 0. 7. 0. 0. 0. 32. 3. 0. 0. 1. 0. 0. 0. 24. 1. 0. 0. 46. 0. 0.
      0.</_>
    <_>
      60. 1. 0. 0. 45. 0. 0. 0. 38. 0. 0. 0. 107. 0. 0. 0. 57. 0. 0. 0.
      0. 0. 0. 0. 105. 0. 0. 0. 38. 1. 0. 0. 43. 0. 0. 0. 2. 0. 0. 0. 1.
      0. 0. 0. 1. 0. 0. 0. 92. 0. 0. 0. 3. 0. 0. 0. 136. 1. 0. 0. 87. 2.
      0. 0. 38. 0. 0. 0. 3. 0. 0. 0. 0. 0. 0. 0. 0. 0. 0. 0. 1. 0. 0. 0.
      0. 0. 0. 0. 0. 0. 0. 0. 1. 0. 0. 0. 96. 0. 0. 0. 1. 0. 0. 0. 2. 0.
      0. 0. 3. 0. 0. 0. 121. 1. 0. 0. 0. 0. 0. 0. 51. 2. 0. 0. 110. 0.
      0. 0. 41. 0. 0. 0. 3. 0. 0. 0. 2. 0. 0. 0. 4. 0. 0. 0. 0. 0. 0. 0.
      0. 0. 0. 0. 2. 0. 0. 0. 2. 0. 0. 0. 5. 0. 0. 0. 0. 0. 0. 0. 1. 0.
      0. 0. 0. 0. 0. 0. 3. 0. 0. 0. 0. 0. 0. 0. 5. 0. 0. 0. 6. 0. 0. 0.
      110. 0. 0. 0. 2. 0. 0. 0. 4. 0. 0. 0. 2. 0. 0. 0. 2. 0. 0. 0. 0.
      0. 0. 0. 3. 0. 0. 0. 0. 0. 0. 0. 121. 2. 0. 0. 1. 0. 0. 0. 8. 0.
      0. 0. 5. 0. 0. 0. 26. 4. 0. 0. 0. 0. 0. 0. 92. 1. 0. 0. 56. 0. 0.
      0.</_>
    <_>
      98. 2. 0. 0. 104. 0. 0. 0. 69. 0. 0. 0. 138. 0. 0. 0. 48. 0. 0. 0.
      0. 0. 0. 0. 103. 0. 0. 0. 200. 0. 0. 0. 68. 0. 0. 0. 1. 0. 0. 0.
      4. 0. 0. 0. 2. 0. 0. 0. 79. 0. 0. 0. 1. 0. 0. 0. 36. 1. 0. 0. 82.
      1. 0. 0. 83. 0. 0. 0. 4. 0. 0. 0. 3. 0. 0. 0. 0. 0. 0. 0. 1. 0. 0.
      0. 0. 0. 0. 0. 1. 0. 0. 0. 0. 0. 0. 0. 97. 0. 0. 0. 1. 0. 0. 0. 6.
      0. 0. 0. 5. 0. 0. 0. 191. 0. 0. 0. 0. 0. 0. 0. 82. 1. 0. 0. 44. 0.
      0. 0. 67. 0. 0. 0. 2. 0. 0. 0. 7. 0. 0. 0. 1. 0. 0. 0. 2. 0. 0. 0.
      0. 0. 0. 0. 3. 0. 0. 0. 2. 0. 0. 0. 3. 0. 0. 0. 0. 0. 0. 0. 0. 0.
      0. 0. 1. 0. 0. 0. 9. 0. 0. 0. 0. 0. 0. 0. 17. 0. 0. 0. 3. 0. 0. 0.
      163. 0. 0. 0. 1. 0. 0. 0. 5. 0. 0. 0. 3. 0. 0. 0. 0. 0. 0. 0. 0.
      0. 0. 0. 1. 0. 0. 0. 0. 0. 0. 0. 26. 2. 0. 0. 3. 0. 0. 0. 16. 0.
      0. 0. 8. 0. 0. 0. 154. 2. 0. 0. 0. 0. 0. 0. 206. 0. 0. 0. 33. 0.
      0. 0.</_>
    <_>
      207. 1. 0. 0. 39. 0. 0. 0. 43. 0. 0. 0. 104. 0. 0. 0. 93. 0. 0. 0.
      1. 0. 0. 0. 103. 0. 0. 0. 238. 0. 0. 0. 42. 0. 0. 0. 6. 0. 0. 0.
      2. 0. 0. 0. 1. 0. 0. 0. 120. 0. 0. 0. 0. 0. 0. 0. 19. 1. 0. 0.
      213. 1. 0. 0. 62. 0. 0. 0. 5. 0. 0. 0. 3. 0. 0. 0. 2. 0. 0. 0. 2.
      0. 0. 0. 0. 0. 0. 0. 4. 0. 0. 0. 1. 0. 0. 0. 119. 0. 0. 0. 5. 0.
      0. 0. 4. 0. 0. 0. 9. 0. 0. 0. 254. 0. 0. 0. 2. 0. 0. 0. 175. 1. 0.
      0. 91. 0. 0. 0. 62. 0. 0. 0. 0. 0. 0. 0. 6. 0. 0. 0. 3. 0. 0. 0.
      4. 0. 0. 0. 0. 0. 0. 0. 4. 0. 0. 0. 1. 0. 0. 0. 3. 0. 0. 0. 0. 0.
      0. 0. 0. 0. 0. 0. 0. 0. 0. 0. 8. 0. 0. 0. 0. 0. 0. 0. 13. 0. 0. 0.
      6. 0. 0. 0. 128. 0. 0. 0. 4. 0. 0. 0. 1. 0. 0. 0. 3. 0. 0. 0. 7.
      0. 0. 0. 0. 0. 0. 0. 1. 0. 0. 0. 0. 0. 0. 0. 95. 2. 0. 0. 2. 0. 0.
      0. 14. 0. 0. 0. 7. 0. 0. 0. 62. 3. 0. 0. 0. 0. 0. 0. 22. 1. 0. 0.
      46. 0. 0. 0.</_>
    <_>
      213. 1. 0. 0. 44. 0. 0. 0. 60. 0. 0. 0. 133. 0. 0. 0. 72. 0. 0. 0.
      0. 0. 0. 0. 118. 0. 0. 0. 4. 1. 0. 0. 30. 0. 0. 0. 0. 0. 0. 0. 3.
      0. 0. 0. 4. 0. 0. 0. 94. 0. 0. 0. 0. 0. 0. 0. 69. 1. 0. 0. 178. 1.
      0. 0. 27. 0. 0. 0. 1. 0. 0. 0. 2. 0. 0. 0. 1. 0. 0. 0. 0. 0. 0. 0.
      0. 0. 0. 0. 0. 0. 0. 0. 0. 0. 0. 0. 89. 0. 0. 0. 1. 0. 0. 0. 1. 0.
      0. 0. 4. 0. 0. 0. 212. 0. 0. 0. 1. 0. 0. 0. 168. 1. 0. 0. 74. 0.
      0. 0. 87. 0. 0. 0. 1. 0. 0. 0. 6. 0. 0. 0. 0. 0. 0. 0. 0. 0. 0. 0.
      0. 0. 0. 0. 0. 0. 0. 0. 1. 0. 0. 0. 5. 0. 0. 0. 0. 0. 0. 0. 0. 0.
      0. 0. 0. 0. 0. 0. 4. 0. 0. 0. 0. 0. 0. 0. 6. 0. 0. 0. 1. 0. 0. 0.
      107. 0. 0. 0. 0. 0. 0. 0. 1. 0. 0. 0. 2. 0. 0. 0. 1. 0. 0. 0. 0.
      0. 0. 0. 2. 0. 0. 0. 0. 0. 0. 0. 215. 1. 0. 0. 1. 0. 0. 0. 8. 0.
      0. 0. 2. 0. 0. 0. 171. 2. 0. 0. 1. 0. 0. 0. 248. 0. 0. 0. 36. 0.
      0. 0.</_>
    <_>
      4. 5. 0. 0. 136. 0. 0. 0. 87. 0. 0. 0. 144. 0. 0. 0. 134. 0. 0. 0.
      5. 0. 0. 0. 116. 0. 0. 0. 216. 0. 0. 0. 111. 0. 0. 0. 5. 0. 0. 0.
      9. 0. 0. 0. 11. 0. 0. 0. 172. 0. 0. 0. 8. 0. 0. 0. 48. 1. 0. 0.
      49. 1. 0. 0. 126. 0. 0. 0. 16. 0. 0. 0. 6. 0. 0. 0. 2. 0. 0. 0. 6.
      0. 0. 0. 1. 0. 0. 0. 3. 0. 0. 0. 4. 0. 0. 0. 218. 0. 0. 0. 14. 0.
      0. 0. 9. 0. 0. 0. 13. 0. 0. 0. 232. 0. 0. 0. 3. 0. 0. 0. 64. 1. 0.
      0. 130. 0. 0. 0. 89. 0. 0. 0. 6. 0. 0. 0. 12. 0. 0. 0. 8. 0. 0. 0.
      9. 0. 0. 0. 1. 0. 0. 0. 10. 0. 0. 0. 7. 0. 0. 0. 17. 0. 0. 0. 1.
      0. 0. 0. 1. 0. 0. 0. 1. 0. 0. 0. 28. 0. 0. 0. 0. 0. 0. 0. 24. 0.
      0. 0. 14. 0. 0. 0. 173. 0. 0. 0. 7. 0. 0. 0. 8. 0. 0. 0. 5. 0. 0.
      0. 1. 0. 0. 0. 0. 0. 0. 0. 1. 0. 0. 0. 3. 0. 0. 0. 39. 2. 0. 0.
      14. 0. 0. 0. 26. 0. 0. 0. 15. 0. 0. 0. 20. 2. 0. 0. 2. 0. 0. 0.
      87. 1. 0. 0. 104. 0. 0. 0.</_>
    <_>
      151. 1. 0. 0. 75. 0. 0. 0. 38. 0. 0. 0. 96. 0. 0. 0. 79. 0. 0. 0.
      0. 0. 0. 0. 99. 0. 0. 0. 231. 0. 0. 0. 41. 0. 0. 0. 1. 0. 0. 0. 1.
      0. 0. 0. 3. 0. 0. 0. 96. 0. 0. 0. 1. 0. 0. 0. 252. 0. 0. 0. 95. 1.
      0. 0. 49. 0. 0. 0. 2. 0. 0. 0. 1. 0. 0. 0. 1. 0. 0. 0. 1. 0. 0. 0.
      0. 0. 0. 0. 1. 0. 0. 0. 1. 0. 0. 0. 111. 0. 0. 0. 2. 0. 0. 0. 4.
      0. 0. 0. 4. 0. 0. 0. 192. 0. 0. 0. 1. 0. 0. 0. 35. 1. 0. 0. 66. 0.
      0. 0. 57. 0. 0. 0. 1. 0. 0. 0. 6. 0. 0. 0. 4. 0. 0. 0. 1. 0. 0. 0.
      0. 0. 0. 0. 4. 0. 0. 0. 1. 0. 0. 0. 1. 0. 0. 0. 0. 0. 0. 0. 0. 0.
      0. 0. 0. 0. 0. 0. 3. 0. 0. 0. 0. 0. 0. 0. 10. 0. 0. 0. 3. 0. 0. 0.
      116. 0. 0. 0. 3. 0. 0. 0. 3. 0. 0. 0. 0. 0. 0. 0. 2. 0. 0. 0. 0.
      0. 0. 0. 0. 0. 0. 0. 1. 0. 0. 0. 124. 2. 0. 0. 1. 0. 0. 0. 9. 0.
      0. 0. 5. 0. 0. 0. 8. 3. 0. 0. 0. 0. 0. 0. 0. 1. 0. 0. 25. 0. 0. 0.</_>
    <_>
      99. 3. 0. 0. 36. 0. 0. 0. 55. 0. 0. 0. 93. 0. 0. 0. 27. 0. 0. 0.
      0. 0. 0. 0. 71. 0. 0. 0. 151. 0. 0. 0. 86. 0. 0. 0. 2. 0. 0. 0. 2.
      0. 0. 0. 3. 0. 0. 0. 87. 0. 0. 0. 1. 0. 0. 0. 55. 1. 0. 0. 101. 1.
      0. 0. 30. 0. 0. 0. 2. 0. 0. 0. 0. 0. 0. 0. 0. 0. 0. 0. 0. 0. 0. 0.
      0. 0. 0. 0. 0. 0. 0. 0. 0. 0. 0. 0. 106. 0. 0. 0. 0. 0. 0. 0. 1.
      0. 0. 0. 4. 0. 0. 0. 0. 1. 0. 0. 1. 0. 0. 0. 121. 1. 0. 0. 46. 0.
      0. 0. 123. 0. 0. 0. 3. 0. 0. 0. 14. 0. 0. 0. 3. 0. 0. 0. 1. 0. 0.
      0. 0. 0. 0. 0. 1. 0. 0. 0. 0. 0. 0. 0. 18. 0. 0. 0. 0. 0. 0. 0. 0.
      0. 0. 0. 0. 0. 0. 0. 13. 0. 0. 0. 0. 0. 0. 0. 14. 0. 0. 0. 2. 0.
      0. 0. 134. 0. 0. 0. 2. 0. 0. 0. 5. 0. 0. 0. 0. 0. 0. 0. 1. 0. 0.
      0. 0. 0. 0. 0. 0. 0. 0. 0. 2. 0. 0. 0. 4. 3. 0. 0. 0. 0. 0. 0. 20.
      0. 0. 0. 4. 0. 0. 0. 16. 3. 0. 0. 0. 0. 0. 0. 8. 1. 0. 0. 24. 0.
      0. 0.</_>
    <_>
      156. 5. 0. 0. 216. 0. 0. 0. 119. 0. 0. 0. 141. 0. 0. 0. 229. 0. 0.
      0. 20. 0. 0. 0. 121. 0. 0. 0. 185. 0. 0. 0. 100. 0. 0. 0. 10. 0.
      0. 0. 20. 0. 0. 0. 25. 0. 0. 0. 105. 0. 0. 0. 10. 0. 0. 0. 202. 0.
      0. 0. 4. 1. 0. 0. 166. 0. 0. 0. 29. 0. 0. 0. 11. 0. 0. 0. 24. 0.
      0. 0. 20. 0. 0. 0. 1. 0. 0. 0. 11. 0. 0. 0. 12. 0. 0. 0. 125. 0.
      0. 0. 16. 0. 0. 0. 15. 0. 0. 0. 11. 0. 0. 0. 121. 0. 0. 0. 6. 0.
      0. 0. 207. 0. 0. 0. 166. 0. 0. 0. 91. 0. 0. 0. 17. 0. 0. 0. 10. 0.
      0. 0. 4. 0. 0. 0. 15. 0. 0. 0. 1. 0. 0. 0. 7. 0. 0. 0. 4. 0. 0. 0.
      21. 0. 0. 0. 4. 0. 0. 0. 5. 0. 0. 0. 2. 0. 0. 0. 10. 0. 0. 0. 1.
      0. 0. 0. 14. 0. 0. 0. 17. 0. 0. 0. 103. 0. 0. 0. 7. 0. 0. 0. 13.
      0. 0. 0. 11. 0. 0. 0. 8. 0. 0. 0. 0. 0. 0. 0. 10. 0. 0. 0. 5. 0.
      0. 0. 234. 0. 0. 0. 9. 0. 0. 0. 13. 0. 0. 0. 26. 0. 0. 0. 204. 0.
      0. 0. 11. 0. 0. 0. 151. 0. 0. 0. 95. 0. 0. 0.</_>
    <_>
      238. 5. 0. 0. 208. 0. 0. 0. 168. 0. 0. 0. 140. 0. 0. 0. 187. 0. 0.
      0. 27. 0. 0. 0. 136. 0. 0. 0. 130. 0. 0. 0. 115. 0. 0. 0. 16. 0.
      0. 0. 15. 0. 0. 0. 20. 0. 0. 0. 126. 0. 0. 0. 11. 0. 0. 0. 218. 0.
      0. 0. 202. 0. 0. 0. 184. 0. 0. 0. 21. 0. 0. 0. 19. 0. 0. 0. 14. 0.
      0. 0. 18. 0. 0. 0. 6. 0. 0. 0. 13. 0. 0. 0. 8. 0. 0. 0. 117. 0. 0.
      0. 11. 0. 0. 0. 16. 0. 0. 0. 27. 0. 0. 0. 105. 0. 0. 0. 8. 0. 0.
      0. 227. 0. 0. 0. 161. 0. 0. 0. 117. 0. 0. 0. 12. 0. 0. 0. 10. 0.
      0. 0. 13. 0. 0. 0. 17. 0. 0. 0. 0. 0. 0. 0. 11. 0. 0. 0. 8. 0. 0.
      0. 25. 0. 0. 0. 4. 0. 0. 0. 4. 0. 0. 0. 3. 0. 0. 0. 14. 0. 0. 0.
      4. 0. 0. 0. 25. 0. 0. 0. 16. 0. 0. 0. 134. 0. 0. 0. 15. 0. 0. 0.
      12. 0. 0. 0. 10. 0. 0. 0. 12. 0. 0. 0. 1. 0. 0. 0. 6. 0. 0. 0. 3.
      0. 0. 0. 174. 0. 0. 0. 14. 0. 0. 0. 15. 0. 0. 0. 14. 0. 0. 0. 179.
      0. 0. 0. 3. 0. 0. 0. 161. 0. 0. 0. 116. 0. 0. 0.</_>
    <_>
      44. 2. 0. 0. 50. 0. 0. 0. 58. 0. 0. 0. 122. 0. 0. 0. 64. 0. 0. 0.
      0. 0. 0. 0. 116. 0. 0. 0. 8. 1. 0. 0. 53. 0. 0. 0. 2. 0. 0. 0. 5.
      0. 0. 0. 5. 0. 0. 0. 131. 0. 0. 0. 1. 0. 0. 0. 64. 1. 0. 0. 203.
      1. 0. 0. 39. 0. 0. 0. 1. 0. 0. 0. 1. 0. 0. 0. 3. 0. 0. 0. 0. 0. 0.
      0. 0. 0. 0. 0. 0. 0. 0. 0. 0. 0. 0. 0. 86. 0. 0. 0. 2. 0. 0. 0. 6.
      0. 0. 0. 5. 0. 0. 0. 222. 0. 0. 0. 0. 0. 0. 0. 104. 1. 0. 0. 111.
      0. 0. 0. 70. 0. 0. 0. 2. 0. 0. 0. 5. 0. 0. 0. 5. 0. 0. 0. 1. 0. 0.
      0. 0. 0. 0. 0. 3. 0. 0. 0. 1. 0. 0. 0. 8. 0. 0. 0. 0. 0. 0. 0. 0.
      0. 0. 0. 0. 0. 0. 0. 2. 0. 0. 0. 0. 0. 0. 0. 10. 0. 0. 0. 1. 0. 0.
      0. 100. 0. 0. 0. 1. 0. 0. 0. 0. 0. 0. 0. 1. 0. 0. 0. 1. 0. 0. 0.
      0. 0. 0. 0. 2. 0. 0. 0. 0. 0. 0. 0. 22. 2. 0. 0. 2. 0. 0. 0. 17.
      0. 0. 0. 6. 0. 0. 0. 18. 3. 0. 0. 0. 0. 0. 0. 253. 0. 0. 0. 37. 0.
      0. 0.</_>
    <_>
      124. 1. 0. 0. 19. 0. 0. 0. 34. 0. 0. 0. 88. 0. 0. 0. 50. 0. 0. 0.
      1. 0. 0. 0. 104. 0. 0. 0. 64. 1. 0. 0. 47. 0. 0. 0. 0. 0. 0. 0. 6.
      0. 0. 0. 2. 0. 0. 0. 110. 0. 0. 0. 0. 0. 0. 0. 240. 0. 0. 0. 99.
      2. 0. 0. 28. 0. 0. 0. 1. 0. 0. 0. 0. 0. 0. 0. 0. 0. 0. 0. 0. 0. 0.
      0. 0. 0. 0. 0. 0. 0. 0. 0. 2. 0. 0. 0. 76. 0. 0. 0. 0. 0. 0. 0. 1.
      0. 0. 0. 2. 0. 0. 0. 199. 0. 0. 0. 0. 0. 0. 0. 67. 1. 0. 0. 57. 0.
      0. 0. 35. 0. 0. 0. 0. 0. 0. 0. 4. 0. 0. 0. 1. 0. 0. 0. 1. 0. 0. 0.
      0. 0. 0. 0. 1. 0. 0. 0. 1. 0. 0. 0. 5. 0. 0. 0. 0. 0. 0. 0. 0. 0.
      0. 0. 0. 0. 0. 0. 2. 0. 0. 0. 0. 0. 0. 0. 7. 0. 0. 0. 7. 0. 0. 0.
      66. 0. 0. 0. 0. 0. 0. 0. 3. 0. 0. 0. 0. 0. 0. 0. 0. 0. 0. 0. 0. 0.
      0. 0. 0. 0. 0. 0. 0. 0. 0. 0. 239. 1. 0. 0. 3. 0. 0. 0. 16. 0. 0.
      0. 5. 0. 0. 0. 84. 2. 0. 0. 0. 0. 0. 0. 183. 0. 0. 0. 39. 0. 0. 0.</_>
    <_>
      26. 2. 0. 0. 51. 0. 0. 0. 44. 0. 0. 0. 91. 0. 0. 0. 124. 0. 0. 0.
      11. 0. 0. 0. 93. 0. 0. 0. 15. 1. 0. 0. 88. 0. 0. 0. 1. 0. 0. 0. 6.
      0. 0. 0. 5. 0. 0. 0. 133. 0. 0. 0. 6. 0. 0. 0. 18. 1. 0. 0. 38. 2.
      0. 0. 92. 0. 0. 0. 1. 0. 0. 0. 1. 0. 0. 0. 2. 0. 0. 0. 3. 0. 0. 0.
      0. 0. 0. 0. 1. 0. 0. 0. 0. 0. 0. 0. 138. 0. 0. 0. 5. 0. 0. 0. 11.
      0. 0. 0. 10. 0. 0. 0. 236. 0. 0. 0. 0. 0. 0. 0. 75. 2. 0. 0. 117.
      0. 0. 0. 47. 0. 0. 0. 1. 0. 0. 0. 10. 0. 0. 0. 2. 0. 0. 0. 2. 0.
      0. 0. 0. 0. 0. 0. 0. 0. 0. 0. 4. 0. 0. 0. 3. 0. 0. 0. 0. 0. 0. 0.
      0. 0. 0. 0. 1. 0. 0. 0. 8. 0. 0. 0. 1. 0. 0. 0. 14. 0. 0. 0. 20.
      0. 0. 0. 102. 0. 0. 0. 4. 0. 0. 0. 5. 0. 0. 0. 1. 0. 0. 0. 2. 0.
      0. 0. 0. 0. 0. 0. 4. 0. 0. 0. 2. 0. 0. 0. 121. 1. 0. 0. 5. 0. 0.
      0. 15. 0. 0. 0. 10. 0. 0. 0. 143. 2. 0. 0. 1. 0. 0. 0. 43. 1. 0.
      0. 78. 0. 0. 0.</_>
    <_>
      138. 3. 0. 0. 83. 0. 0. 0. 74. 0. 0. 0. 102. 0. 0. 0. 238. 0. 0.
      0. 9. 0. 0. 0. 111. 0. 0. 0. 206. 0. 0. 0. 92. 0. 0. 0. 2. 0. 0.
      0. 14. 0. 0. 0. 6. 0. 0. 0. 123. 0. 0. 0. 2. 0. 0. 0. 15. 1. 0. 0.
      67. 1. 0. 0. 110. 0. 0. 0. 8. 0. 0. 0. 3. 0. 0. 0. 4. 0. 0. 0. 12.
      0. 0. 0. 0. 0. 0. 0. 8. 0. 0. 0. 1. 0. 0. 0. 147. 0. 0. 0. 4. 0.
      0. 0. 10. 0. 0. 0. 6. 0. 0. 0. 237. 0. 0. 0. 1. 0. 0. 0. 156. 1.
      0. 0. 101. 0. 0. 0. 82. 0. 0. 0. 10. 0. 0. 0. 5. 0. 0. 0. 3. 0. 0.
      0. 19. 0. 0. 0. 2. 0. 0. 0. 6. 0. 0. 0. 1. 0. 0. 0. 11. 0. 0. 0.
      0. 0. 0. 0. 0. 0. 0. 0. 0. 0. 0. 0. 13. 0. 0. 0. 0. 0. 0. 0. 12.
      0. 0. 0. 17. 0. 0. 0. 135. 0. 0. 0. 2. 0. 0. 0. 2. 0. 0. 0. 2. 0.
      0. 0. 22. 0. 0. 0. 0. 0. 0. 0. 5. 0. 0. 0. 4. 0. 0. 0. 190. 1. 0.
      0. 4. 0. 0. 0. 8. 0. 0. 0. 13. 0. 0. 0. 7. 3. 0. 0. 3. 0. 0. 0.
      254. 0. 0. 0. 68. 0. 0. 0.</_>
    <_>
      13. 2. 0. 0. 60. 0. 0. 0. 74. 0. 0. 0. 171. 0. 0. 0. 92. 0. 0. 0.
      1. 0. 0. 0. 132. 0. 0. 0. 247. 0. 0. 0. 47. 0. 0. 0. 4. 0. 0. 0.
      3. 0. 0. 0. 5. 0. 0. 0. 92. 0. 0. 0. 0. 0. 0. 0. 66. 1. 0. 0. 29.
      2. 0. 0. 47. 0. 0. 0. 3. 0. 0. 0. 1. 0. 0. 0. 3. 0. 0. 0. 1. 0. 0.
      0. 0. 0. 0. 0. 1. 0. 0. 0. 0. 0. 0. 0. 68. 0. 0. 0. 0. 0. 0. 0. 9.
      0. 0. 0. 4. 0. 0. 0. 222. 0. 0. 0. 0. 0. 0. 0. 226. 1. 0. 0. 68.
      0. 0. 0. 36. 0. 0. 0. 1. 0. 0. 0. 5. 0. 0. 0. 6. 0. 0. 0. 2. 0. 0.
      0. 0. 0. 0. 0. 1. 0. 0. 0. 2. 0. 0. 0. 7. 0. 0. 0. 0. 0. 0. 0. 1.
      0. 0. 0. 0. 0. 0. 0. 6. 0. 0. 0. 0. 0. 0. 0. 6. 0. 0. 0. 7. 0. 0.
      0. 89. 0. 0. 0. 4. 0. 0. 0. 1. 0. 0. 0. 2. 0. 0. 0. 1. 0. 0. 0. 0.
      0. 0. 0. 0. 0. 0. 0. 0. 0. 0. 0. 110. 2. 0. 0. 2. 0. 0. 0. 10. 0.
      0. 0. 9. 0. 0. 0. 201. 3. 0. 0. 0. 0. 0. 0. 1. 1. 0. 0. 48. 0. 0.
      0.</_>
    <_>
      223. 2. 0. 0. 86. 0. 0. 0. 77. 0. 0. 0. 136. 0. 0. 0. 146. 0. 0.
      0. 1. 0. 0. 0. 127. 0. 0. 0. 214. 0. 0. 0. 57. 0. 0. 0. 2. 0. 0.
      0. 7. 0. 0. 0. 7. 0. 0. 0. 95. 0. 0. 0. 2. 0. 0. 0. 4. 1. 0. 0.
      42. 1. 0. 0. 78. 0. 0. 0. 1. 0. 0. 0. 2. 0. 0. 0. 3. 0. 0. 0. 4.
      0. 0. 0. 0. 0. 0. 0. 1. 0. 0. 0. 1. 0. 0. 0. 108. 0. 0. 0. 0. 0.
      0. 0. 4. 0. 0. 0. 9. 0. 0. 0. 202. 0. 0. 0. 0. 0. 0. 0. 72. 1. 0.
      0. 56. 0. 0. 0. 71. 0. 0. 0. 2. 0. 0. 0. 4. 0. 0. 0. 3. 0. 0. 0.
      8. 0. 0. 0. 0. 0. 0. 0. 6. 0. 0. 0. 2. 0. 0. 0. 7. 0. 0. 0. 0. 0.
      0. 0. 2. 0. 0. 0. 1. 0. 0. 0. 7. 0. 0. 0. 0. 0. 0. 0. 11. 0. 0. 0.
      6. 0. 0. 0. 90. 0. 0. 0. 2. 0. 0. 0. 4. 0. 0. 0. 1. 0. 0. 0. 9. 0.
      0. 0. 0. 0. 0. 0. 4. 0. 0. 0. 0. 0. 0. 0. 174. 1. 0. 0. 2. 0. 0.
      0. 23. 0. 0. 0. 11. 0. 0. 0. 191. 2. 0. 0. 3. 0. 0. 0. 56. 1. 0.
      0. 38. 0. 0. 0.</_>
    <_>
      100. 5. 0. 0. 179. 0. 0. 0. 105. 0. 0. 0. 133. 0. 0. 0. 189. 0. 0.
      0. 16. 0. 0. 0. 153. 0. 0. 0. 174. 0. 0. 0. 87. 0. 0. 0. 10. 0. 0.
      0. 21. 0. 0. 0. 19. 0. 0. 0. 120. 0. 0. 0. 10. 0. 0. 0. 208. 0. 0.
      0. 250. 0. 0. 0. 155. 0. 0. 0. 27. 0. 0. 0. 15. 0. 0. 0. 8. 0. 0.
      0. 13. 0. 0. 0. 0. 0. 0. 0. 8. 0. 0. 0. 9. 0. 0. 0. 95. 0. 0. 0.
      9. 0. 0. 0. 18. 0. 0. 0. 17. 0. 0. 0. 137. 0. 0. 0. 2. 0. 0. 0. 4.
      1. 0. 0. 138. 0. 0. 0. 127. 0. 0. 0. 7. 0. 0. 0. 7. 0. 0. 0. 7. 0.
      0. 0. 18. 0. 0. 0. 2. 0. 0. 0. 10. 0. 0. 0. 7. 0. 0. 0. 11. 0. 0.
      0. 2. 0. 0. 0. 3. 0. 0. 0. 5. 0. 0. 0. 14. 0. 0. 0. 2. 0. 0. 0.
      23. 0. 0. 0. 12. 0. 0. 0. 125. 0. 0. 0. 19. 0. 0. 0. 5. 0. 0. 0.
      9. 0. 0. 0. 12. 0. 0. 0. 0. 0. 0. 0. 7. 0. 0. 0. 2. 0. 0. 0. 192.
      0. 0. 0. 18. 0. 0. 0. 23. 0. 0. 0. 19. 0. 0. 0. 187. 0. 0. 0. 4.
      0. 0. 0. 168. 0. 0. 0. 68. 0. 0. 0.</_>
    <_>
      178. 1. 0. 0. 32. 0. 0. 0. 53. 0. 0. 0. 126. 0. 0. 0. 44. 0. 0. 0.
      0. 0. 0. 0. 105. 0. 0. 0. 17. 1. 0. 0. 60. 0. 0. 0. 2. 0. 0. 0. 3.
      0. 0. 0. 3. 0. 0. 0. 103. 0. 0. 0. 0. 0. 0. 0. 156. 1. 0. 0. 5. 2.
      0. 0. 39. 0. 0. 0. 3. 0. 0. 0. 1. 0. 0. 0. 0. 0. 0. 0. 0. 0. 0. 0.
      0. 0. 0. 0. 0. 0. 0. 0. 0. 0. 0. 0. 113. 0. 0. 0. 0. 0. 0. 0. 4.
      0. 0. 0. 4. 0. 0. 0. 227. 0. 0. 0. 0. 0. 0. 0. 228. 1. 0. 0. 60.
      0. 0. 0. 58. 0. 0. 0. 0. 0. 0. 0. 3. 0. 0. 0. 1. 0. 0. 0. 0. 0. 0.
      0. 0. 0. 0. 0. 1. 0. 0. 0. 4. 0. 0. 0. 3. 0. 0. 0. 0. 0. 0. 0. 0.
      0. 0. 0. 0. 0. 0. 0. 10. 0. 0. 0. 0. 0. 0. 0. 21. 0. 0. 0. 0. 0.
      0. 0. 151. 0. 0. 0. 0. 0. 0. 0. 1. 0. 0. 0. 2. 0. 0. 0. 0. 0. 0.
      0. 0. 0. 0. 0. 0. 0. 0. 0. 1. 0. 0. 0. 28. 3. 0. 0. 0. 0. 0. 0.
      12. 0. 0. 0. 3. 0. 0. 0. 145. 2. 0. 0. 0. 0. 0. 0. 252. 0. 0. 0.
      32. 0. 0. 0.</_>
    <_>
      37. 6. 0. 0. 195. 0. 0. 0. 116. 0. 0. 0. 108. 0. 0. 0. 218. 0. 0.
      0. 17. 0. 0. 0. 128. 0. 0. 0. 133. 0. 0. 0. 125. 0. 0. 0. 19. 0.
      0. 0. 26. 0. 0. 0. 22. 0. 0. 0. 114. 0. 0. 0. 17. 0. 0. 0. 252. 0.
      0. 0. 15. 1. 0. 0. 181. 0. 0. 0. 43. 0. 0. 0. 13. 0. 0. 0. 17. 0.
      0. 0. 27. 0. 0. 0. 3. 0. 0. 0. 18. 0. 0. 0. 13. 0. 0. 0. 113. 0.
      0. 0. 17. 0. 0. 0. 22. 0. 0. 0. 20. 0. 0. 0. 125. 0. 0. 0. 9. 0.
      0. 0. 13. 1. 0. 0. 202. 0. 0. 0. 83. 0. 0. 0. 15. 0. 0. 0. 14. 0.
      0. 0. 12. 0. 0. 0. 22. 0. 0. 0. 1. 0. 0. 0. 9. 0. 0. 0. 6. 0. 0.
      0. 18. 0. 0. 0. 2. 0. 0. 0. 2. 0. 0. 0. 1. 0. 0. 0. 13. 0. 0. 0.
      1. 0. 0. 0. 16. 0. 0. 0. 15. 0. 0. 0. 97. 0. 0. 0. 15. 0. 0. 0.
      11. 0. 0. 0. 5. 0. 0. 0. 18. 0. 0. 0. 2. 0. 0. 0. 2. 0. 0. 0. 6.
      0. 0. 0. 196. 0. 0. 0. 19. 0. 0. 0. 18. 0. 0. 0. 17. 0. 0. 0. 238.
      0. 0. 0. 12. 0. 0. 0. 147. 0. 0. 0. 105. 0. 0. 0.</_>
    <_>
      105. 2. 0. 0. 72. 0. 0. 0. 58. 0. 0. 0. 90. 0. 0. 0. 50. 0. 0. 0.
      0. 0. 0. 0. 81. 0. 0. 0. 217. 0. 0. 0. 43. 0. 0. 0. 3. 0. 0. 0. 1.
      0. 0. 0. 4. 0. 0. 0. 96. 0. 0. 0. 0. 0. 0. 0. 115. 1. 0. 0. 225.
      2. 0. 0. 71. 0. 0. 0. 4. 0. 0. 0. 0. 0. 0. 0. 2. 0. 0. 0. 1. 0. 0.
      0. 0. 0. 0. 0. 1. 0. 0. 0. 0. 0. 0. 0. 127. 0. 0. 0. 3. 0. 0. 0.
      3. 0. 0. 0. 3. 0. 0. 0. 254. 0. 0. 0. 0. 0. 0. 0. 216. 1. 0. 0.
      125. 0. 0. 0. 84. 0. 0. 0. 4. 0. 0. 0. 6. 0. 0. 0. 6. 0. 0. 0. 3.
      0. 0. 0. 0. 0. 0. 0. 5. 0. 0. 0. 0. 0. 0. 0. 5. 0. 0. 0. 0. 0. 0.
      0. 0. 0. 0. 0. 0. 0. 0. 0. 6. 0. 0. 0. 0. 0. 0. 0. 16. 0. 0. 0. 8.
      0. 0. 0. 118. 0. 0. 0. 3. 0. 0. 0. 4. 0. 0. 0. 2. 0. 0. 0. 1. 0.
      0. 0. 0. 0. 0. 0. 0. 0. 0. 0. 0. 0. 0. 0. 239. 1. 0. 0. 2. 0. 0.
      0. 14. 0. 0. 0. 12. 0. 0. 0. 85. 2. 0. 0. 1. 0. 0. 0. 15. 1. 0. 0.
      36. 0. 0. 0.</_>
    <_>
      214. 1. 0. 0. 75. 0. 0. 0. 53. 0. 0. 0. 125. 0. 0. 0. 99. 0. 0. 0.
      2. 0. 0. 0. 150. 0. 0. 0. 83. 1. 0. 0. 58. 0. 0. 0. 0. 0. 0. 0. 4.
      0. 0. 0. 8. 0. 0. 0. 142. 0. 0. 0. 1. 0. 0. 0. 183. 1. 0. 0. 173.
      2. 0. 0. 50. 0. 0. 0. 6. 0. 0. 0. 2. 0. 0. 0. 3. 0. 0. 0. 0. 0. 0.
      0. 0. 0. 0. 0. 2. 0. 0. 0. 1. 0. 0. 0. 108. 0. 0. 0. 2. 0. 0. 0.
      6. 0. 0. 0. 5. 0. 0. 0. 17. 1. 0. 0. 0. 0. 0. 0. 137. 2. 0. 0.
      135. 0. 0. 0. 47. 0. 0. 0. 1. 0. 0. 0. 4. 0. 0. 0. 2. 0. 0. 0. 4.
      0. 0. 0. 0. 0. 0. 0. 3. 0. 0. 0. 0. 0. 0. 0. 4. 0. 0. 0. 0. 0. 0.
      0. 0. 0. 0. 0. 0. 0. 0. 0. 6. 0. 0. 0. 0. 0. 0. 0. 7. 0. 0. 0. 3.
      0. 0. 0. 97. 0. 0. 0. 2. 0. 0. 0. 2. 0. 0. 0. 1. 0. 0. 0. 1. 0. 0.
      0. 0. 0. 0. 0. 0. 0. 0. 0. 0. 0. 0. 0. 148. 1. 0. 0. 3. 0. 0. 0.
      8. 0. 0. 0. 7. 0. 0. 0. 124. 2. 0. 0. 0. 0. 0. 0. 62. 1. 0. 0. 53.
      0. 0. 0.</_>
    <_>
      228. 1. 0. 0. 34. 0. 0. 0. 57. 0. 0. 0. 105. 0. 0. 0. 66. 0. 0. 0.
      1. 0. 0. 0. 100. 0. 0. 0. 226. 0. 0. 0. 50. 0. 0. 0. 0. 0. 0. 0.
      5. 0. 0. 0. 5. 0. 0. 0. 101. 0. 0. 0. 1. 0. 0. 0. 95. 1. 0. 0.
      219. 1. 0. 0. 50. 0. 0. 0. 7. 0. 0. 0. 2. 0. 0. 0. 0. 0. 0. 0. 2.
      0. 0. 0. 0. 0. 0. 0. 1. 0. 0. 0. 0. 0. 0. 0. 104. 0. 0. 0. 1. 0.
      0. 0. 6. 0. 0. 0. 4. 0. 0. 0. 11. 1. 0. 0. 0. 0. 0. 0. 88. 2. 0.
      0. 102. 0. 0. 0. 57. 0. 0. 0. 2. 0. 0. 0. 4. 0. 0. 0. 2. 0. 0. 0.
      2. 0. 0. 0. 0. 0. 0. 0. 3. 0. 0. 0. 0. 0. 0. 0. 2. 0. 0. 0. 0. 0.
      0. 0. 0. 0. 0. 0. 0. 0. 0. 0. 6. 0. 0. 0. 0. 0. 0. 0. 6. 0. 0. 0.
      3. 0. 0. 0. 130. 0. 0. 0. 6. 0. 0. 0. 3. 0. 0. 0. 0. 0. 0. 0. 0.
      0. 0. 0. 0. 0. 0. 0. 2. 0. 0. 0. 0. 0. 0. 0. 120. 2. 0. 0. 2. 0.
      0. 0. 17. 0. 0. 0. 11. 0. 0. 0. 54. 3. 0. 0. 0. 0. 0. 0. 20. 1. 0.
      0. 43. 0. 0. 0.</_>
    <_>
      159. 6. 0. 0. 212. 0. 0. 0. 86. 0. 0. 0. 83. 0. 0. 0. 209. 0. 0.
      0. 21. 0. 0. 0. 88. 0. 0. 0. 85. 0. 0. 0. 140. 0. 0. 0. 12. 0. 0.
      0. 17. 0. 0. 0. 13. 0. 0. 0. 125. 0. 0. 0. 18. 0. 0. 0. 165. 0. 0.
      0. 143. 0. 0. 0. 243. 0. 0. 0. 41. 0. 0. 0. 24. 0. 0. 0. 13. 0. 0.
      0. 40. 0. 0. 0. 5. 0. 0. 0. 17. 0. 0. 0. 12. 0. 0. 0. 166. 0. 0.
      0. 19. 0. 0. 0. 23. 0. 0. 0. 21. 0. 0. 0. 162. 0. 0. 0. 13. 0. 0.
      0. 236. 0. 0. 0. 172. 0. 0. 0. 116. 0. 0. 0. 13. 0. 0. 0. 9. 0. 0.
      0. 14. 0. 0. 0. 11. 0. 0. 0. 0. 0. 0. 0. 19. 0. 0. 0. 6. 0. 0. 0.
      32. 0. 0. 0. 2. 0. 0. 0. 6. 0. 0. 0. 3. 0. 0. 0. 22. 0. 0. 0. 7.
      0. 0. 0. 18. 0. 0. 0. 24. 0. 0. 0. 118. 0. 0. 0. 22. 0. 0. 0. 13.
      0. 0. 0. 11. 0. 0. 0. 16. 0. 0. 0. 1. 0. 0. 0. 5. 0. 0. 0. 7. 0.
      0. 0. 219. 0. 0. 0. 18. 0. 0. 0. 31. 0. 0. 0. 18. 0. 0. 0. 229. 0.
      0. 0. 18. 0. 0. 0. 157. 0. 0. 0. 102. 0. 0. 0.</_>
    <_>
      49. 6. 0. 0. 198. 0. 0. 0. 110. 0. 0. 0. 147. 0. 0. 0. 182. 0. 0.
      0. 24. 0. 0. 0. 120. 0. 0. 0. 184. 0. 0. 0. 65. 0. 0. 0. 13. 0. 0.
      0. 17. 0. 0. 0. 17. 0. 0. 0. 129. 0. 0. 0. 13. 0. 0. 0. 190. 0. 0.
      0. 175. 0. 0. 0. 192. 0. 0. 0. 22. 0. 0. 0. 19. 0. 0. 0. 12. 0. 0.
      0. 27. 0. 0. 0. 2. 0. 0. 0. 14. 0. 0. 0. 9. 0. 0. 0. 119. 0. 0. 0.
      9. 0. 0. 0. 16. 0. 0. 0. 19. 0. 0. 0. 140. 0. 0. 0. 5. 0. 0. 0.
      179. 0. 0. 0. 121. 0. 0. 0. 94. 0. 0. 0. 12. 0. 0. 0. 13. 0. 0. 0.
      11. 0. 0. 0. 15. 0. 0. 0. 2. 0. 0. 0. 12. 0. 0. 0. 7. 0. 0. 0. 18.
      0. 0. 0. 2. 0. 0. 0. 0. 0. 0. 0. 4. 0. 0. 0. 9. 0. 0. 0. 3. 0. 0.
      0. 19. 0. 0. 0. 16. 0. 0. 0. 119. 0. 0. 0. 15. 0. 0. 0. 11. 0. 0.
      0. 10. 0. 0. 0. 9. 0. 0. 0. 1. 0. 0. 0. 6. 0. 0. 0. 7. 0. 0. 0.
      168. 0. 0. 0. 14. 0. 0. 0. 13. 0. 0. 0. 23. 0. 0. 0. 169. 0. 0. 0.
      3. 0. 0. 0. 176. 0. 0. 0. 99. 0. 0. 0.</_>
    <_>
      126. 5. 0. 0. 74. 0. 0. 0. 146. 0. 0. 0. 178. 0. 0. 0. 85. 0. 0.
      0. 2. 0. 0. 0. 158. 0. 0. 0. 26. 1. 0. 0. 98. 0. 0. 0. 1. 0. 0. 0.
      17. 0. 0. 0. 12. 0. 0. 0. 93. 0. 0. 0. 0. 0. 0. 0. 240. 1. 0. 0.
      73. 2. 0. 0. 60. 0. 0. 0. 5. 0. 0. 0. 2. 0. 0. 0. 1. 0. 0. 0. 3.
      0. 0. 0. 0. 0. 0. 0. 2. 0. 0. 0. 1. 0. 0. 0. 111. 0. 0. 0. 0. 0.
      0. 0. 4. 0. 0. 0. 7. 0. 0. 0. 176. 0. 0. 0. 0. 0. 0. 0. 150. 1. 0.
      0. 113. 0. 0. 0. 147. 0. 0. 0. 2. 0. 0. 0. 10. 0. 0. 0. 4. 0. 0.
      0. 1. 0. 0. 0. 1. 0. 0. 0. 4. 0. 0. 0. 3. 0. 0. 0. 11. 0. 0. 0. 0.
      0. 0. 0. 1. 0. 0. 0. 1. 0. 0. 0. 10. 0. 0. 0. 0. 0. 0. 0. 19. 0.
      0. 0. 6. 0. 0. 0. 144. 0. 0. 0. 4. 0. 0. 0. 7. 0. 0. 0. 1. 0. 0.
      0. 3. 0. 0. 0. 0. 0. 0. 0. 2. 0. 0. 0. 1. 0. 0. 0. 110. 1. 0. 0.
      2. 0. 0. 0. 13. 0. 0. 0. 6. 0. 0. 0. 65. 1. 0. 0. 0. 0. 0. 0. 218.
      0. 0. 0. 42. 0. 0. 0.</_>
    <_>
      241. 6. 0. 0. 137. 0. 0. 0. 164. 0. 0. 0. 208. 0. 0. 0. 189. 0. 0.
      0. 8. 0. 0. 0. 197. 0. 0. 0. 221. 0. 0. 0. 146. 0. 0. 0. 13. 0. 0.
      0. 24. 0. 0. 0. 19. 0. 0. 0. 116. 0. 0. 0. 7. 0. 0. 0. 91. 1. 0.
      0. 118. 1. 0. 0. 113. 0. 0. 0. 12. 0. 0. 0. 7. 0. 0. 0. 9. 0. 0.
      0. 11. 0. 0. 0. 1. 0. 0. 0. 5. 0. 0. 0. 7. 0. 0. 0. 95. 0. 0. 0.
      10. 0. 0. 0. 14. 0. 0. 0. 18. 0. 0. 0. 104. 0. 0. 0. 4. 0. 0. 0.
      235. 0. 0. 0. 134. 0. 0. 0. 101. 0. 0. 0. 4. 0. 0. 0. 13. 0. 0. 0.
      13. 0. 0. 0. 12. 0. 0. 0. 1. 0. 0. 0. 17. 0. 0. 0. 6. 0. 0. 0. 10.
      0. 0. 0. 1. 0. 0. 0. 2. 0. 0. 0. 1. 0. 0. 0. 9. 0. 0. 0. 0. 0. 0.
      0. 25. 0. 0. 0. 10. 0. 0. 0. 95. 0. 0. 0. 9. 0. 0. 0. 9. 0. 0. 0.
      2. 0. 0. 0. 7. 0. 0. 0. 2. 0. 0. 0. 6. 0. 0. 0. 1. 0. 0. 0. 255.
      0. 0. 0. 7. 0. 0. 0. 23. 0. 0. 0. 13. 0. 0. 0. 179. 0. 0. 0. 2. 0.
      0. 0. 198. 0. 0. 0. 64. 0. 0. 0.</_>
    <_>
      0. 3. 0. 0. 125. 0. 0. 0. 79. 0. 0. 0. 140. 0. 0. 0. 152. 0. 0. 0.
      1. 0. 0. 0. 195. 0. 0. 0. 181. 0. 0. 0. 90. 0. 0. 0. 2. 0. 0. 0.
      12. 0. 0. 0. 11. 0. 0. 0. 186. 0. 0. 0. 3. 0. 0. 0. 234. 1. 0. 0.
      117. 1. 0. 0. 136. 0. 0. 0. 12. 0. 0. 0. 3. 0. 0. 0. 6. 0. 0. 0.
      20. 0. 0. 0. 0. 0. 0. 0. 5. 0. 0. 0. 2. 0. 0. 0. 191. 0. 0. 0. 8.
      0. 0. 0. 13. 0. 0. 0. 15. 0. 0. 0. 81. 1. 0. 0. 3. 0. 0. 0. 62. 3.
      0. 0. 214. 0. 0. 0. 80. 0. 0. 0. 3. 0. 0. 0. 3. 0. 0. 0. 3. 0. 0.
      0. 3. 0. 0. 0. 0. 0. 0. 0. 6. 0. 0. 0. 1. 0. 0. 0. 10. 0. 0. 0. 0.
      0. 0. 0. 0. 0. 0. 0. 1. 0. 0. 0. 9. 0. 0. 0. 0. 0. 0. 0. 23. 0. 0.
      0. 8. 0. 0. 0. 175. 0. 0. 0. 4. 0. 0. 0. 3. 0. 0. 0. 6. 0. 0. 0.
      8. 0. 0. 0. 0. 0. 0. 0. 3. 0. 0. 0. 0. 0. 0. 0. 165. 1. 0. 0. 8.
      0. 0. 0. 23. 0. 0. 0. 20. 0. 0. 0. 245. 1. 0. 0. 5. 0. 0. 0. 155.
      1. 0. 0. 119. 0. 0. 0.</_>
    <_>
      193. 1. 0. 0. 57. 0. 0. 0. 42. 0. 0. 0. 107. 0. 0. 0. 66. 0. 0. 0.
      1. 0. 0. 0. 101. 0. 0. 0. 243. 0. 0. 0. 42. 0. 0. 0. 1. 0. 0. 0.
      1. 0. 0. 0. 3. 0. 0. 0. 107. 0. 0. 0. 0. 0. 0. 0. 24. 1. 0. 0.
      159. 1. 0. 0. 72. 0. 0. 0. 1. 0. 0. 0. 2. 0. 0. 0. 3. 0. 0. 0. 0.
      0. 0. 0. 0. 0. 0. 0. 2. 0. 0. 0. 0. 0. 0. 0. 115. 0. 0. 0. 2. 0.
      0. 0. 2. 0. 0. 0. 3. 0. 0. 0. 9. 1. 0. 0. 1. 0. 0. 0. 105. 1. 0.
      0. 68. 0. 0. 0. 50. 0. 0. 0. 3. 0. 0. 0. 6. 0. 0. 0. 3. 0. 0. 0.
      5. 0. 0. 0. 0. 0. 0. 0. 4. 0. 0. 0. 4. 0. 0. 0. 2. 0. 0. 0. 0. 0.
      0. 0. 0. 0. 0. 0. 1. 0. 0. 0. 5. 0. 0. 0. 0. 0. 0. 0. 16. 0. 0. 0.
      6. 0. 0. 0. 110. 0. 0. 0. 0. 0. 0. 0. 3. 0. 0. 0. 2. 0. 0. 0. 0.
      0. 0. 0. 0. 0. 0. 0. 3. 0. 0. 0. 0. 0. 0. 0. 160. 2. 0. 0. 3. 0.
      0. 0. 13. 0. 0. 0. 5. 0. 0. 0. 8. 3. 0. 0. 0. 0. 0. 0. 5. 1. 0. 0.
      47. 0. 0. 0.</_>
    <_>
      2. 2. 0. 0. 31. 0. 0. 0. 47. 0. 0. 0. 110. 0. 0. 0. 87. 0. 0. 0.
      1. 0. 0. 0. 92. 0. 0. 0. 10. 1. 0. 0. 37. 0. 0. 0. 0. 0. 0. 0. 2.
      0. 0. 0. 3. 0. 0. 0. 101. 0. 0. 0. 1. 0. 0. 0. 244. 0. 0. 0. 215.
      1. 0. 0. 48. 0. 0. 0. 2. 0. 0. 0. 1. 0. 0. 0. 2. 0. 0. 0. 0. 0. 0.
      0. 0. 0. 0. 0. 1. 0. 0. 0. 0. 0. 0. 0. 94. 0. 0. 0. 0. 0. 0. 0. 0.
      0. 0. 0. 3. 0. 0. 0. 177. 0. 0. 0. 0. 0. 0. 0. 49. 1. 0. 0. 62. 0.
      0. 0. 58. 0. 0. 0. 3. 0. 0. 0. 6. 0. 0. 0. 1. 0. 0. 0. 4. 0. 0. 0.
      0. 0. 0. 0. 1. 0. 0. 0. 2. 0. 0. 0. 4. 0. 0. 0. 0. 0. 0. 0. 0. 0.
      0. 0. 0. 0. 0. 0. 1. 0. 0. 0. 0. 0. 0. 0. 3. 0. 0. 0. 3. 0. 0. 0.
      100. 0. 0. 0. 2. 0. 0. 0. 3. 0. 0. 0. 1. 0. 0. 0. 4. 0. 0. 0. 0.
      0. 0. 0. 2. 0. 0. 0. 0. 0. 0. 0. 230. 2. 0. 0. 3. 0. 0. 0. 12. 0.
      0. 0. 5. 0. 0. 0. 83. 5. 0. 0. 0. 0. 0. 0. 211. 0. 0. 0. 31. 0. 0.
      0.</_>
    <_>
      185. 2. 0. 0. 31. 0. 0. 0. 104. 0. 0. 0. 115. 0. 0. 0. 35. 0. 0.
      0. 0. 0. 0. 0. 138. 0. 0. 0. 130. 1. 0. 0. 118. 0. 0. 0. 0. 0. 0.
      0. 6. 0. 0. 0. 4. 0. 0. 0. 131. 0. 0. 0. 0. 0. 0. 0. 80. 2. 0. 0.
      170. 3. 0. 0. 28. 0. 0. 0. 0. 0. 0. 0. 0. 0. 0. 0. 0. 0. 0. 0. 0.
      0. 0. 0. 0. 0. 0. 0. 0. 0. 0. 0. 0. 0. 0. 0. 104. 0. 0. 0. 1. 0.
      0. 0. 4. 0. 0. 0. 5. 0. 0. 0. 76. 1. 0. 0. 0. 0. 0. 0. 178. 2. 0.
      0. 78. 0. 0. 0. 81. 0. 0. 0. 0. 0. 0. 0. 3. 0. 0. 0. 0. 0. 0. 0.
      0. 0. 0. 0. 0. 0. 0. 0. 4. 0. 0. 0. 1. 0. 0. 0. 6. 0. 0. 0. 0. 0.
      0. 0. 0. 0. 0. 0. 0. 0. 0. 0. 3. 0. 0. 0. 0. 0. 0. 0. 15. 0. 0. 0.
      3. 0. 0. 0. 91. 0. 0. 0. 0. 0. 0. 0. 2. 0. 0. 0. 1. 0. 0. 0. 0. 0.
      0. 0. 0. 0. 0. 0. 0. 0. 0. 0. 0. 0. 0. 0. 210. 2. 0. 0. 0. 0. 0.
      0. 21. 0. 0. 0. 3. 0. 0. 0. 32. 3. 0. 0. 0. 0. 0. 0. 121. 1. 0. 0.
      17. 0. 0. 0.</_>
    <_>
      63. 7. 0. 0. 132. 0. 0. 0. 101. 0. 0. 0. 108. 0. 0. 0. 185. 0. 0.
      0. 18. 0. 0. 0. 136. 0. 0. 0. 137. 0. 0. 0. 121. 0. 0. 0. 8. 0. 0.
      0. 20. 0. 0. 0. 19. 0. 0. 0. 137. 0. 0. 0. 4. 0. 0. 0. 17. 1. 0.
      0. 40. 1. 0. 0. 158. 0. 0. 0. 24. 0. 0. 0. 6. 0. 0. 0. 7. 0. 0. 0.
      11. 0. 0. 0. 0. 0. 0. 0. 5. 0. 0. 0. 2. 0. 0. 0. 129. 0. 0. 0. 11.
      0. 0. 0. 21. 0. 0. 0. 15. 0. 0. 0. 97. 0. 0. 0. 5. 0. 0. 0. 211.
      0. 0. 0. 131. 0. 0. 0. 143. 0. 0. 0. 10. 0. 0. 0. 13. 0. 0. 0. 8.
      0. 0. 0. 16. 0. 0. 0. 1. 0. 0. 0. 13. 0. 0. 0. 1. 0. 0. 0. 25. 0.
      0. 0. 4. 0. 0. 0. 2. 0. 0. 0. 1. 0. 0. 0. 28. 0. 0. 0. 0. 0. 0. 0.
      31. 0. 0. 0. 17. 0. 0. 0. 143. 0. 0. 0. 13. 0. 0. 0. 6. 0. 0. 0.
      7. 0. 0. 0. 12. 0. 0. 0. 1. 0. 0. 0. 7. 0. 0. 0. 1. 0. 0. 0. 55.
      1. 0. 0. 14. 0. 0. 0. 28. 0. 0. 0. 22. 0. 0. 0. 232. 0. 0. 0. 8.
      0. 0. 0. 196. 0. 0. 0. 74. 0. 0. 0.</_>
    <_>
      56. 5. 0. 0. 162. 0. 0. 0. 113. 0. 0. 0. 99. 0. 0. 0. 182. 0. 0.
      0. 12. 0. 0. 0. 109. 0. 0. 0. 131. 0. 0. 0. 129. 0. 0. 0. 18. 0.
      0. 0. 14. 0. 0. 0. 25. 0. 0. 0. 134. 0. 0. 0. 11. 0. 0. 0. 204. 0.
      0. 0. 166. 0. 0. 0. 171. 0. 0. 0. 15. 0. 0. 0. 13. 0. 0. 0. 15. 0.
      0. 0. 14. 0. 0. 0. 1. 0. 0. 0. 12. 0. 0. 0. 10. 0. 0. 0. 136. 0.
      0. 0. 16. 0. 0. 0. 30. 0. 0. 0. 20. 0. 0. 0. 140. 0. 0. 0. 8. 0.
      0. 0. 173. 0. 0. 0. 125. 0. 0. 0. 162. 0. 0. 0. 16. 0. 0. 0. 11.
      0. 0. 0. 7. 0. 0. 0. 19. 0. 0. 0. 1. 0. 0. 0. 6. 0. 0. 0. 6. 0. 0.
      0. 31. 0. 0. 0. 3. 0. 0. 0. 3. 0. 0. 0. 3. 0. 0. 0. 23. 0. 0. 0.
      0. 0. 0. 0. 22. 0. 0. 0. 24. 0. 0. 0. 153. 0. 0. 0. 18. 0. 0. 0.
      9. 0. 0. 0. 7. 0. 0. 0. 7. 0. 0. 0. 0. 0. 0. 0. 4. 0. 0. 0. 8. 0.
      0. 0. 86. 1. 0. 0. 23. 0. 0. 0. 27. 0. 0. 0. 24. 0. 0. 0. 25. 1.
      0. 0. 12. 0. 0. 0. 178. 0. 0. 0. 99. 0. 0. 0.</_>
    <_>
      90. 6. 0. 0. 192. 0. 0. 0. 96. 0. 0. 0. 132. 0. 0. 0. 157. 0. 0.
      0. 14. 0. 0. 0. 87. 0. 0. 0. 102. 0. 0. 0. 95. 0. 0. 0. 10. 0. 0.
      0. 11. 0. 0. 0. 22. 0. 0. 0. 102. 0. 0. 0. 5. 0. 0. 0. 171. 0. 0.
      0. 150. 0. 0. 0. 183. 0. 0. 0. 16. 0. 0. 0. 12. 0. 0. 0. 11. 0. 0.
      0. 17. 0. 0. 0. 3. 0. 0. 0. 10. 0. 0. 0. 5. 0. 0. 0. 122. 0. 0. 0.
      11. 0. 0. 0. 13. 0. 0. 0. 16. 0. 0. 0. 174. 0. 0. 0. 5. 0. 0. 0.
      207. 0. 0. 0. 95. 0. 0. 0. 135. 0. 0. 0. 13. 0. 0. 0. 9. 0. 0. 0.
      11. 0. 0. 0. 15. 0. 0. 0. 0. 0. 0. 0. 14. 0. 0. 0. 3. 0. 0. 0. 19.
      0. 0. 0. 1. 0. 0. 0. 5. 0. 0. 0. 2. 0. 0. 0. 19. 0. 0. 0. 3. 0. 0.
      0. 25. 0. 0. 0. 12. 0. 0. 0. 191. 0. 0. 0. 10. 0. 0. 0. 3. 0. 0.
      0. 3. 0. 0. 0. 10. 0. 0. 0. 1. 0. 0. 0. 3. 0. 0. 0. 5. 0. 0. 0.
      32. 1. 0. 0. 20. 0. 0. 0. 19. 0. 0. 0. 10. 0. 0. 0. 86. 1. 0. 0.
      5. 0. 0. 0. 167. 0. 0. 0. 65. 0. 0. 0.</_>
    <_>
      146. 5. 0. 0. 150. 0. 0. 0. 80. 0. 0. 0. 96. 0. 0. 0. 193. 0. 0.
      0. 17. 0. 0. 0. 102. 0. 0. 0. 130. 0. 0. 0. 141. 0. 0. 0. 15. 0.
      0. 0. 17. 0. 0. 0. 18. 0. 0. 0. 116. 0. 0. 0. 16. 0. 0. 0. 199. 0.
      0. 0. 177. 0. 0. 0. 197. 0. 0. 0. 19. 0. 0. 0. 14. 0. 0. 0. 15. 0.
      0. 0. 24. 0. 0. 0. 4. 0. 0. 0. 8. 0. 0. 0. 6. 0. 0. 0. 145. 0. 0.
      0. 14. 0. 0. 0. 29. 0. 0. 0. 15. 0. 0. 0. 182. 0. 0. 0. 7. 0. 0.
      0. 203. 0. 0. 0. 143. 0. 0. 0. 115. 0. 0. 0. 19. 0. 0. 0. 14. 0.
      0. 0. 7. 0. 0. 0. 12. 0. 0. 0. 1. 0. 0. 0. 8. 0. 0. 0. 3. 0. 0. 0.
      34. 0. 0. 0. 3. 0. 0. 0. 7. 0. 0. 0. 1. 0. 0. 0. 27. 0. 0. 0. 3.
      0. 0. 0. 25. 0. 0. 0. 20. 0. 0. 0. 169. 0. 0. 0. 16. 0. 0. 0. 9.
      0. 0. 0. 11. 0. 0. 0. 11. 0. 0. 0. 1. 0. 0. 0. 4. 0. 0. 0. 1. 0.
      0. 0. 78. 1. 0. 0. 32. 0. 0. 0. 23. 0. 0. 0. 28. 0. 0. 0. 84. 1.
      0. 0. 10. 0. 0. 0. 195. 0. 0. 0. 117. 0. 0. 0.</_>
    <_>
      55. 2. 0. 0. 96. 0. 0. 0. 72. 0. 0. 0. 170. 0. 0. 0. 90. 0. 0. 0.
      3. 0. 0. 0. 139. 0. 0. 0. 75. 1. 0. 0. 61. 0. 0. 0. 4. 0. 0. 0.
      10. 0. 0. 0. 9. 0. 0. 0. 143. 0. 0. 0. 5. 0. 0. 0. 76. 2. 0. 0.
      220. 3. 0. 0. 116. 0. 0. 0. 9. 0. 0. 0. 4. 0. 0. 0. 2. 0. 0. 0. 4.
      0. 0. 0. 0. 0. 0. 0. 4. 0. 0. 0. 1. 0. 0. 0. 155. 0. 0. 0. 3. 0.
      0. 0. 11. 0. 0. 0. 12. 0. 0. 0. 212. 0. 0. 0. 1. 0. 0. 0. 67. 2.
      0. 0. 229. 0. 0. 0. 35. 0. 0. 0. 3. 0. 0. 0. 13. 0. 0. 0. 3. 0. 0.
      0. 2. 0. 0. 0. 0. 0. 0. 0. 4. 0. 0. 0. 2. 0. 0. 0. 5. 0. 0. 0. 1.
      0. 0. 0. 0. 0. 0. 0. 0. 0. 0. 0. 5. 0. 0. 0. 0. 0. 0. 0. 26. 0. 0.
      0. 8. 0. 0. 0. 91. 0. 0. 0. 6. 0. 0. 0. 2. 0. 0. 0. 7. 0. 0. 0. 6.
      0. 0. 0. 0. 0. 0. 0. 1. 0. 0. 0. 2. 0. 0. 0. 112. 1. 0. 0. 6. 0.
      0. 0. 11. 0. 0. 0. 5. 0. 0. 0. 29. 1. 0. 0. 2. 0. 0. 0. 4. 1. 0.
      0. 84. 0. 0. 0.</_>
    <_>
      58. 5. 0. 0. 181. 0. 0. 0. 126. 0. 0. 0. 140. 0. 0. 0. 185. 0. 0.
      0. 22. 0. 0. 0. 147. 0. 0. 0. 182. 0. 0. 0. 98. 0. 0. 0. 10. 0. 0.
      0. 22. 0. 0. 0. 19. 0. 0. 0. 96. 0. 0. 0. 22. 0. 0. 0. 232. 0. 0.
      0. 45. 1. 0. 0. 146. 0. 0. 0. 24. 0. 0. 0. 9. 0. 0. 0. 16. 0. 0.
      0. 21. 0. 0. 0. 3. 0. 0. 0. 15. 0. 0. 0. 10. 0. 0. 0. 108. 0. 0.
      0. 11. 0. 0. 0. 14. 0. 0. 0. 17. 0. 0. 0. 138. 0. 0. 0. 5. 0. 0.
      0. 242. 0. 0. 0. 168. 0. 0. 0. 85. 0. 0. 0. 12. 0. 0. 0. 4. 0. 0.
      0. 3. 0. 0. 0. 7. 0. 0. 0. 0. 0. 0. 0. 3. 0. 0. 0. 9. 0. 0. 0. 14.
      0. 0. 0. 2. 0. 0. 0. 5. 0. 0. 0. 1. 0. 0. 0. 16. 0. 0. 0. 3. 0. 0.
      0. 10. 0. 0. 0. 15. 0. 0. 0. 98. 0. 0. 0. 14. 0. 0. 0. 4. 0. 0. 0.
      8. 0. 0. 0. 12. 0. 0. 0. 0. 0. 0. 0. 6. 0. 0. 0. 8. 0. 0. 0. 236.
      0. 0. 0. 17. 0. 0. 0. 16. 0. 0. 0. 9. 0. 0. 0. 188. 0. 0. 0. 9. 0.
      0. 0. 190. 0. 0. 0. 98. 0. 0. 0.</_>
    <_>
      15. 5. 0. 0. 184. 0. 0. 0. 126. 0. 0. 0. 160. 0. 0. 0. 178. 0. 0.
      0. 11. 0. 0. 0. 130. 0. 0. 0. 193. 0. 0. 0. 78. 0. 0. 0. 15. 0. 0.
      0. 16. 0. 0. 0. 17. 0. 0. 0. 139. 0. 0. 0. 12. 0. 0. 0. 20. 1. 0.
      0. 71. 1. 0. 0. 194. 0. 0. 0. 25. 0. 0. 0. 12. 0. 0. 0. 14. 0. 0.
      0. 23. 0. 0. 0. 5. 0. 0. 0. 10. 0. 0. 0. 17. 0. 0. 0. 120. 0. 0.
      0. 9. 0. 0. 0. 18. 0. 0. 0. 18. 0. 0. 0. 219. 0. 0. 0. 10. 0. 0.
      0. 80. 1. 0. 0. 165. 0. 0. 0. 109. 0. 0. 0. 21. 0. 0. 0. 3. 0. 0.
      0. 7. 0. 0. 0. 5. 0. 0. 0. 3. 0. 0. 0. 4. 0. 0. 0. 9. 0. 0. 0. 24.
      0. 0. 0. 2. 0. 0. 0. 4. 0. 0. 0. 4. 0. 0. 0. 20. 0. 0. 0. 0. 0. 0.
      0. 20. 0. 0. 0. 16. 0. 0. 0. 126. 0. 0. 0. 21. 0. 0. 0. 6. 0. 0.
      0. 12. 0. 0. 0. 11. 0. 0. 0. 1. 0. 0. 0. 5. 0. 0. 0. 4. 0. 0. 0.
      209. 0. 0. 0. 19. 0. 0. 0. 22. 0. 0. 0. 14. 0. 0. 0. 196. 0. 0. 0.
      11. 0. 0. 0. 192. 0. 0. 0. 113. 0. 0. 0.</_>
    <_>
      213. 4. 0. 0. 139. 0. 0. 0. 85. 0. 0. 0. 120. 0. 0. 0. 199. 0. 0.
      0. 8. 0. 0. 0. 133. 0. 0. 0. 178. 0. 0. 0. 131. 0. 0. 0. 11. 0. 0.
      0. 15. 0. 0. 0. 29. 0. 0. 0. 161. 0. 0. 0. 11. 0. 0. 0. 117. 1. 0.
      0. 53. 1. 0. 0. 196. 0. 0. 0. 27. 0. 0. 0. 7. 0. 0. 0. 8. 0. 0. 0.
      9. 0. 0. 0. 0. 0. 0. 0. 7. 0. 0. 0. 6. 0. 0. 0. 191. 0. 0. 0. 20.
      0. 0. 0. 24. 0. 0. 0. 28. 0. 0. 0. 15. 1. 0. 0. 8. 0. 0. 0. 190.
      1. 0. 0. 215. 0. 0. 0. 63. 0. 0. 0. 8. 0. 0. 0. 6. 0. 0. 0. 7. 0.
      0. 0. 10. 0. 0. 0. 1. 0. 0. 0. 5. 0. 0. 0. 5. 0. 0. 0. 16. 0. 0.
      0. 1. 0. 0. 0. 2. 0. 0. 0. 1. 0. 0. 0. 21. 0. 0. 0. 4. 0. 0. 0.
      39. 0. 0. 0. 12. 0. 0. 0. 160. 0. 0. 0. 6. 0. 0. 0. 7. 0. 0. 0. 5.
      0. 0. 0. 4. 0. 0. 0. 1. 0. 0. 0. 3. 0. 0. 0. 0. 0. 0. 0. 63. 1. 0.
      0. 12. 0. 0. 0. 27. 0. 0. 0. 22. 0. 0. 0. 127. 1. 0. 0. 13. 0. 0.
      0. 110. 1. 0. 0. 138. 0. 0. 0.</_>
    <_>
      6. 5. 0. 0. 219. 0. 0. 0. 107. 0. 0. 0. 173. 0. 0. 0. 169. 0. 0.
      0. 14. 0. 0. 0. 145. 0. 0. 0. 185. 0. 0. 0. 92. 0. 0. 0. 6. 0. 0.
      0. 13. 0. 0. 0. 14. 0. 0. 0. 129. 0. 0. 0. 8. 0. 0. 0. 230. 0. 0.
      0. 251. 0. 0. 0. 221. 0. 0. 0. 37. 0. 0. 0. 5. 0. 0. 0. 14. 0. 0.
      0. 10. 0. 0. 0. 2. 0. 0. 0. 14. 0. 0. 0. 7. 0. 0. 0. 111. 0. 0. 0.
      21. 0. 0. 0. 17. 0. 0. 0. 22. 0. 0. 0. 123. 0. 0. 0. 6. 0. 0. 0.
      216. 0. 0. 0. 113. 0. 0. 0. 100. 0. 0. 0. 12. 0. 0. 0. 6. 0. 0. 0.
      6. 0. 0. 0. 11. 0. 0. 0. 1. 0. 0. 0. 12. 0. 0. 0. 6. 0. 0. 0. 23.
      0. 0. 0. 2. 0. 0. 0. 3. 0. 0. 0. 2. 0. 0. 0. 9. 0. 0. 0. 0. 0. 0.
      0. 22. 0. 0. 0. 22. 0. 0. 0. 119. 0. 0. 0. 16. 0. 0. 0. 6. 0. 0.
      0. 8. 0. 0. 0. 4. 0. 0. 0. 0. 0. 0. 0. 3. 0. 0. 0. 2. 0. 0. 0. 25.
      1. 0. 0. 9. 0. 0. 0. 18. 0. 0. 0. 19. 0. 0. 0. 16. 1. 0. 0. 6. 0.
      0. 0. 207. 0. 0. 0. 73. 0. 0. 0.</_>
    <_>
      197. 5. 0. 0. 196. 0. 0. 0. 98. 0. 0. 0. 106. 0. 0. 0. 198. 0. 0.
      0. 16. 0. 0. 0. 126. 0. 0. 0. 141. 0. 0. 0. 99. 0. 0. 0. 15. 0. 0.
      0. 27. 0. 0. 0. 16. 0. 0. 0. 114. 0. 0. 0. 12. 0. 0. 0. 232. 0. 0.
      0. 211. 0. 0. 0. 231. 0. 0. 0. 41. 0. 0. 0. 11. 0. 0. 0. 12. 0. 0.
      0. 24. 0. 0. 0. 5. 0. 0. 0. 13. 0. 0. 0. 13. 0. 0. 0. 120. 0. 0.
      0. 13. 0. 0. 0. 15. 0. 0. 0. 25. 0. 0. 0. 169. 0. 0. 0. 13. 0. 0.
      0. 57. 1. 0. 0. 161. 0. 0. 0. 142. 0. 0. 0. 20. 0. 0. 0. 11. 0. 0.
      0. 9. 0. 0. 0. 14. 0. 0. 0. 3. 0. 0. 0. 8. 0. 0. 0. 7. 0. 0. 0.
      24. 0. 0. 0. 2. 0. 0. 0. 2. 0. 0. 0. 3. 0. 0. 0. 23. 0. 0. 0. 0.
      0. 0. 0. 19. 0. 0. 0. 20. 0. 0. 0. 157. 0. 0. 0. 18. 0. 0. 0. 6.
      0. 0. 0. 12. 0. 0. 0. 20. 0. 0. 0. 2. 0. 0. 0. 6. 0. 0. 0. 6. 0.
      0. 0. 231. 0. 0. 0. 24. 0. 0. 0. 15. 0. 0. 0. 25. 0. 0. 0. 237. 0.
      0. 0. 13. 0. 0. 0. 189. 0. 0. 0. 78. 0. 0. 0.</_>
    <_>
      236. 4. 0. 0. 212. 0. 0. 0. 109. 0. 0. 0. 145. 0. 0. 0. 156. 0. 0.
      0. 21. 0. 0. 0. 123. 0. 0. 0. 187. 0. 0. 0. 75. 0. 0. 0. 8. 0. 0.
      0. 17. 0. 0. 0. 24. 0. 0. 0. 113. 0. 0. 0. 14. 0. 0. 0. 219. 0. 0.
      0. 255. 0. 0. 0. 203. 0. 0. 0. 23. 0. 0. 0. 12. 0. 0. 0. 10. 0. 0.
      0. 14. 0. 0. 0. 1. 0. 0. 0. 9. 0. 0. 0. 7. 0. 0. 0. 107. 0. 0. 0.
      12. 0. 0. 0. 20. 0. 0. 0. 17. 0. 0. 0. 140. 0. 0. 0. 10. 0. 0. 0.
      232. 0. 0. 0. 148. 0. 0. 0. 100. 0. 0. 0. 10. 0. 0. 0. 10. 0. 0.
      0. 10. 0. 0. 0. 11. 0. 0. 0. 0. 0. 0. 0. 5. 0. 0. 0. 3. 0. 0. 0.
      21. 0. 0. 0. 2. 0. 0. 0. 3. 0. 0. 0. 4. 0. 0. 0. 19. 0. 0. 0. 0.
      0. 0. 0. 13. 0. 0. 0. 25. 0. 0. 0. 131. 0. 0. 0. 14. 0. 0. 0. 8.
      0. 0. 0. 10. 0. 0. 0. 9. 0. 0. 0. 1. 0. 0. 0. 4. 0. 0. 0. 3. 0. 0.
      0. 227. 0. 0. 0. 19. 0. 0. 0. 16. 0. 0. 0. 20. 0. 0. 0. 175. 0. 0.
      0. 16. 0. 0. 0. 137. 0. 0. 0. 64. 0. 0. 0.</_>
    <_>
      194. 3. 0. 0. 161. 0. 0. 0. 85. 0. 0. 0. 110. 0. 0. 0. 182. 0. 0.
      0. 9. 0. 0. 0. 87. 0. 0. 0. 171. 0. 0. 0. 76. 0. 0. 0. 10. 0. 0.
      0. 11. 0. 0. 0. 6. 0. 0. 0. 127. 0. 0. 0. 2. 0. 0. 0. 245. 0. 0.
      0. 26. 1. 0. 0. 160. 0. 0. 0. 13. 0. 0. 0. 10. 0. 0. 0. 6. 0. 0.
      0. 13. 0. 0. 0. 0. 0. 0. 0. 24. 0. 0. 0. 1. 0. 0. 0. 130. 0. 0. 0.
      5. 0. 0. 0. 9. 0. 0. 0. 9. 0. 0. 0. 235. 0. 0. 0. 1. 0. 0. 0. 231.
      1. 0. 0. 128. 0. 0. 0. 92. 0. 0. 0. 13. 0. 0. 0. 5. 0. 0. 0. 10.
      0. 0. 0. 8. 0. 0. 0. 0. 0. 0. 0. 10. 0. 0. 0. 2. 0. 0. 0. 11. 0.
      0. 0. 0. 0. 0. 0. 2. 0. 0. 0. 0. 0. 0. 0. 9. 0. 0. 0. 0. 0. 0. 0.
      13. 0. 0. 0. 9. 0. 0. 0. 141. 0. 0. 0. 7. 0. 0. 0. 8. 0. 0. 0. 7.
      0. 0. 0. 10. 0. 0. 0. 0. 0. 0. 0. 7. 0. 0. 0. 5. 0. 0. 0. 122. 1.
      0. 0. 11. 0. 0. 0. 22. 0. 0. 0. 21. 0. 0. 0. 82. 2. 0. 0. 2. 0. 0.
      0. 24. 1. 0. 0. 79. 0. 0. 0.</_>
    <_>
      106. 1. 0. 0. 51. 0. 0. 0. 45. 0. 0. 0. 134. 0. 0. 0. 53. 0. 0. 0.
      3. 0. 0. 0. 111. 0. 0. 0. 27. 1. 0. 0. 36. 0. 0. 0. 4. 0. 0. 0. 2.
      0. 0. 0. 7. 0. 0. 0. 98. 0. 0. 0. 2. 0. 0. 0. 123. 1. 0. 0. 139.
      2. 0. 0. 63. 0. 0. 0. 3. 0. 0. 0. 1. 0. 0. 0. 2. 0. 0. 0. 2. 0. 0.
      0. 0. 0. 0. 0. 1. 0. 0. 0. 1. 0. 0. 0. 105. 0. 0. 0. 4. 0. 0. 0.
      5. 0. 0. 0. 7. 0. 0. 0. 3. 1. 0. 0. 2. 0. 0. 0. 169. 2. 0. 0. 140.
      0. 0. 0. 39. 0. 0. 0. 3. 0. 0. 0. 4. 0. 0. 0. 0. 0. 0. 0. 4. 0. 0.
      0. 1. 0. 0. 0. 5. 0. 0. 0. 4. 0. 0. 0. 5. 0. 0. 0. 1. 0. 0. 0. 0.
      0. 0. 0. 0. 0. 0. 0. 6. 0. 0. 0. 0. 0. 0. 0. 7. 0. 0. 0. 3. 0. 0.
      0. 110. 0. 0. 0. 2. 0. 0. 0. 4. 0. 0. 0. 3. 0. 0. 0. 0. 0. 0. 0.
      0. 0. 0. 0. 1. 0. 0. 0. 0. 0. 0. 0. 246. 1. 0. 0. 2. 0. 0. 0. 11.
      0. 0. 0. 5. 0. 0. 0. 158. 2. 0. 0. 0. 0. 0. 0. 68. 1. 0. 0. 48. 0.
      0. 0.</_>
    <_>
      107. 6. 0. 0. 231. 0. 0. 0. 108. 0. 0. 0. 131. 0. 0. 0. 200. 0. 0.
      0. 15. 0. 0. 0. 107. 0. 0. 0. 119. 0. 0. 0. 94. 0. 0. 0. 13. 0. 0.
      0. 12. 0. 0. 0. 19. 0. 0. 0. 121. 0. 0. 0. 9. 0. 0. 0. 172. 0. 0.
      0. 173. 0. 0. 0. 225. 0. 0. 0. 32. 0. 0. 0. 11. 0. 0. 0. 17. 0. 0.
      0. 16. 0. 0. 0. 3. 0. 0. 0. 13. 0. 0. 0. 6. 0. 0. 0. 113. 0. 0. 0.
